theta,reference,proportional,integral,derivative,dutycycle,g_comp,f_comp,time
0,0,0.001,0,0.015,-0.016,0,0.001,0
0,0,-0.001,0,-0.017,0.019,0,-0.001,0.005
-0.001,0,0.001,0,0.025,-0.029,0,0.003,0.01
-0.001,0,0.001,0,-0.005,0.002,0,0.003,0.015
0.001,0,-0.002,0,-0.035,0.041,0,-0.004,0.02
0,0,0,0,0.029,-0.029,0,0,0.025
-0.002,0,0.004,0,0.053,-0.066,-0.001,0.01,0.03
-0.003,0,0.006,0,0.004,-0.022,-0.001,0.013,0.035
-0.002,0,0.004,0.001,-0.015,0.001,-0.001,0.01,0.04
-0.002,0,0.003,0.001,-0.019,0.009,-0.001,0.006,0.045
-0.001,0,0.002,0.001,-0.004,-0.004,0,0.005,0.05
0,0,0.001,0.001,-0.021,0.019,0,0.001,0.055
0.001,0,-0.001,0.001,-0.018,0.02,0,-0.003,0.06
0.001,0,-0.001,0.001,0.004,-0.001,0,-0.003,0.065
0.002,0,-0.004,0.001,-0.044,0.058,0.001,-0.01,0.07
0.005,0,-0.009,0,-0.057,0.086,0.002,-0.022,0.075
0.004,0,-0.007,0,0.041,-0.018,0.002,-0.017,0.08
0.003,0,-0.006,0,0.006,0.013,0.001,-0.014,0.085
0.004,0,-0.007,-0.001,-0.009,0.03,0.001,-0.015,0.09
0.004,0,-0.008,-0.001,-0.013,0.038,0.002,-0.018,0.095
0.005,0,-0.008,-0.001,-0.005,0.032,0.002,-0.019,0.1
0.005,0,-0.008,-0.002,0.001,0.027,0.002,-0.019,0.105
0.005,0,-0.008,-0.002,0,0.028,0.002,-0.019,0.11
0.005,0,-0.008,-0.003,0,0.028,0.002,-0.019,0.115
0.005,0,-0.008,-0.003,0,0.029,0.002,-0.019,0.12
0.005,0,-0.008,-0.003,0,0.029,0.002,-0.019,0.125
0.005,0,-0.009,-0.004,-0.015,0.048,0.002,-0.022,0.13
0.006,0,-0.01,-0.004,-0.012,0.049,0.002,-0.024,0.135
0.006,0,-0.011,-0.005,-0.005,0.044,0.002,-0.026,0.14
0.006,0,-0.011,-0.005,0.001,0.039,0.002,-0.026,0.145
0.006,0,-0.011,-0.006,0,0.04,0.002,-0.026,0.15
0.006,0,-0.011,-0.006,0,0.041,0.002,-0.026,0.155
0.006,0,-0.011,-0.007,0,0.041,0.002,-0.026,0.16
0.006,0,-0.011,-0.007,0,0.042,0.002,-0.026,0.165
0.006,0,-0.011,-0.008,0,0.042,0.002,-0.026,0.17
0.006,0,-0.011,-0.008,0,0.043,0.002,-0.026,0.175
0.006,0,-0.011,-0.009,0,0.043,0.002,-0.026,0.18
0.006,0,-0.011,-0.009,0,0.044,0.002,-0.026,0.185
0.006,0,-0.011,-0.01,0,0.044,0.002,-0.026,0.19
0.006,0,-0.011,-0.01,0,0.045,0.002,-0.026,0.195
0.006,0,-0.011,-0.011,0,0.045,0.002,-0.026,0.2
0.006,0,-0.011,-0.011,0,0.046,0.002,-0.026,0.205
0.006,0,-0.011,-0.012,0,0.046,0.002,-0.026,0.21
0.006,0,-0.011,-0.012,0,0.047,0.002,-0.026,0.215
0.006,0,-0.011,-0.013,0,0.047,0.002,-0.026,0.22
0.006,0,-0.011,-0.013,0,0.048,0.002,-0.026,0.225
0.006,0,-0.011,-0.014,0,0.048,0.002,-0.026,0.23
0.006,0,-0.011,-0.014,0,0.049,0.002,-0.026,0.235
0.006,0,-0.011,-0.015,0,0.049,0.002,-0.026,0.24
0.006,0,-0.01,-0.015,0.015,0.032,0.002,-0.023,0.245
0.005,0,-0.009,-0.016,0.012,0.031,0.002,-0.021,0.25
0.005,0,-0.009,-0.016,-0.002,0.046,0.002,-0.021,0.255
0.005,0,-0.009,-0.016,0,0.043,0.002,-0.021,0.26
0.005,0,-0.009,-0.017,0,0.044,0.002,-0.021,0.265
0.005,0,-0.009,-0.017,0,0.045,0.002,-0.021,0.27
0.005,0,-0.009,-0.018,0,0.045,0.002,-0.021,0.275
0.005,0,-0.009,-0.018,-0.007,0.055,0.002,-0.022,0.28
0.006,0,-0.01,-0.018,-0.006,0.055,0.002,-0.023,0.285
0.006,0,-0.01,-0.019,0.001,0.049,0.002,-0.023,0.29
0.006,0,-0.01,-0.019,0,0.051,0.002,-0.023,0.296
0.006,0,-0.01,-0.02,0,0.051,0.002,-0.023,0.301
0.006,0,-0.01,-0.02,0,0.051,0.002,-0.023,0.306
0.006,0,-0.01,-0.021,0,0.052,0.002,-0.023,0.311
0.006,0,-0.01,-0.021,0,0.052,0.002,-0.023,0.316
0.006,0,-0.01,-0.022,0,0.053,0.002,-0.023,0.321
0.006,0,-0.01,-0.022,0,0.053,0.002,-0.023,0.326
0.006,0,-0.01,-0.023,0,0.053,0.002,-0.023,0.331
0.006,0,-0.01,-0.023,0,0.054,0.002,-0.023,0.336
0.006,0,-0.01,-0.023,0,0.054,0.002,-0.023,0.341
0.006,0,-0.01,-0.024,0,0.055,0.002,-0.023,0.346
0.006,0,-0.01,-0.024,0,0.055,0.002,-0.023,0.351
0.006,0,-0.01,-0.025,0,0.056,0.002,-0.023,0.356
0.006,0,-0.01,-0.025,0,0.056,0.002,-0.023,0.361
0.006,0,-0.01,-0.026,0,0.057,0.002,-0.023,0.366
0.006,0,-0.01,-0.026,0,0.057,0.002,-0.023,0.371
0.006,0,-0.01,-0.027,0,0.058,0.002,-0.023,0.376
0.006,0,-0.01,-0.027,0,0.058,0.002,-0.023,0.381
0.006,0,-0.01,-0.028,0,0.058,0.002,-0.023,0.386
0.006,0,-0.01,-0.028,0,0.059,0.002,-0.023,0.391
0.006,0,-0.01,-0.028,0,0.059,0.002,-0.023,0.396
0.006,0,-0.01,-0.029,0,0.06,0.002,-0.023,0.401
0.006,0,-0.01,-0.029,0,0.06,0.002,-0.023,0.406
0.006,0,-0.01,-0.03,0,0.061,0.002,-0.023,0.411
0.006,0,-0.01,-0.03,0,0.061,0.002,-0.023,0.416
0.006,0,-0.01,-0.031,0,0.062,0.002,-0.023,0.421
0.006,0,-0.01,-0.031,0,0.062,0.002,-0.023,0.426
0.006,0,-0.01,-0.032,0,0.063,0.002,-0.023,0.431
0.006,0,-0.01,-0.032,0,0.063,0.002,-0.023,0.436
0.006,0,-0.01,-0.033,0,0.063,0.002,-0.023,0.441
0.006,0,-0.01,-0.033,0,0.064,0.002,-0.023,0.446
0.006,0,-0.01,-0.033,0,0.064,0.002,-0.023,0.451
0.006,0,-0.01,-0.034,0,0.065,0.002,-0.023,0.456
0.006,0,-0.01,-0.034,0,0.065,0.002,-0.023,0.461
0.006,0,-0.01,-0.035,0,0.066,0.002,-0.023,0.466
0.006,0,-0.01,-0.035,0,0.066,0.002,-0.023,0.471
0.006,0,-0.01,-0.036,0,0.067,0.002,-0.023,0.476
0.006,0,-0.01,-0.036,0,0.067,0.002,-0.023,0.481
0.006,0,-0.01,-0.037,0,0.067,0.002,-0.023,0.486
0.006,0,-0.01,-0.037,0,0.068,0.002,-0.023,0.491
0.006,0,-0.01,-0.037,0,0.068,0.002,-0.023,0.496
0.006,0,-0.01,-0.038,0,0.069,0.002,-0.023,0.501
0.006,0,-0.01,-0.038,0,0.069,0.002,-0.023,0.506
0.006,0,-0.01,-0.039,0,0.07,0.002,-0.023,0.511
0.006,0,-0.01,-0.039,0,0.07,0.002,-0.023,0.516
0.006,0,-0.01,-0.04,0,0.071,0.002,-0.023,0.521
0.006,0,-0.01,-0.04,0,0.071,0.002,-0.023,0.526
0.006,0,-0.01,-0.041,0,0.072,0.002,-0.023,0.531
0.006,0,-0.01,-0.041,-0.007,0.081,0.002,-0.024,0.536
0.006,0,-0.01,-0.042,0.009,0.064,0.002,-0.023,0.541
0.006,0,-0.01,-0.042,-0.002,0.075,0.002,-0.023,0.546
0.006,0,-0.01,-0.042,0,0.073,0.002,-0.023,0.551
0.006,0,-0.01,-0.043,-0.007,0.083,0.002,-0.024,0.556
0.006,0,-0.01,-0.043,0.009,0.066,0.002,-0.023,0.561
0.006,0,-0.01,-0.044,-0.009,0.086,0.002,-0.024,0.566
0.006,0,-0.01,-0.044,0.002,0.075,0.002,-0.024,0.571
0.006,0,-0.01,-0.045,0,0.078,0.002,-0.024,0.576
0.006,0,-0.01,-0.045,0.007,0.069,0.002,-0.023,0.581
0.006,0,-0.01,-0.046,-0.001,0.078,0.002,-0.023,0.586
0.006,0,-0.01,-0.046,0,0.077,0.002,-0.023,0.591
0.006,0,-0.01,-0.047,-0.007,0.087,0.002,-0.024,0.596
0.006,0,-0.01,-0.047,0.001,0.078,0.002,-0.024,0.601
0.006,0,-0.01,-0.048,0,0.081,0.002,-0.024,0.606
0.006,0,-0.01,-0.048,0.007,0.072,0.002,-0.023,0.611
0.006,0,-0.01,-0.049,-0.009,0.09,0.002,-0.024,0.616
0.006,0,-0.01,-0.049,0.009,0.071,0.002,-0.023,0.621
0.006,0,-0.01,-0.049,-0.009,0.091,0.002,-0.024,0.626
0.006,0,-0.01,-0.05,0.009,0.072,0.002,-0.023,0.631
0.006,0,-0.01,-0.05,-0.002,0.083,0.002,-0.023,0.636
0.006,0,-0.01,-0.051,0,0.081,0.002,-0.023,0.641
0.006,0,-0.01,-0.051,-0.007,0.091,0.002,-0.024,0.646
0.006,0,-0.01,-0.052,0.009,0.074,0.002,-0.023,0.651
0.006,0,-0.01,-0.052,-0.002,0.085,0.002,-0.023,0.656
0.006,0,-0.01,-0.053,0,0.083,0.002,-0.023,0.661
0.006,0,-0.01,-0.053,0,0.084,0.002,-0.023,0.666
0.006,0,-0.01,-0.054,-0.007,0.093,0.002,-0.024,0.671
0.006,0,-0.01,-0.054,0.009,0.076,0.002,-0.023,0.676
0.006,0,-0.01,-0.054,-0.002,0.087,0.002,-0.023,0.681
0.006,0,-0.01,-0.055,0,0.086,0.002,-0.023,0.686
0.006,0,-0.01,-0.055,0,0.086,0.002,-0.023,0.691
0.006,0,-0.01,-0.056,0,0.087,0.002,-0.023,0.696
0.006,0,-0.01,-0.056,-0.007,0.096,0.002,-0.024,0.701
0.006,0,-0.01,-0.057,0.001,0.088,0.002,-0.024,0.706
0.006,0,-0.01,-0.057,0,0.09,0.002,-0.024,0.711
0.006,0,-0.01,-0.058,0.007,0.081,0.002,-0.023,0.716
0.006,0,-0.01,-0.058,-0.009,0.1,0.002,-0.024,0.721
0.006,0,-0.01,-0.059,0.009,0.081,0.002,-0.023,0.726
0.006,0,-0.01,-0.059,-0.002,0.092,0.002,-0.023,0.731
0.006,0,-0.01,-0.06,-0.007,0.099,0.002,-0.024,0.736
0.006,0,-0.01,-0.06,0.009,0.082,0.002,-0.023,0.741
0.006,0,-0.01,-0.06,-0.002,0.093,0.002,-0.023,0.746
0.006,0,-0.01,-0.061,0,0.092,0.002,-0.023,0.751
0.006,0,-0.01,-0.061,0,0.092,0.002,-0.023,0.756
0.006,0,-0.01,-0.062,-0.007,0.102,0.002,-0.024,0.761
0.006,0,-0.01,-0.062,0.009,0.084,0.002,-0.023,0.766
0.006,0,-0.01,-0.063,-0.009,0.104,0.002,-0.024,0.771
0.006,0,-0.01,-0.063,0.002,0.094,0.002,-0.024,0.776
0.006,0,-0.01,-0.064,0.007,0.088,0.002,-0.023,0.781
0.006,0,-0.01,-0.064,-0.009,0.106,0.002,-0.024,0.786
0.006,0,-0.01,-0.065,0.009,0.087,0.002,-0.023,0.791
0.006,0,-0.01,-0.065,-0.002,0.098,0.002,-0.023,0.796
0.006,0,-0.01,-0.066,-0.007,0.105,0.002,-0.024,0.801
0.006,0,-0.01,-0.066,0.009,0.088,0.002,-0.023,0.806
0.006,0,-0.01,-0.067,-0.009,0.108,0.002,-0.024,0.811
0.006,0,-0.01,-0.067,0.009,0.089,0.002,-0.023,0.816
0.006,0,-0.01,-0.067,-0.002,0.1,0.002,-0.023,0.821
0.006,0,-0.01,-0.068,-0.007,0.107,0.002,-0.024,0.826
0.006,0,-0.01,-0.068,0.009,0.091,0.002,-0.023,0.831
0.006,0,-0.01,-0.069,-0.009,0.11,0.002,-0.024,0.836
0.006,0,-0.01,-0.069,0.002,0.1,0.002,-0.024,0.841
0.006,0,-0.01,-0.07,0,0.103,0.002,-0.024,0.846
0.006,0,-0.01,-0.07,0.007,0.094,0.002,-0.023,0.851
0.006,0,-0.01,-0.071,-0.009,0.112,0.002,-0.024,0.856
0.006,0,-0.01,-0.071,0.002,0.102,0.002,-0.024,0.861
0.006,0,-0.01,-0.072,0,0.105,0.002,-0.024,0.866
0.006,0,-0.01,-0.072,0.007,0.096,0.002,-0.023,0.871
0.006,0,-0.01,-0.073,-0.001,0.105,0.002,-0.023,0.877
0.006,0,-0.01,-0.073,0,0.104,0.002,-0.023,0.882
0.006,0,-0.01,-0.073,-0.007,0.113,0.002,-0.024,0.887
0.006,0,-0.01,-0.074,0.009,0.096,0.002,-0.023,0.892
0.006,0,-0.01,-0.074,-0.002,0.107,0.002,-0.023,0.897
0.006,0,-0.01,-0.075,0,0.105,0.002,-0.023,0.902
0.006,0,-0.01,-0.075,0,0.106,0.002,-0.023,0.907
0.006,0,-0.01,-0.076,0,0.107,0.002,-0.023,0.912
0.006,0,-0.01,-0.076,0,0.107,0.002,-0.023,0.917
0.006,0,-0.01,-0.077,-0.007,0.117,0.002,-0.024,0.922
0.006,0,-0.01,-0.077,0.009,0.099,0.002,-0.023,0.927
0.006,0,-0.01,-0.078,-0.002,0.11,0.002,-0.023,0.932
0.006,0,-0.01,-0.078,0,0.109,0.002,-0.023,0.937
0.006,0,-0.01,-0.078,0,0.109,0.002,-0.023,0.942
0.006,0,-0.01,-0.079,0,0.11,0.002,-0.023,0.947
0.006,0,-0.01,-0.079,0,0.11,0.002,-0.023,0.952
0.006,0,-0.01,-0.08,-0.007,0.12,0.002,-0.024,0.957
0.006,0,-0.01,-0.08,0.009,0.102,0.002,-0.023,0.962
0.006,0,-0.01,-0.081,-0.002,0.113,0.002,-0.023,0.967
0.006,0,-0.01,-0.081,0,0.112,0.002,-0.023,0.972
0.006,0,-0.01,-0.082,0,0.113,0.002,-0.023,0.977
0.006,0,-0.01,-0.082,0,0.113,0.002,-0.023,0.982
0.006,0,-0.01,-0.083,0,0.113,0.002,-0.023,0.987
0.006,0,-0.01,-0.083,0,0.114,0.002,-0.023,0.992
0.006,0,-0.01,-0.084,-0.007,0.123,0.002,-0.024,0.997
0.006,-1.571,-2.837,-0.084,-37.313,1,0.002,-0.21,1.002
0.003,-1.571,-2.832,-0.084,7.528,-1,0.001,-0.21,1.007
-0.007,-1.571,-2.814,-0.084,-1.265,1,-0.003,-0.21,1.012
0.005,-1.571,-2.836,-0.084,-0.031,1,0.002,-0.21,1.017
-0.008,-1.571,-2.813,-0.084,0.305,1,-0.003,-0.21,1.022
-0.027,-1.571,-2.779,-0.084,0.391,1,-0.011,-0.21,1.027
-0.026,-1.571,-2.78,-0.084,-0.093,1,-0.011,-0.21,1.032
-0.045,-1.571,-2.746,-0.084,0.471,1,-0.018,-0.21,1.037
-0.071,-1.571,-2.699,-0.084,0.526,1,-0.029,-0.21,1.042
-0.086,-1.571,-2.673,-0.084,0.23,1,-0.034,-0.21,1.047
-0.119,-1.571,-2.613,-0.084,0.756,1,-0.048,-0.21,1.052
-0.148,-1.571,-2.56,-0.084,0.541,1,-0.06,-0.21,1.057
-0.177,-1.571,-2.509,-0.084,0.57,1,-0.071,-0.21,1.062
-0.22,-1.571,-2.432,-0.084,0.899,1,-0.088,-0.21,1.067
-0.255,-1.571,-2.368,-0.084,0.666,1,-0.102,-0.21,1.072
-0.299,-1.571,-2.289,-0.084,0.909,1,-0.119,-0.21,1.077
-0.346,-1.571,-2.204,-0.084,0.941,1,-0.137,-0.21,1.082
-0.393,-1.571,-2.119,-0.084,0.927,1,-0.154,-0.21,1.087
-0.449,-1.571,-2.02,-0.084,1.127,1,-0.175,-0.21,1.092
-0.504,-1.571,-1.921,-0.084,1.087,1,-0.194,-0.21,1.097
-0.561,-1.571,-1.818,-0.084,1.138,1,-0.214,-0.21,1.102
-0.622,-1.571,-1.708,-0.084,1.23,1,-0.235,-0.21,1.107
-0.682,-1.571,-1.6,-0.084,1.168,0.98,-0.254,-0.21,1.112
-0.744,-1.571,-1.488,-0.084,1.246,0.808,-0.273,-0.21,1.117
-0.808,-1.571,-1.372,-0.084,1.282,0.676,-0.291,-0.21,1.122
-0.87,-1.571,-1.261,-0.084,1.216,0.646,-0.308,-0.21,1.127
-0.937,-1.571,-1.14,-0.084,1.346,0.413,-0.325,-0.21,1.132
-1.005,-1.571,-1.018,-0.084,1.349,0.302,-0.34,-0.21,1.137
-1.068,-1.571,-0.905,-0.084,1.217,0.334,-0.353,-0.21,1.142
-1.131,-1.571,-0.792,-0.12,1.251,0.235,-0.364,-0.21,1.147
-1.196,-1.571,-0.675,-0.15,1.295,0.115,-0.375,-0.21,1.152
-1.258,-1.571,-0.562,-0.176,1.228,0.103,-0.383,-0.21,1.157
-1.319,-1.571,-0.454,-0.196,1.183,0.067,-0.39,-0.21,1.162
-1.377,-1.571,-0.348,-0.212,1.156,0.01,-0.395,-0.21,1.167
-1.433,-1.571,-0.248,-0.223,1.096,-0.015,-0.399,-0.21,1.172
-1.484,-1.571,-0.156,-0.231,0.991,0.007,-0.401,-0.21,1.177
-1.533,-1.571,-0.068,-0.234,0.961,-0.096,-0.403,-0.16,1.182
-1.588,-1.571,0.031,-0.232,1.12,-0.588,-0.403,0.072,1.187
-1.637,-1.571,0.119,-0.227,0.935,-0.635,-0.402,0.21,1.192
-1.671,-1.571,0.179,-0.219,0.615,-0.385,-0.401,0.21,1.197
-1.712,-1.571,0.254,-0.207,0.861,-0.719,-0.399,0.21,1.202
-1.751,-1.571,0.325,-0.192,0.768,-0.715,-0.396,0.21,1.207
-1.775,-1.571,0.367,-0.176,0.4,-0.407,-0.394,0.21,1.212
-1.804,-1.571,0.42,-0.157,0.62,-0.701,-0.392,0.21,1.217
-1.826,-1.571,0.459,-0.136,0.394,-0.538,-0.39,0.21,1.222
-1.838,-1.571,0.48,-0.114,0.198,-0.386,-0.389,0.21,1.227
-1.853,-1.571,0.509,-0.091,0.332,-0.573,-0.387,0.21,1.232
-1.86,-1.571,0.52,-0.067,0.087,-0.364,-0.386,0.21,1.237
-1.862,-1.571,0.524,-0.043,0.034,-0.339,-0.386,0.21,1.242
-1.865,-1.571,0.529,-0.019,0.059,-0.393,-0.386,0.21,1.247
-1.86,-1.571,0.521,0.004,-0.114,-0.236,-0.386,0.21,1.252
-1.855,-1.571,0.512,0.028,-0.101,-0.262,-0.387,0.21,1.257
-1.848,-1.571,0.499,0.05,-0.147,-0.225,-0.387,0.21,1.262
-1.837,-1.571,0.479,0.072,-0.233,-0.14,-0.389,0.21,1.267
-1.826,-1.571,0.459,0.093,-0.216,-0.157,-0.39,0.21,1.272
-1.815,-1.571,0.44,0.113,-0.219,-0.153,-0.391,0.21,1.277
-1.803,-1.571,0.418,0.132,-0.24,-0.128,-0.392,0.21,1.282
-1.786,-1.571,0.388,0.15,-0.346,-0.009,-0.393,0.21,1.287
-1.769,-1.571,0.357,0.166,-0.339,0.001,-0.395,0.21,1.292
-1.754,-1.571,0.329,0.181,-0.304,-0.02,-0.396,0.21,1.297
-1.736,-1.571,0.298,0.194,-0.355,0.05,-0.397,0.21,1.302
-1.718,-1.571,0.266,0.207,-0.352,0.068,-0.398,0.21,1.307
-1.699,-1.571,0.231,0.217,-0.382,0.123,-0.399,0.21,1.312
-1.678,-1.571,0.192,0.226,-0.441,0.214,-0.401,0.21,1.317
-1.658,-1.571,0.157,0.233,-0.371,0.172,-0.401,0.21,1.322
-1.64,-1.571,0.125,0.239,-0.356,0.184,-0.402,0.21,1.327
-1.617,-1.571,0.083,0.242,-0.476,0.358,-0.402,0.195,1.332
-1.597,-1.571,0.048,0.245,-0.371,0.369,-0.403,0.112,1.337
-1.58,-1.571,0.017,0.245,-0.334,0.434,-0.403,0.04,1.342
-1.56,-1.571,-0.02,0.244,-0.422,0.646,-0.403,-0.046,1.347
-1.543,-1.571,-0.049,0.242,-0.302,0.626,-0.403,-0.115,1.352
-1.529,-1.571,-0.075,0.239,-0.282,0.696,-0.402,-0.175,1.357
-1.514,-1.571,-0.103,0.234,-0.308,0.789,-0.402,-0.21,1.362
-1.504,-1.571,-0.121,0.229,-0.179,0.683,-0.402,-0.21,1.367
-1.495,-1.571,-0.136,0.222,-0.161,0.686,-0.402,-0.21,1.372
-1.488,-1.571,-0.149,0.216,-0.135,0.68,-0.401,-0.21,1.377
-1.486,-1.571,-0.152,0.209,-0.017,0.571,-0.401,-0.21,1.382
-1.484,-1.571,-0.156,0.202,-0.048,0.613,-0.401,-0.21,1.387
-1.486,-1.571,-0.154,0.195,0.039,0.531,-0.401,-0.21,1.392
-1.488,-1.571,-0.15,0.188,0.043,0.53,-0.401,-0.21,1.397
-1.491,-1.571,-0.144,0.181,0.064,0.51,-0.402,-0.21,1.402
-1.497,-1.571,-0.133,0.175,0.133,0.437,-0.402,-0.21,1.407
-1.502,-1.571,-0.124,0.17,0.09,0.476,-0.402,-0.21,1.412
-1.508,-1.571,-0.113,0.165,0.128,0.433,-0.402,-0.21,1.417
-1.516,-1.571,-0.099,0.16,0.164,0.387,-0.402,-0.21,1.422
-1.523,-1.571,-0.087,0.156,0.128,0.408,-0.402,-0.202,1.427
-1.531,-1.571,-0.072,0.153,0.171,0.318,-0.402,-0.168,1.432
-1.539,-1.571,-0.058,0.15,0.148,0.298,-0.403,-0.135,1.437
-1.545,-1.571,-0.047,0.148,0.116,0.295,-0.403,-0.11,1.442
-1.552,-1.571,-0.033,0.147,0.159,0.208,-0.403,-0.077,1.447
-1.559,-1.571,-0.022,0.146,0.121,0.208,-0.403,-0.05,1.452
-1.563,-1.571,-0.013,0.145,0.085,0.217,-0.403,-0.031,1.457
-1.568,-1.571,-0.004,0.145,0.1,0.173,-0.403,-0.01,1.463
-1.572,-1.571,0.003,0.145,0.075,0.174,-0.403,0.006,1.468
-1.575,-1.571,0.008,0.145,0.051,0.181,-0.403,0.018,1.473
-1.577,-1.571,0.011,0.146,0.034,0.187,-0.403,0.026,1.478
-1.577,-1.571,0.012,0.146,0.001,0.217,-0.403,0.027,1.483
-1.578,-1.571,0.012,0.147,0.007,0.208,-0.403,0.028,1.488
-1.577,-1.571,0.01,0.147,-0.023,0.244,-0.403,0.024,1.493
-1.575,-1.571,0.007,0.148,-0.039,0.27,-0.403,0.017,1.498
-1.573,-1.571,0.004,0.148,-0.029,0.269,-0.403,0.01,1.503
-1.571,-1.571,0,0.148,-0.053,0.308,-0.403,0,1.508
-1.568,-1.571,-0.004,0.148,-0.048,0.318,-0.403,-0.01,1.513
-1.567,-1.571,-0.008,0.147,-0.034,0.315,-0.403,-0.018,1.518
-1.564,-1.571,-0.013,0.147,-0.059,0.357,-0.403,-0.03,1.523
-1.562,-1.571,-0.016,0.146,-0.032,0.342,-0.403,-0.037,1.528
-1.561,-1.571,-0.018,0.145,-0.015,0.332,-0.403,-0.041,1.533
-1.559,-1.571,-0.021,0.144,-0.041,0.369,-0.403,-0.049,1.538
-1.559,-1.571,-0.022,0.143,-0.006,0.34,-0.403,-0.052,1.543
-1.558,-1.571,-0.023,0.142,-0.006,0.342,-0.403,-0.053,1.548
-1.558,-1.571,-0.023,0.141,0.001,0.336,-0.403,-0.053,1.553
-1.559,-1.571,-0.022,0.14,0.007,0.329,-0.403,-0.052,1.558
-1.559,-1.571,-0.022,0.139,-0.001,0.339,-0.403,-0.052,1.563
-1.559,-1.571,-0.021,0.138,0.015,0.32,-0.403,-0.049,1.568
-1.56,-1.571,-0.02,0.137,0.012,0.32,-0.403,-0.046,1.573
-1.56,-1.571,-0.02,0.136,-0.002,0.335,-0.403,-0.046,1.578
-1.56,-1.571,-0.019,0.136,0.015,0.315,-0.403,-0.044,1.583
-1.561,-1.571,-0.018,0.135,0.004,0.325,-0.403,-0.043,1.588
-1.561,-1.571,-0.018,0.134,-0.001,0.331,-0.403,-0.043,1.593
-1.561,-1.571,-0.018,0.133,0.007,0.321,-0.403,-0.041,1.598
-1.561,-1.571,-0.018,0.132,-0.001,0.331,-0.403,-0.041,1.603
-1.561,-1.571,-0.017,0.132,0.008,0.321,-0.403,-0.04,1.608
-1.561,-1.571,-0.017,0.131,-0.002,0.331,-0.403,-0.04,1.613
-1.562,-1.571,-0.017,0.13,0.008,0.32,-0.403,-0.039,1.618
-1.562,-1.571,-0.017,0.129,-0.002,0.33,-0.403,-0.039,1.623
-1.562,-1.571,-0.017,0.128,0,0.329,-0.403,-0.039,1.628
-1.562,-1.571,-0.016,0.128,0.007,0.321,-0.403,-0.037,1.633
-1.562,-1.571,-0.016,0.127,-0.001,0.331,-0.403,-0.037,1.638
-1.562,-1.571,-0.016,0.126,0,0.33,-0.403,-0.037,1.643
-1.562,-1.571,-0.016,0.126,0,0.331,-0.403,-0.037,1.648
-1.562,-1.571,-0.015,0.125,0.007,0.322,-0.403,-0.036,1.653
-1.562,-1.571,-0.015,0.124,-0.001,0.332,-0.403,-0.036,1.658
-1.562,-1.571,-0.015,0.123,0,0.331,-0.403,-0.036,1.663
-1.562,-1.571,-0.015,0.123,0,0.332,-0.403,-0.036,1.668
-1.563,-1.571,-0.015,0.122,0.007,0.323,-0.403,-0.035,1.673
-1.563,-1.571,-0.015,0.121,-0.001,0.333,-0.403,-0.035,1.678
-1.563,-1.571,-0.015,0.121,0,0.331,-0.403,-0.035,1.683
-1.563,-1.571,-0.014,0.12,0.007,0.323,-0.403,-0.034,1.688
-1.563,-1.571,-0.014,0.119,-0.001,0.333,-0.403,-0.034,1.693
-1.563,-1.571,-0.014,0.119,0,0.332,-0.403,-0.034,1.698
-1.563,-1.571,-0.014,0.118,0,0.333,-0.403,-0.034,1.703
-1.563,-1.571,-0.014,0.117,0,0.333,-0.403,-0.034,1.708
-1.563,-1.571,-0.014,0.117,0,0.334,-0.403,-0.034,1.713
-1.563,-1.571,-0.014,0.116,0,0.335,-0.403,-0.034,1.718
-1.563,-1.571,-0.014,0.116,0.007,0.326,-0.403,-0.032,1.723
-1.563,-1.571,-0.014,0.115,-0.001,0.335,-0.403,-0.032,1.728
-1.563,-1.571,-0.014,0.114,0,0.334,-0.403,-0.032,1.733
-1.563,-1.571,-0.014,0.114,0,0.335,-0.403,-0.032,1.738
-1.563,-1.571,-0.013,0.113,0.007,0.327,-0.403,-0.031,1.743
-1.563,-1.571,-0.013,0.112,-0.001,0.336,-0.403,-0.031,1.748
-1.563,-1.571,-0.013,0.112,0,0.335,-0.403,-0.031,1.753
-1.563,-1.571,-0.013,0.111,0,0.336,-0.403,-0.031,1.758
-1.563,-1.571,-0.013,0.111,0,0.336,-0.403,-0.031,1.763
-1.563,-1.571,-0.013,0.11,0,0.337,-0.403,-0.031,1.768
-1.564,-1.571,-0.013,0.109,0.007,0.328,-0.403,-0.03,1.773
-1.564,-1.571,-0.013,0.109,-0.001,0.338,-0.403,-0.03,1.778
-1.564,-1.571,-0.013,0.108,0,0.337,-0.403,-0.03,1.783
-1.564,-1.571,-0.013,0.108,0,0.337,-0.403,-0.03,1.788
-1.564,-1.571,-0.013,0.107,0,0.338,-0.403,-0.03,1.793
-1.564,-1.571,-0.012,0.107,0.007,0.329,-0.403,-0.028,1.798
-1.564,-1.571,-0.012,0.106,-0.001,0.339,-0.403,-0.028,1.803
-1.564,-1.571,-0.012,0.105,0,0.338,-0.403,-0.028,1.808
-1.564,-1.571,-0.012,0.105,0,0.338,-0.403,-0.028,1.813
-1.564,-1.571,-0.012,0.104,0.007,0.33,-0.403,-0.027,1.818
-1.564,-1.571,-0.012,0.104,-0.001,0.339,-0.403,-0.027,1.823
-1.564,-1.571,-0.012,0.103,0,0.338,-0.403,-0.027,1.828
-1.565,-1.571,-0.011,0.103,0.007,0.33,-0.403,-0.026,1.833
-1.565,-1.571,-0.011,0.102,-0.001,0.339,-0.403,-0.026,1.838
-1.565,-1.571,-0.011,0.102,0,0.337,-0.403,-0.026,1.843
-1.565,-1.571,-0.011,0.101,0,0.338,-0.403,-0.026,1.848
-1.565,-1.571,-0.011,0.101,0,0.339,-0.403,-0.026,1.853
-1.565,-1.571,-0.01,0.1,0.007,0.33,-0.403,-0.024,1.858
-1.565,-1.571,-0.01,0.1,0.006,0.33,-0.403,-0.023,1.863
-1.565,-1.571,-0.01,0.099,-0.008,0.347,-0.403,-0.024,1.868
-1.565,-1.571,-0.01,0.099,0.009,0.328,-0.403,-0.023,1.873
-1.565,-1.571,-0.01,0.099,-0.002,0.339,-0.403,-0.023,1.878
-1.566,-1.571,-0.009,0.098,0.008,0.328,-0.403,-0.022,1.883
-1.566,-1.571,-0.009,0.098,-0.002,0.338,-0.403,-0.022,1.888
-1.566,-1.571,-0.009,0.097,0.008,0.327,-0.403,-0.021,1.893
-1.566,-1.571,-0.009,0.097,-0.002,0.337,-0.403,-0.021,1.898
-1.566,-1.571,-0.009,0.096,0,0.335,-0.403,-0.021,1.903
-1.566,-1.571,-0.009,0.096,0,0.336,-0.403,-0.021,1.908
-1.566,-1.571,-0.009,0.096,0,0.337,-0.403,-0.021,1.913
-1.566,-1.571,-0.009,0.095,0,0.337,-0.403,-0.021,1.918
-1.566,-1.571,-0.009,0.095,0,0.337,-0.403,-0.021,1.923
-1.566,-1.571,-0.008,0.094,0.007,0.329,-0.403,-0.019,1.928
-1.566,-1.571,-0.008,0.094,-0.001,0.338,-0.403,-0.019,1.933
-1.566,-1.571,-0.009,0.094,-0.007,0.346,-0.403,-0.021,1.938
-1.566,-1.571,-0.008,0.093,0.009,0.328,-0.403,-0.019,1.943
-1.566,-1.571,-0.008,0.093,-0.002,0.339,-0.403,-0.019,1.948
-1.566,-1.571,-0.008,0.093,0,0.338,-0.403,-0.019,1.953
-1.566,-1.571,-0.008,0.092,0,0.338,-0.403,-0.019,1.958
-1.566,-1.571,-0.008,0.092,0,0.339,-0.403,-0.019,1.963
-1.566,-1.571,-0.008,0.091,0,0.339,-0.403,-0.019,1.968
-1.566,-1.571,-0.008,0.091,0,0.339,-0.403,-0.019,1.973
-1.567,-1.571,-0.008,0.091,0.007,0.331,-0.403,-0.018,1.978
-1.567,-1.571,-0.008,0.09,-0.001,0.34,-0.403,-0.018,1.983
-1.567,-1.571,-0.008,0.09,0,0.338,-0.403,-0.018,1.988
-1.567,-1.571,-0.008,0.09,0,0.339,-0.403,-0.018,1.993
-1.567,-1.571,-0.007,0.089,0.007,0.33,-0.403,-0.017,1.998
-1.567,-1.571,-0.008,0.089,-0.009,0.348,-0.403,-0.018,2.003
-1.567,-1.571,-0.007,0.089,0.009,0.329,-0.403,-0.017,2.008
-1.567,-1.571,-0.007,0.088,-0.002,0.34,-0.403,-0.017,2.013
-1.567,-1.571,-0.007,0.088,0,0.338,-0.403,-0.017,2.018
-1.567,-1.571,-0.007,0.088,0,0.339,-0.403,-0.017,2.023
-1.567,-1.571,-0.007,0.087,0,0.339,-0.403,-0.017,2.028
-1.567,-1.571,-0.007,0.087,0,0.34,-0.403,-0.017,2.033
-1.567,-1.571,-0.007,0.087,0.007,0.331,-0.403,-0.015,2.038
-1.567,-1.571,-0.007,0.086,-0.001,0.34,-0.403,-0.015,2.043
-1.567,-1.571,-0.007,0.086,0,0.338,-0.403,-0.015,2.048
-1.567,-1.571,-0.007,0.086,0,0.339,-0.403,-0.015,2.053
-1.567,-1.571,-0.007,0.086,0,0.339,-0.403,-0.015,2.059
-1.567,-1.571,-0.007,0.085,-0.007,0.349,-0.403,-0.017,2.064
-1.567,-1.571,-0.007,0.085,0.009,0.331,-0.403,-0.015,2.069
-1.567,-1.571,-0.006,0.085,0.006,0.333,-0.403,-0.014,2.074
-1.567,-1.571,-0.006,0.084,-0.001,0.34,-0.403,-0.014,2.079
-1.567,-1.571,-0.006,0.084,0,0.339,-0.403,-0.014,2.084
-1.567,-1.571,-0.007,0.084,-0.007,0.348,-0.403,-0.015,2.089
-1.567,-1.571,-0.006,0.083,0.009,0.331,-0.403,-0.014,2.094
-1.567,-1.571,-0.006,0.083,-0.002,0.342,-0.403,-0.014,2.099
-1.567,-1.571,-0.006,0.083,0,0.34,-0.403,-0.014,2.104
-1.568,-1.571,-0.006,0.083,0.007,0.331,-0.403,-0.013,2.109
-1.568,-1.571,-0.006,0.082,-0.001,0.34,-0.403,-0.013,2.114
-1.568,-1.571,-0.006,0.082,0,0.339,-0.403,-0.013,2.119
-1.568,-1.571,-0.006,0.082,0,0.339,-0.403,-0.013,2.124
-1.568,-1.571,-0.006,0.082,0,0.34,-0.403,-0.013,2.129
-1.567,-1.571,-0.006,0.081,-0.007,0.349,-0.403,-0.014,2.134
-1.568,-1.571,-0.006,0.081,0.009,0.331,-0.403,-0.013,2.139
-1.568,-1.571,-0.006,0.081,-0.002,0.342,-0.403,-0.013,2.144
-1.568,-1.571,-0.006,0.081,0,0.34,-0.403,-0.013,2.149
-1.568,-1.571,-0.005,0.08,0.007,0.332,-0.403,-0.012,2.154
-1.568,-1.571,-0.005,0.08,-0.001,0.341,-0.403,-0.012,2.159
-1.568,-1.571,-0.005,0.08,0,0.339,-0.403,-0.012,2.164
-1.568,-1.571,-0.005,0.08,0,0.34,-0.403,-0.012,2.169
-1.568,-1.571,-0.005,0.08,0,0.34,-0.403,-0.012,2.174
-1.568,-1.571,-0.005,0.079,0,0.34,-0.403,-0.012,2.179
-1.568,-1.571,-0.005,0.079,0,0.34,-0.403,-0.012,2.184
-1.568,-1.571,-0.005,0.079,0,0.341,-0.403,-0.012,2.189
-1.568,-1.571,-0.005,0.079,0,0.341,-0.403,-0.012,2.194
-1.568,-1.571,-0.005,0.078,0,0.341,-0.403,-0.012,2.199
-1.568,-1.571,-0.005,0.078,0,0.341,-0.403,-0.012,2.204
-1.568,-1.571,-0.004,0.078,0.007,0.332,-0.403,-0.01,2.209
-1.568,-1.571,-0.004,0.078,-0.001,0.341,-0.403,-0.01,2.214
-1.568,-1.571,-0.004,0.078,0,0.34,-0.403,-0.01,2.219
-1.568,-1.571,-0.004,0.077,0,0.34,-0.403,-0.01,2.224
-1.568,-1.571,-0.004,0.077,0,0.34,-0.403,-0.01,2.229
-1.568,-1.571,-0.004,0.077,0,0.341,-0.403,-0.01,2.234
-1.568,-1.571,-0.004,0.077,0,0.341,-0.403,-0.01,2.239
-1.569,-1.571,-0.004,0.077,0.007,0.332,-0.403,-0.009,2.244
-1.568,-1.571,-0.004,0.076,-0.009,0.35,-0.403,-0.01,2.249
-1.569,-1.571,-0.004,0.076,0.009,0.33,-0.403,-0.009,2.254
-1.569,-1.571,-0.004,0.076,-0.002,0.341,-0.403,-0.009,2.259
-1.569,-1.571,-0.004,0.076,0,0.339,-0.403,-0.009,2.264
-1.569,-1.571,-0.004,0.076,0,0.34,-0.403,-0.009,2.269
-1.569,-1.571,-0.004,0.076,0,0.34,-0.403,-0.009,2.274
-1.569,-1.571,-0.004,0.075,0,0.34,-0.403,-0.009,2.279
-1.569,-1.571,-0.004,0.075,0,0.341,-0.403,-0.009,2.284
-1.569,-1.571,-0.003,0.075,0.007,0.332,-0.403,-0.008,2.289
-1.569,-1.571,-0.004,0.075,-0.009,0.35,-0.403,-0.009,2.294
-1.569,-1.571,-0.004,0.075,0.002,0.339,-0.403,-0.009,2.299
-1.569,-1.571,-0.003,0.075,0.007,0.332,-0.403,-0.008,2.304
-1.569,-1.571,-0.004,0.074,-0.009,0.35,-0.403,-0.009,2.309
-1.569,-1.571,-0.003,0.074,0.009,0.331,-0.403,-0.008,2.314
-1.569,-1.571,-0.004,0.074,-0.009,0.351,-0.403,-0.009,2.319
-1.569,-1.571,-0.003,0.074,0.009,0.331,-0.403,-0.008,2.324
-1.569,-1.571,-0.003,0.074,-0.002,0.342,-0.403,-0.008,2.329
-1.569,-1.571,-0.003,0.074,0,0.34,-0.403,-0.008,2.334
-1.569,-1.571,-0.003,0.073,0,0.341,-0.403,-0.008,2.339
-1.569,-1.571,-0.003,0.073,0.007,0.331,-0.403,-0.006,2.344
-1.569,-1.571,-0.003,0.073,-0.009,0.349,-0.403,-0.008,2.349
-1.569,-1.571,-0.003,0.073,0.002,0.339,-0.403,-0.008,2.354
-1.569,-1.571,-0.003,0.073,0,0.341,-0.403,-0.008,2.359
-1.569,-1.571,-0.003,0.073,0.007,0.332,-0.403,-0.006,2.364
-1.569,-1.571,-0.003,0.073,-0.001,0.341,-0.403,-0.006,2.369
-1.569,-1.571,-0.003,0.072,0,0.339,-0.403,-0.006,2.374
-1.569,-1.571,-0.003,0.072,0,0.34,-0.403,-0.006,2.379
-1.569,-1.571,-0.003,0.072,-0.007,0.349,-0.403,-0.008,2.384
-1.569,-1.571,-0.003,0.072,0.009,0.331,-0.403,-0.006,2.389
-1.569,-1.571,-0.003,0.072,-0.002,0.342,-0.403,-0.006,2.394
-1.569,-1.571,-0.003,0.072,0,0.34,-0.403,-0.006,2.399
-1.57,-1.571,-0.002,0.072,0.007,0.331,-0.403,-0.005,2.404
-1.569,-1.571,-0.003,0.072,-0.009,0.349,-0.403,-0.006,2.409
-1.569,-1.571,-0.003,0.071,0.002,0.339,-0.403,-0.006,2.414
-1.57,-1.571,-0.002,0.071,0.007,0.332,-0.403,-0.005,2.419
-1.57,-1.571,-0.002,0.071,-0.001,0.34,-0.403,-0.005,2.424
-1.57,-1.571,-0.002,0.071,0,0.339,-0.403,-0.005,2.429
-1.57,-1.571,-0.002,0.071,0,0.339,-0.403,-0.005,2.434
-1.57,-1.571,-0.002,0.071,0,0.339,-0.403,-0.005,2.439
-1.57,-1.571,-0.002,0.071,0,0.339,-0.403,-0.005,2.444
-1.57,-1.571,-0.002,0.071,0,0.339,-0.403,-0.005,2.449
-1.57,-1.571,-0.002,0.071,0.007,0.33,-0.403,-0.004,2.454
-1.57,-1.571,-0.002,0.071,-0.001,0.339,-0.403,-0.004,2.459
-1.57,-1.571,-0.002,0.071,0,0.338,-0.403,-0.004,2.464
-1.57,-1.571,-0.002,0.07,0,0.338,-0.403,-0.004,2.469
-1.57,-1.571,-0.002,0.07,0,0.338,-0.403,-0.004,2.474
-1.57,-1.571,-0.002,0.07,0,0.338,-0.403,-0.004,2.479
-1.57,-1.571,-0.002,0.07,0,0.338,-0.403,-0.004,2.484
-1.57,-1.571,-0.002,0.07,0,0.338,-0.403,-0.004,2.489
-1.57,-1.571,-0.002,0.07,0,0.338,-0.403,-0.004,2.494
-1.57,-1.571,-0.002,0.07,0,0.338,-0.403,-0.004,2.499
-1.57,-1.571,-0.002,0.07,0,0.338,-0.403,-0.004,2.504
-1.57,-1.571,-0.002,0.07,0,0.339,-0.403,-0.004,2.509
-1.57,-1.571,-0.002,0.07,0,0.339,-0.403,-0.004,2.514
-1.57,-1.571,-0.002,0.07,0,0.339,-0.403,-0.004,2.519
-1.57,-1.571,-0.002,0.07,0,0.339,-0.403,-0.004,2.524
-1.57,-1.571,-0.002,0.07,0,0.339,-0.403,-0.004,2.529
-1.57,-1.571,-0.002,0.069,0,0.339,-0.403,-0.004,2.534
-1.57,-1.571,-0.002,0.069,0,0.339,-0.403,-0.004,2.539
-1.57,-1.571,-0.002,0.069,0,0.339,-0.403,-0.004,2.544
-1.57,-1.571,-0.001,0.069,0.007,0.33,-0.403,-0.003,2.549
-1.57,-1.571,-0.001,0.069,-0.001,0.339,-0.403,-0.003,2.554
-1.57,-1.571,-0.001,0.069,0,0.337,-0.403,-0.003,2.559
-1.57,-1.571,-0.001,0.069,0,0.337,-0.403,-0.003,2.564
-1.57,-1.571,-0.002,0.069,-0.007,0.347,-0.403,-0.004,2.569
-1.57,-1.571,-0.001,0.069,0.009,0.329,-0.403,-0.003,2.574
-1.57,-1.571,-0.001,0.069,-0.002,0.339,-0.403,-0.003,2.579
-1.57,-1.571,-0.001,0.069,0,0.337,-0.403,-0.003,2.584
-1.57,-1.571,-0.002,0.069,-0.007,0.347,-0.403,-0.004,2.589
-1.57,-1.571,-0.001,0.069,0.009,0.329,-0.403,-0.003,2.594
-1.57,-1.571,-0.001,0.069,-0.002,0.34,-0.403,-0.003,2.599
-1.57,-1.571,-0.002,0.069,-0.007,0.347,-0.403,-0.004,2.604
-1.57,-1.571,-0.001,0.069,0.009,0.329,-0.403,-0.003,2.609
-1.57,-1.571,-0.001,0.069,-0.002,0.34,-0.403,-0.003,2.614
-1.57,-1.571,-0.001,0.068,0,0.338,-0.403,-0.003,2.619
-1.57,-1.571,-0.001,0.068,0.007,0.329,-0.403,-0.001,2.624
-1.57,-1.571,-0.001,0.068,-0.001,0.338,-0.403,-0.001,2.629
-1.57,-1.571,-0.001,0.068,-0.007,0.345,-0.403,-0.003,2.634
-1.57,-1.571,-0.001,0.068,0.001,0.337,-0.403,-0.003,2.639
-1.57,-1.571,-0.001,0.068,0.007,0.329,-0.403,-0.001,2.644
-1.57,-1.571,-0.001,0.068,-0.001,0.338,-0.403,-0.001,2.649
-1.57,-1.571,-0.001,0.068,0,0.336,-0.403,-0.001,2.654
-1.57,-1.571,-0.001,0.068,0,0.336,-0.403,-0.001,2.66
-1.57,-1.571,-0.001,0.068,0,0.336,-0.403,-0.001,2.665
-1.57,-1.571,-0.001,0.068,0,0.336,-0.403,-0.001,2.67
-1.57,-1.571,-0.001,0.068,0,0.337,-0.403,-0.001,2.675
-1.57,-1.571,-0.001,0.068,0,0.337,-0.403,-0.001,2.68
-1.57,-1.571,-0.001,0.068,0,0.337,-0.403,-0.001,2.685
-1.57,-1.571,-0.001,0.068,0,0.337,-0.403,-0.001,2.69
-1.57,-1.571,-0.001,0.068,0,0.337,-0.403,-0.001,2.695
-1.57,-1.571,-0.001,0.068,0,0.337,-0.403,-0.001,2.7
-1.57,-1.571,-0.001,0.068,0,0.337,-0.403,-0.001,2.705
-1.57,-1.571,-0.001,0.068,0,0.337,-0.403,-0.001,2.71
-1.57,-1.571,-0.001,0.068,0,0.337,-0.403,-0.001,2.715
-1.57,-1.571,-0.001,0.068,0,0.337,-0.403,-0.001,2.72
-1.57,-1.571,-0.001,0.068,0,0.337,-0.403,-0.001,2.725
-1.57,-1.571,-0.001,0.068,-0.007,0.346,-0.403,-0.003,2.73
-1.57,-1.571,-0.001,0.068,0.009,0.328,-0.403,-0.001,2.735
-1.571,-1.571,0,0.068,0.006,0.329,-0.403,0,2.74
-1.571,-1.571,0,0.068,-0.001,0.336,-0.403,0,2.745
-1.57,-1.571,-0.001,0.068,-0.007,0.344,-0.403,-0.001,2.75
-1.57,-1.571,-0.001,0.068,0.001,0.335,-0.403,-0.001,2.755
-1.57,-1.571,-0.001,0.068,0,0.337,-0.403,-0.001,2.76
-1.57,-1.571,-0.001,0.068,0,0.337,-0.403,-0.001,2.765
-1.571,-1.571,0,0.068,0.007,0.328,-0.403,0,2.77
-1.571,-1.571,0,0.068,-0.001,0.337,-0.403,0,2.775
-1.571,-1.571,0,0.068,0,0.335,-0.403,0,2.78
-1.571,-1.571,0,0.068,0,0.335,-0.403,0,2.785
-1.57,-1.571,-0.001,0.068,-0.007,0.344,-0.403,-0.001,2.79
-1.571,-1.571,0,0.068,0.009,0.326,-0.403,0,2.795
-1.571,-1.571,0,0.068,-0.002,0.337,-0.403,0,2.8
-1.57,-1.571,-0.001,0.068,-0.007,0.344,-0.403,-0.001,2.805
-1.571,-1.571,0,0.068,0.009,0.326,-0.403,0,2.81
-1.571,-1.571,0,0.068,-0.002,0.337,-0.403,0,2.815
-1.571,-1.571,0,0.068,0,0.335,-0.403,0,2.82
-1.571,-1.571,0,0.068,0,0.335,-0.403,0,2.825
-1.571,-1.571,0,0.068,0,0.335,-0.403,0,2.83
-1.571,-1.571,0,0.068,0,0.335,-0.403,0,2.835
-1.571,-1.571,0,0.068,0,0.335,-0.403,0,2.84
-1.571,-1.571,0,0.068,0,0.335,-0.403,0,2.845
-1.571,-1.571,0,0.068,0,0.335,-0.403,0,2.85
-1.571,-1.571,0,0.068,0,0.335,-0.403,0,2.855
-1.571,-1.571,0,0.068,0,0.335,-0.403,0,2.86
-1.571,-1.571,0,0.068,0,0.335,-0.403,0,2.865
-1.571,-1.571,0,0.068,0,0.335,-0.403,0,2.87
-1.571,-1.571,0,0.068,0,0.335,-0.403,0,2.875
-1.571,-1.571,0,0.068,0,0.335,-0.403,0,2.88
-1.571,-1.571,0,0.068,0,0.335,-0.403,0,2.885
-1.571,-1.571,0,0.068,0,0.335,-0.403,0,2.89
-1.571,-1.571,0,0.068,0,0.335,-0.403,0,2.895
-1.571,-1.571,0,0.068,0,0.335,-0.403,0,2.9
-1.571,-1.571,0,0.068,0,0.335,-0.403,0,2.905
-1.571,-1.571,0,0.068,0,0.335,-0.403,0,2.91
-1.571,-1.571,0,0.068,0,0.335,-0.403,0,2.915
-1.571,-1.571,0,0.068,0,0.335,-0.403,0,2.92
-1.571,-1.571,0,0.068,0,0.335,-0.403,0,2.925
-1.571,-1.571,0,0.068,0,0.335,-0.403,0,2.93
-1.571,-1.571,0,0.068,0,0.335,-0.403,0,2.935
-1.571,-1.571,0,0.068,0,0.335,-0.403,0,2.94
-1.571,-1.571,0,0.068,0,0.335,-0.403,0,2.945
-1.571,-1.571,0,0.068,0,0.335,-0.403,0,2.95
-1.571,-1.571,0,0.068,0,0.335,-0.403,0,2.955
-1.571,-1.571,0.001,0.068,0.007,0.326,-0.403,0.001,2.96
-1.571,-1.571,0,0.068,-0.009,0.344,-0.403,0,2.965
-1.571,-1.571,0,0.068,0.002,0.333,-0.403,0,2.97
-1.571,-1.571,0,0.068,0,0.335,-0.403,0,2.975
-1.571,-1.571,0,0.068,0,0.335,-0.403,0,2.98
-1.571,-1.571,0,0.068,0,0.335,-0.403,0,2.985
-1.571,-1.571,0,0.068,0,0.335,-0.403,0,2.99
-1.571,-1.571,0,0.068,0,0.335,-0.403,0,2.995
-1.571,-1.571,0,0.068,0,0.335,-0.403,0,3
-1.571,-1.571,0.001,0.068,0.007,0.326,-0.403,0.001,3.005
-1.571,-1.571,0,0.068,-0.009,0.344,-0.403,0,3.01
-1.571,-1.571,0,0.068,0.002,0.333,-0.403,0,3.015
-1.571,-1.571,0,0.068,0,0.335,-0.403,0,3.02
-1.571,-1.571,0,0.068,0,0.335,-0.403,0,3.025
-1.571,-1.571,0,0.068,0,0.335,-0.403,0,3.03
-1.571,-1.571,0,0.068,0,0.335,-0.403,0,3.035
-1.571,-1.571,0,0.068,0,0.335,-0.403,0,3.04
-1.571,-1.571,0.001,0.068,0.007,0.326,-0.403,0.001,3.045
-1.571,-1.571,0.001,0.068,-0.001,0.335,-0.403,0.001,3.05
-1.571,-1.571,0.001,0.068,0,0.333,-0.403,0.001,3.055
-1.571,-1.571,0.001,0.068,0,0.333,-0.403,0.001,3.06
-1.571,-1.571,0,0.068,-0.007,0.342,-0.403,0,3.065
-1.571,-1.571,0,0.068,0.001,0.334,-0.403,0,3.07
-1.571,-1.571,0,0.068,0,0.335,-0.403,0,3.075
-1.571,-1.571,0.001,0.068,0.007,0.326,-0.403,0.001,3.08
-1.571,-1.571,0,0.068,-0.009,0.344,-0.403,0,3.085
-1.571,-1.571,0.001,0.068,0.009,0.324,-0.403,0.001,3.09
-1.571,-1.571,0.001,0.068,-0.002,0.335,-0.403,0.001,3.095
-1.571,-1.571,0.001,0.068,0,0.333,-0.403,0.001,3.1
-1.571,-1.571,0,0.068,-0.007,0.342,-0.403,0,3.105
-1.571,-1.571,0.001,0.068,0.009,0.324,-0.403,0.001,3.11
-1.571,-1.571,0.001,0.068,-0.002,0.335,-0.403,0.001,3.115
-1.571,-1.571,0,0.068,-0.007,0.342,-0.403,0,3.12
-1.571,-1.571,0,0.068,0.001,0.333,-0.403,0,3.125
-1.571,-1.571,0,0.068,0,0.335,-0.403,0,3.13
-1.571,-1.571,0.001,0.068,0.007,0.326,-0.403,0.001,3.135
-1.571,-1.571,0.001,0.068,-0.001,0.334,-0.403,0.001,3.14
-1.571,-1.571,0.001,0.068,0,0.333,-0.403,0.001,3.145
-1.571,-1.571,0.001,0.068,0,0.333,-0.403,0.001,3.15
-1.571,-1.571,0.001,0.068,0,0.333,-0.403,0.001,3.155
-1.571,-1.571,0,0.068,-0.007,0.342,-0.403,0,3.16
-1.571,-1.571,0.001,0.068,0.009,0.324,-0.403,0.001,3.165
-1.571,-1.571,0,0.068,-0.009,0.344,-0.403,0,3.17
-1.571,-1.571,0,0.068,0.002,0.333,-0.403,0,3.175
-1.571,-1.571,0,0.068,0,0.335,-0.403,0,3.18
-1.571,-1.571,0.001,0.068,0.007,0.325,-0.403,0.001,3.185
-1.571,-1.571,0.001,0.068,-0.001,0.334,-0.403,0.001,3.19
-1.571,-1.571,0.001,0.068,0,0.332,-0.403,0.001,3.195
-1.571,-1.571,0.001,0.068,0,0.333,-0.403,0.001,3.2
-1.571,-1.571,0,0.068,-0.007,0.342,-0.403,0,3.205
-1.571,-1.571,0.001,0.068,0.009,0.324,-0.403,0.001,3.21
-1.571,-1.571,0,0.068,-0.009,0.344,-0.403,0,3.215
-1.571,-1.571,0.001,0.068,0.009,0.324,-0.403,0.001,3.22
-1.571,-1.571,0.001,0.068,-0.002,0.334,-0.403,0.001,3.225
-1.571,-1.571,0.001,0.068,0,0.332,-0.403,0.001,3.23
-1.571,-1.571,0.001,0.068,0,0.333,-0.403,0.001,3.235
-1.571,-1.571,0.001,0.068,0,0.333,-0.403,0.001,3.24
-1.571,-1.571,0.001,0.068,0,0.333,-0.403,0.001,3.245
-1.571,-1.571,0.001,0.068,0,0.333,-0.403,0.001,3.251
-1.571,-1.571,0.001,0.068,0,0.333,-0.403,0.001,3.256
-1.571,-1.571,0.001,0.068,0,0.332,-0.403,0.001,3.261
-1.571,-1.571,0.001,0.069,0,0.332,-0.403,0.001,3.266
-1.571,-1.571,0.001,0.069,0,0.332,-0.403,0.001,3.271
-1.571,-1.571,0.001,0.069,0,0.332,-0.403,0.001,3.276
-1.571,-1.571,0.001,0.069,0,0.332,-0.403,0.001,3.281
-1.571,-1.571,0.001,0.069,0,0.332,-0.403,0.001,3.286
-1.571,-1.571,0.001,0.069,0,0.332,-0.403,0.001,3.291
-1.571,-1.571,0.001,0.069,0,0.332,-0.403,0.001,3.296
-1.571,-1.571,0.001,0.069,0,0.332,-0.403,0.001,3.301
-1.571,-1.571,0.001,0.069,0,0.332,-0.403,0.001,3.306
-1.57,-1.571,-0.001,0.069,-0.015,0.351,-0.403,-0.001,3.311
-1.569,-1.571,-0.003,0.069,-0.034,0.379,-0.403,-0.008,3.316
-1.567,-1.571,-0.006,0.068,-0.03,0.385,-0.403,-0.014,3.321
-1.566,-1.571,-0.009,0.068,-0.038,0.404,-0.403,-0.022,3.326
-1.562,-1.571,-0.015,0.067,-0.073,0.46,-0.403,-0.036,3.331
-1.559,-1.571,-0.021,0.066,-0.058,0.465,-0.403,-0.049,3.336
-1.556,-1.571,-0.027,0.065,-0.061,0.487,-0.403,-0.062,3.341
-1.552,-1.571,-0.034,0.063,-0.09,0.543,-0.403,-0.08,3.346
-1.548,-1.571,-0.041,0.062,-0.07,0.547,-0.403,-0.095,3.351
-1.544,-1.571,-0.047,0.059,-0.074,0.575,-0.403,-0.111,3.356
-1.54,-1.571,-0.056,0.057,-0.095,0.626,-0.403,-0.13,3.361
-1.536,-1.571,-0.062,0.054,-0.069,0.625,-0.403,-0.146,3.366
-1.533,-1.571,-0.068,0.051,-0.066,0.646,-0.403,-0.16,3.371
-1.528,-1.571,-0.077,0.047,-0.096,0.707,-0.402,-0.179,3.376
-1.525,-1.571,-0.083,0.044,-0.061,0.696,-0.402,-0.193,3.381
-1.522,-1.571,-0.088,0.04,-0.053,0.709,-0.402,-0.205,3.386
-1.519,-1.571,-0.094,0.035,-0.07,0.74,-0.402,-0.21,3.391
-1.516,-1.571,-0.099,0.031,-0.052,0.732,-0.402,-0.21,3.396
-1.514,-1.571,-0.102,0.026,-0.033,0.721,-0.402,-0.21,3.401
-1.511,-1.571,-0.107,0.021,-0.059,0.757,-0.402,-0.21,3.406
-1.51,-1.571,-0.11,0.016,-0.025,0.73,-0.402,-0.21,3.411
-1.508,-1.571,-0.113,0.011,-0.039,0.753,-0.402,-0.21,3.416
-1.506,-1.571,-0.116,0.006,-0.029,0.751,-0.402,-0.21,3.421
-1.505,-1.571,-0.118,0.001,-0.016,0.745,-0.402,-0.21,3.426
-1.504,-1.571,-0.12,-0.005,-0.026,0.763,-0.402,-0.21,3.431
-1.504,-1.571,-0.121,-0.01,-0.009,0.753,-0.402,-0.21,3.436
-1.504,-1.571,-0.121,-0.016,0.002,0.747,-0.402,-0.21,3.441
-1.503,-1.571,-0.121,-0.021,-0.008,0.762,-0.402,-0.21,3.446
-1.503,-1.571,-0.121,-0.027,0.002,0.759,-0.402,-0.21,3.451
-1.503,-1.571,-0.121,-0.032,0,0.766,-0.402,-0.21,3.456
-1.504,-1.571,-0.121,-0.038,0.007,0.763,-0.402,-0.21,3.461
-1.504,-1.571,-0.12,-0.043,0.013,0.762,-0.402,-0.21,3.466
-1.505,-1.571,-0.119,-0.049,0.012,0.767,-0.402,-0.21,3.471
-1.505,-1.571,-0.118,-0.054,0.012,0.771,-0.402,-0.21,3.476
-1.506,-1.571,-0.116,-0.059,0.019,0.768,-0.402,-0.21,3.481
-1.507,-1.571,-0.114,-0.065,0.018,0.773,-0.402,-0.21,3.486
-1.508,-1.571,-0.113,-0.07,0.018,0.776,-0.402,-0.21,3.491
-1.509,-1.571,-0.111,-0.075,0.018,0.78,-0.402,-0.21,3.496
-1.51,-1.571,-0.109,-0.08,0.018,0.783,-0.402,-0.21,3.501
-1.511,-1.571,-0.107,-0.085,0.026,0.778,-0.402,-0.21,3.506
-1.513,-1.571,-0.105,-0.089,0.024,0.782,-0.402,-0.21,3.511
-1.514,-1.571,-0.102,-0.094,0.032,0.777,-0.402,-0.21,3.516
-1.516,-1.571,-0.099,-0.098,0.03,0.78,-0.402,-0.21,3.521
-1.517,-1.571,-0.097,-0.103,0.03,0.781,-0.402,-0.21,3.526
-1.519,-1.571,-0.093,-0.107,0.038,0.775,-0.402,-0.21,3.531
-1.521,-1.571,-0.09,-0.111,0.036,0.777,-0.402,-0.21,3.536
-1.522,-1.571,-0.087,-0.115,0.029,0.779,-0.402,-0.204,3.541
-1.525,-1.571,-0.083,-0.119,0.052,0.745,-0.402,-0.193,3.546
-1.527,-1.571,-0.08,-0.123,0.033,0.757,-0.402,-0.186,3.551
-1.528,-1.571,-0.076,-0.126,0.037,0.745,-0.402,-0.178,3.556
-1.531,-1.571,-0.072,-0.129,0.051,0.72,-0.402,-0.168,3.561
-1.533,-1.571,-0.068,-0.132,0.041,0.72,-0.403,-0.158,3.566
-1.535,-1.571,-0.065,-0.135,0.036,0.718,-0.403,-0.151,3.571
-1.537,-1.571,-0.06,-0.138,0.051,0.69,-0.403,-0.14,3.576
-1.539,-1.571,-0.057,-0.141,0.026,0.708,-0.403,-0.134,3.581
-1.541,-1.571,-0.054,-0.143,0.038,0.688,-0.403,-0.126,3.586
-1.543,-1.571,-0.05,-0.145,0.043,0.672,-0.403,-0.117,3.591
-1.544,-1.571,-0.049,-0.148,0.013,0.699,-0.403,-0.113,3.596
-1.546,-1.571,-0.045,-0.15,0.041,0.662,-0.403,-0.106,3.601
-1.547,-1.571,-0.042,-0.152,0.036,0.659,-0.403,-0.098,3.606
-1.548,-1.571,-0.04,-0.153,0.015,0.676,-0.403,-0.094,3.611
-1.55,-1.571,-0.038,-0.155,0.033,0.65,-0.403,-0.088,3.616
-1.551,-1.571,-0.036,-0.157,0.015,0.664,-0.403,-0.084,3.621
-1.551,-1.571,-0.035,-0.158,0.012,0.665,-0.403,-0.081,3.626
-1.553,-1.571,-0.032,-0.16,0.034,0.635,-0.403,-0.075,3.631
-1.553,-1.571,-0.031,-0.161,0,0.668,-0.403,-0.073,3.636
-1.554,-1.571,-0.03,-0.163,0.022,0.643,-0.403,-0.07,3.641
-1.555,-1.571,-0.028,-0.164,0.018,0.643,-0.403,-0.066,3.646
-1.555,-1.571,-0.028,-0.165,-0.004,0.665,-0.403,-0.066,3.651
-1.556,-1.571,-0.027,-0.166,0.023,0.635,-0.403,-0.062,3.656
-1.556,-1.571,-0.026,-0.168,0.003,0.654,-0.403,-0.061,3.661
-1.556,-1.571,-0.026,-0.169,-0.001,0.659,-0.403,-0.061,3.666
-1.557,-1.571,-0.025,-0.17,0.007,0.65,-0.403,-0.059,3.671
-1.557,-1.571,-0.025,-0.171,-0.001,0.66,-0.403,-0.059,3.676
-1.557,-1.571,-0.025,-0.172,0.008,0.65,-0.403,-0.058,3.681
-1.557,-1.571,-0.025,-0.173,-0.009,0.67,-0.403,-0.059,3.686
-1.557,-1.571,-0.025,-0.174,0.002,0.66,-0.403,-0.059,3.691
-1.557,-1.571,-0.025,-0.176,0,0.663,-0.403,-0.059,3.696
-1.557,-1.571,-0.025,-0.177,0,0.664,-0.403,-0.059,3.701
-1.557,-1.571,-0.025,-0.178,0,0.665,-0.403,-0.059,3.706
-1.556,-1.571,-0.026,-0.179,-0.007,0.676,-0.403,-0.061,3.711
-1.557,-1.571,-0.025,-0.18,0.016,0.65,-0.403,-0.058,3.716
-1.557,-1.571,-0.025,-0.181,-0.01,0.679,-0.403,-0.059,3.721
-1.557,-1.571,-0.025,-0.183,0.002,0.668,-0.403,-0.059,3.726
-1.557,-1.571,-0.025,-0.184,0,0.672,-0.403,-0.059,3.731
-1.557,-1.571,-0.025,-0.185,0,0.672,-0.403,-0.059,3.736
-1.557,-1.571,-0.025,-0.186,0,0.673,-0.403,-0.059,3.741
-1.557,-1.571,-0.025,-0.187,0,0.675,-0.403,-0.059,3.746
-1.557,-1.571,-0.025,-0.188,0,0.676,-0.403,-0.059,3.751
-1.557,-1.571,-0.025,-0.189,0,0.677,-0.403,-0.059,3.756
-1.557,-1.571,-0.025,-0.191,0,0.678,-0.403,-0.059,3.761
-1.557,-1.571,-0.025,-0.192,0,0.679,-0.403,-0.059,3.766
-1.557,-1.571,-0.025,-0.193,0,0.68,-0.403,-0.059,3.771
-1.557,-1.571,-0.025,-0.194,0,0.682,-0.403,-0.059,3.776
-1.557,-1.571,-0.025,-0.195,0,0.683,-0.403,-0.059,3.781
-1.557,-1.571,-0.025,-0.196,0,0.684,-0.403,-0.059,3.786
-1.557,-1.571,-0.025,-0.198,0,0.685,-0.403,-0.059,3.791
-1.557,-1.571,-0.025,-0.199,0,0.686,-0.403,-0.059,3.796
-1.557,-1.571,-0.025,-0.2,0,0.687,-0.403,-0.059,3.801
-1.557,-1.571,-0.025,-0.201,0,0.688,-0.403,-0.059,3.806
-1.557,-1.571,-0.025,-0.202,0,0.69,-0.403,-0.059,3.811
-1.557,-1.571,-0.025,-0.203,0,0.691,-0.403,-0.059,3.816
-1.557,-1.571,-0.025,-0.204,0,0.692,-0.403,-0.059,3.821
-1.557,-1.571,-0.025,-0.206,0,0.693,-0.403,-0.059,3.826
-1.557,-1.571,-0.025,-0.207,0,0.694,-0.403,-0.059,3.831
-1.557,-1.571,-0.025,-0.208,0,0.695,-0.403,-0.059,3.836
-1.557,-1.571,-0.025,-0.209,0,0.697,-0.403,-0.059,3.841
-1.557,-1.571,-0.025,-0.21,0,0.698,-0.403,-0.059,3.846
-1.557,-1.571,-0.025,-0.211,0,0.699,-0.403,-0.059,3.852
-1.557,-1.571,-0.025,-0.213,0,0.7,-0.403,-0.059,3.857
-1.557,-1.571,-0.025,-0.214,0,0.701,-0.403,-0.059,3.862
-1.557,-1.571,-0.025,-0.215,0,0.702,-0.403,-0.059,3.867
-1.557,-1.571,-0.025,-0.216,0,0.703,-0.403,-0.059,3.872
-1.557,-1.571,-0.025,-0.217,0,0.705,-0.403,-0.059,3.877
-1.557,-1.571,-0.025,-0.218,0,0.706,-0.403,-0.059,3.882
-1.557,-1.571,-0.025,-0.219,0,0.707,-0.403,-0.059,3.887
-1.557,-1.571,-0.025,-0.221,0,0.708,-0.403,-0.059,3.892
-1.557,-1.571,-0.025,-0.222,0,0.709,-0.403,-0.059,3.897
-1.557,-1.571,-0.025,-0.223,0,0.71,-0.403,-0.059,3.902
-1.557,-1.571,-0.025,-0.224,0,0.712,-0.403,-0.059,3.907
-1.557,-1.571,-0.025,-0.225,0,0.713,-0.403,-0.059,3.912
-1.557,-1.571,-0.025,-0.226,0,0.714,-0.403,-0.059,3.917
-1.557,-1.571,-0.025,-0.228,0,0.715,-0.403,-0.059,3.922
-1.557,-1.571,-0.025,-0.229,0,0.716,-0.403,-0.059,3.927
-1.557,-1.571,-0.025,-0.23,0,0.717,-0.403,-0.059,3.932
-1.557,-1.571,-0.025,-0.231,0,0.718,-0.403,-0.059,3.937
-1.557,-1.571,-0.025,-0.232,0,0.72,-0.403,-0.059,3.942
-1.557,-1.571,-0.025,-0.233,0,0.721,-0.403,-0.059,3.947
-1.557,-1.571,-0.025,-0.234,0,0.722,-0.403,-0.059,3.952
-1.557,-1.571,-0.025,-0.236,0,0.723,-0.403,-0.059,3.957
-1.557,-1.571,-0.025,-0.237,0,0.724,-0.403,-0.059,3.962
-1.557,-1.571,-0.025,-0.238,0,0.725,-0.403,-0.059,3.967
-1.557,-1.571,-0.025,-0.239,0,0.727,-0.403,-0.059,3.972
-1.557,-1.571,-0.025,-0.24,0,0.728,-0.403,-0.059,3.977
-1.557,-1.571,-0.025,-0.241,0,0.729,-0.403,-0.059,3.982
-1.557,-1.571,-0.025,-0.243,0,0.73,-0.403,-0.059,3.987
-1.557,-1.571,-0.025,-0.244,0,0.731,-0.403,-0.059,3.992
-1.557,-1.571,-0.025,-0.245,0.007,0.723,-0.403,-0.058,3.997
-1.557,-1.571,-0.025,-0.246,-0.001,0.733,-0.403,-0.058,4.002
-1.557,-1.571,-0.025,-0.247,-0.007,0.742,-0.403,-0.059,4.007
-1.557,-1.571,-0.025,-0.248,0.001,0.734,-0.403,-0.059,4.012
-1.557,-1.571,-0.025,-0.249,0,0.737,-0.403,-0.059,4.017
-1.557,-1.571,-0.025,-0.251,0,0.738,-0.403,-0.059,4.022
-1.557,-1.571,-0.025,-0.252,0,0.739,-0.403,-0.059,4.027
-1.557,-1.571,-0.025,-0.253,0,0.74,-0.403,-0.059,4.032
-1.557,-1.571,-0.025,-0.254,0,0.742,-0.403,-0.059,4.037
-1.557,-1.571,-0.025,-0.255,0,0.743,-0.403,-0.059,4.042
-1.556,-1.571,-0.026,-0.256,-0.007,0.753,-0.403,-0.061,4.047
-1.557,-1.571,-0.025,-0.258,0.016,0.727,-0.403,-0.058,4.052
-1.557,-1.571,-0.025,-0.259,-0.003,0.747,-0.403,-0.058,4.057
-1.557,-1.571,-0.025,-0.26,0.001,0.745,-0.403,-0.058,4.062
-1.557,-1.571,-0.025,-0.261,0,0.747,-0.403,-0.058,4.067
-1.557,-1.571,-0.025,-0.262,0,0.748,-0.403,-0.058,4.072
-1.557,-1.571,-0.025,-0.263,0,0.749,-0.403,-0.058,4.077
-1.557,-1.571,-0.025,-0.264,-0.007,0.759,-0.403,-0.059,4.082
-1.557,-1.571,-0.025,-0.265,0.009,0.742,-0.403,-0.058,4.087
-1.557,-1.571,-0.025,-0.267,-0.009,0.763,-0.403,-0.059,4.092
-1.557,-1.571,-0.025,-0.268,0.009,0.744,-0.403,-0.058,4.097
-1.557,-1.571,-0.025,-0.269,-0.002,0.756,-0.403,-0.058,4.102
-1.557,-1.571,-0.025,-0.27,0,0.755,-0.403,-0.058,4.107
-1.557,-1.571,-0.024,-0.271,0.007,0.748,-0.403,-0.057,4.112
-1.557,-1.571,-0.024,-0.272,-0.001,0.757,-0.403,-0.057,4.117
-1.557,-1.571,-0.024,-0.273,0,0.757,-0.403,-0.057,4.122
-1.557,-1.571,-0.024,-0.274,0,0.758,-0.403,-0.057,4.127
-1.557,-1.571,-0.024,-0.276,0,0.759,-0.403,-0.057,4.132
-1.557,-1.571,-0.024,-0.277,0,0.76,-0.403,-0.057,4.137
-1.558,-1.571,-0.024,-0.278,0.007,0.752,-0.403,-0.055,4.142
-1.558,-1.571,-0.024,-0.279,-0.001,0.762,-0.403,-0.055,4.147
-1.558,-1.571,-0.024,-0.28,0,0.761,-0.403,-0.055,4.152
-1.558,-1.571,-0.024,-0.281,0,0.763,-0.403,-0.055,4.157
-1.558,-1.571,-0.023,-0.282,0.007,0.755,-0.403,-0.054,4.162
-1.558,-1.571,-0.023,-0.283,-0.001,0.765,-0.403,-0.054,4.167
-1.558,-1.571,-0.023,-0.284,0,0.764,-0.403,-0.054,4.172
-1.558,-1.571,-0.023,-0.285,0.007,0.756,-0.403,-0.053,4.177
-1.558,-1.571,-0.023,-0.286,-0.001,0.766,-0.403,-0.053,4.182
-1.559,-1.571,-0.022,-0.287,0.008,0.756,-0.403,-0.052,4.187
-1.559,-1.571,-0.022,-0.288,0.006,0.757,-0.403,-0.05,4.192
-1.559,-1.571,-0.022,-0.289,-0.001,0.765,-0.403,-0.05,4.197
-1.559,-1.571,-0.021,-0.29,0.008,0.755,-0.403,-0.049,4.202
-1.559,-1.571,-0.02,-0.291,0.006,0.756,-0.403,-0.048,4.207
-1.559,-1.571,-0.02,-0.292,-0.001,0.764,-0.403,-0.048,4.212
-1.56,-1.571,-0.02,-0.293,0.008,0.754,-0.403,-0.046,4.217
-1.56,-1.571,-0.019,-0.294,0.006,0.755,-0.403,-0.045,4.222
-1.56,-1.571,-0.019,-0.295,-0.001,0.763,-0.403,-0.045,4.227
-1.56,-1.571,-0.019,-0.295,0.008,0.753,-0.403,-0.044,4.232
-1.56,-1.571,-0.019,-0.296,-0.002,0.763,-0.403,-0.044,4.237
-1.561,-1.571,-0.018,-0.297,0.008,0.753,-0.403,-0.043,4.242
-1.561,-1.571,-0.018,-0.298,0.006,0.754,-0.403,-0.041,4.247
-1.561,-1.571,-0.018,-0.299,-0.001,0.762,-0.403,-0.041,4.252
-1.561,-1.571,-0.017,-0.3,0.008,0.752,-0.403,-0.04,4.257
-1.562,-1.571,-0.017,-0.3,0.006,0.753,-0.403,-0.039,4.262
-1.562,-1.571,-0.017,-0.301,-0.001,0.76,-0.403,-0.039,4.267
-1.562,-1.571,-0.016,-0.302,0.008,0.75,-0.403,-0.037,4.272
-1.562,-1.571,-0.015,-0.302,0.006,0.751,-0.403,-0.036,4.277
-1.562,-1.571,-0.015,-0.303,-0.001,0.759,-0.403,-0.036,4.282
-1.563,-1.571,-0.015,-0.304,0.008,0.749,-0.403,-0.035,4.287
-1.563,-1.571,-0.014,-0.304,0.006,0.749,-0.403,-0.034,4.292
-1.563,-1.571,-0.014,-0.305,-0.001,0.757,-0.403,-0.034,4.297
-1.563,-1.571,-0.014,-0.306,0.008,0.747,-0.403,-0.032,4.302
-1.563,-1.571,-0.013,-0.306,0.006,0.748,-0.403,-0.031,4.307
-1.563,-1.571,-0.013,-0.307,-0.001,0.755,-0.403,-0.031,4.312
-1.564,-1.571,-0.013,-0.308,0.008,0.745,-0.403,-0.03,4.317
-1.564,-1.571,-0.013,-0.308,-0.002,0.755,-0.403,-0.03,4.322
-1.564,-1.571,-0.012,-0.309,0.015,0.735,-0.403,-0.027,4.327
-1.564,-1.571,-0.012,-0.309,-0.003,0.754,-0.403,-0.027,4.332
-1.564,-1.571,-0.012,-0.31,0.001,0.751,-0.403,-0.027,4.337
-1.565,-1.571,-0.011,-0.31,0.007,0.743,-0.403,-0.026,4.342
-1.565,-1.571,-0.01,-0.311,0.006,0.743,-0.403,-0.024,4.347
-1.565,-1.571,-0.01,-0.311,-0.001,0.75,-0.403,-0.024,4.352
-1.565,-1.571,-0.01,-0.312,0.008,0.74,-0.403,-0.023,4.357
-1.565,-1.571,-0.01,-0.312,-0.002,0.75,-0.403,-0.023,4.362
-1.565,-1.571,-0.01,-0.313,0,0.748,-0.403,-0.023,4.367
-1.566,-1.571,-0.009,-0.313,0.007,0.74,-0.403,-0.022,4.372
-1.566,-1.571,-0.009,-0.313,-0.001,0.749,-0.403,-0.022,4.377
-1.566,-1.571,-0.009,-0.314,0,0.748,-0.403,-0.022,4.382
-1.566,-1.571,-0.009,-0.314,0.007,0.739,-0.403,-0.021,4.387
-1.566,-1.571,-0.009,-0.315,-0.001,0.748,-0.403,-0.021,4.392
-1.566,-1.571,-0.009,-0.315,0,0.747,-0.403,-0.021,4.397
-1.566,-1.571,-0.009,-0.315,0,0.748,-0.403,-0.021,4.402
-1.566,-1.571,-0.009,-0.316,0,0.748,-0.403,-0.021,4.407
-1.566,-1.571,-0.008,-0.316,0.007,0.739,-0.403,-0.019,4.412
-1.566,-1.571,-0.008,-0.317,-0.001,0.748,-0.403,-0.019,4.417
-1.566,-1.571,-0.008,-0.317,0,0.747,-0.403,-0.019,4.422
-1.566,-1.571,-0.009,-0.317,-0.007,0.757,-0.403,-0.021,4.427
-1.566,-1.571,-0.008,-0.318,0.009,0.739,-0.403,-0.019,4.432
-1.566,-1.571,-0.008,-0.318,-0.002,0.75,-0.403,-0.019,4.437
-1.567,-1.571,-0.008,-0.318,0.008,0.739,-0.403,-0.018,4.443
-1.566,-1.571,-0.008,-0.319,-0.009,0.758,-0.403,-0.019,4.448
-1.567,-1.571,-0.008,-0.319,0.009,0.739,-0.403,-0.018,4.453
-1.567,-1.571,-0.008,-0.32,-0.002,0.75,-0.403,-0.018,4.458
-1.567,-1.571,-0.008,-0.32,0,0.748,-0.403,-0.018,4.463
-1.567,-1.571,-0.007,-0.32,0.007,0.74,-0.403,-0.017,4.468
-1.567,-1.571,-0.007,-0.321,-0.001,0.749,-0.403,-0.017,4.473
-1.567,-1.571,-0.008,-0.321,-0.007,0.756,-0.403,-0.018,4.478
-1.567,-1.571,-0.007,-0.321,0.009,0.739,-0.403,-0.017,4.483
-1.567,-1.571,-0.007,-0.322,-0.002,0.75,-0.403,-0.017,4.488
-1.567,-1.571,-0.007,-0.322,0,0.748,-0.403,-0.017,4.493
-1.567,-1.571,-0.007,-0.322,0,0.749,-0.403,-0.017,4.498
-1.567,-1.571,-0.007,-0.323,0,0.749,-0.403,-0.017,4.503
-1.567,-1.571,-0.007,-0.323,0.007,0.74,-0.403,-0.015,4.508
-1.567,-1.571,-0.007,-0.323,-0.001,0.749,-0.403,-0.015,4.513
-1.567,-1.571,-0.007,-0.323,0,0.748,-0.403,-0.015,4.518
-1.567,-1.571,-0.006,-0.324,0.007,0.74,-0.403,-0.014,4.523
-1.567,-1.571,-0.006,-0.324,-0.001,0.748,-0.403,-0.014,4.528
-1.567,-1.571,-0.006,-0.324,0,0.747,-0.403,-0.014,4.533
-1.567,-1.571,-0.006,-0.325,0,0.748,-0.403,-0.014,4.538
-1.567,-1.571,-0.006,-0.325,0,0.748,-0.403,-0.014,4.543
-1.568,-1.571,-0.006,-0.325,0.007,0.739,-0.403,-0.013,4.548
-1.568,-1.571,-0.006,-0.325,-0.001,0.748,-0.403,-0.013,4.553
-1.568,-1.571,-0.006,-0.326,0,0.746,-0.403,-0.013,4.558
-1.568,-1.571,-0.006,-0.326,0,0.747,-0.403,-0.013,4.563
-1.568,-1.571,-0.006,-0.326,0,0.747,-0.403,-0.013,4.568
-1.568,-1.571,-0.006,-0.326,0,0.748,-0.403,-0.013,4.573
-1.568,-1.571,-0.006,-0.327,0,0.748,-0.403,-0.013,4.578
-1.568,-1.571,-0.006,-0.327,0,0.748,-0.403,-0.013,4.583
-1.568,-1.571,-0.006,-0.327,0,0.748,-0.403,-0.013,4.588
-1.568,-1.571,-0.006,-0.327,0,0.749,-0.403,-0.013,4.593
-1.568,-1.571,-0.005,-0.328,0.007,0.74,-0.403,-0.012,4.598
-1.568,-1.571,-0.006,-0.328,-0.009,0.758,-0.403,-0.013,4.603
-1.568,-1.571,-0.005,-0.328,0.009,0.738,-0.403,-0.012,4.608
-1.568,-1.571,-0.005,-0.328,-0.002,0.749,-0.403,-0.012,4.613
-1.568,-1.571,-0.006,-0.328,-0.007,0.757,-0.403,-0.013,4.618
-1.568,-1.571,-0.005,-0.329,0.009,0.739,-0.403,-0.012,4.623
-1.568,-1.571,-0.005,-0.329,-0.002,0.75,-0.403,-0.012,4.628
-1.568,-1.571,-0.005,-0.329,0,0.748,-0.403,-0.012,4.633
-1.568,-1.571,-0.004,-0.329,0.007,0.74,-0.403,-0.01,4.638
-1.568,-1.571,-0.005,-0.33,-0.009,0.758,-0.403,-0.012,4.643
-1.568,-1.571,-0.005,-0.33,0.002,0.747,-0.403,-0.012,4.648
-1.568,-1.571,-0.005,-0.33,0,0.75,-0.403,-0.012,4.653
-1.568,-1.571,-0.005,-0.33,0,0.75,-0.403,-0.012,4.658
-1.568,-1.571,-0.005,-0.33,0,0.75,-0.403,-0.012,4.663
-1.568,-1.571,-0.004,-0.331,0.007,0.741,-0.403,-0.01,4.668
-1.568,-1.571,-0.004,-0.331,-0.001,0.75,-0.403,-0.01,4.673
-1.568,-1.571,-0.004,-0.331,0,0.748,-0.403,-0.01,4.678
-1.568,-1.571,-0.004,-0.331,0,0.749,-0.403,-0.01,4.683
-1.569,-1.571,-0.004,-0.331,0.007,0.74,-0.403,-0.009,4.688
-1.568,-1.571,-0.004,-0.332,-0.009,0.758,-0.403,-0.01,4.693
-1.569,-1.571,-0.004,-0.332,0.009,0.739,-0.403,-0.009,4.698
-1.569,-1.571,-0.004,-0.332,-0.002,0.75,-0.403,-0.009,4.703
-1.568,-1.571,-0.004,-0.332,-0.007,0.757,-0.403,-0.01,4.708
-1.569,-1.571,-0.004,-0.332,0.009,0.739,-0.403,-0.009,4.713
-1.569,-1.571,-0.003,-0.333,0.006,0.741,-0.403,-0.008,4.718
-1.569,-1.571,-0.003,-0.333,-0.001,0.748,-0.403,-0.008,4.723
-1.569,-1.571,-0.003,-0.333,0,0.746,-0.403,-0.008,4.728
-1.569,-1.571,-0.003,-0.333,0,0.747,-0.403,-0.008,4.733
-1.569,-1.571,-0.003,-0.333,0,0.747,-0.403,-0.008,4.738
-1.569,-1.571,-0.004,-0.333,-0.007,0.756,-0.403,-0.009,4.743
-1.569,-1.571,-0.003,-0.333,0.009,0.739,-0.403,-0.008,4.748
-1.569,-1.571,-0.003,-0.334,-0.002,0.749,-0.403,-0.008,4.753
-1.569,-1.571,-0.003,-0.334,0,0.747,-0.403,-0.008,4.758
-1.569,-1.571,-0.003,-0.334,0.007,0.739,-0.403,-0.006,4.763
-1.569,-1.571,-0.003,-0.334,-0.001,0.747,-0.403,-0.006,4.768
-1.569,-1.571,-0.003,-0.334,0,0.746,-0.403,-0.006,4.773
-1.569,-1.571,-0.003,-0.334,-0.007,0.756,-0.403,-0.008,4.778
-1.569,-1.571,-0.003,-0.334,0.009,0.738,-0.403,-0.006,4.783
-1.569,-1.571,-0.003,-0.335,-0.002,0.748,-0.403,-0.006,4.788
-1.569,-1.571,-0.003,-0.335,0,0.746,-0.403,-0.006,4.793
-1.57,-1.571,-0.002,-0.335,0.007,0.738,-0.403,-0.005,4.798
-1.569,-1.571,-0.003,-0.335,-0.009,0.756,-0.403,-0.006,4.803
-1.57,-1.571,-0.002,-0.335,0.009,0.736,-0.403,-0.005,4.808
-1.57,-1.571,-0.002,-0.335,-0.002,0.747,-0.403,-0.005,4.813
-1.57,-1.571,-0.002,-0.335,0,0.745,-0.403,-0.005,4.818
-1.57,-1.571,-0.002,-0.335,0,0.746,-0.403,-0.005,4.823
-1.57,-1.571,-0.002,-0.335,0,0.746,-0.403,-0.005,4.828
-1.57,-1.571,-0.002,-0.336,0,0.746,-0.403,-0.005,4.833
-1.57,-1.571,-0.002,-0.336,0,0.746,-0.403,-0.005,4.838
-1.57,-1.571,-0.002,-0.336,0,0.746,-0.403,-0.005,4.843
-1.57,-1.571,-0.002,-0.336,0,0.746,-0.403,-0.005,4.848
-1.57,-1.571,-0.002,-0.336,0,0.746,-0.403,-0.005,4.853
-1.57,-1.571,-0.002,-0.336,0,0.746,-0.403,-0.005,4.858
-1.57,-1.571,-0.002,-0.336,0,0.746,-0.403,-0.005,4.863
-1.57,-1.571,-0.002,-0.336,0,0.746,-0.403,-0.005,4.868
-1.57,-1.571,-0.002,-0.336,0,0.746,-0.403,-0.005,4.873
-1.57,-1.571,-0.002,-0.336,0,0.747,-0.403,-0.005,4.878
-1.57,-1.571,-0.002,-0.336,0.007,0.738,-0.403,-0.004,4.883
-1.57,-1.571,-0.002,-0.337,-0.001,0.746,-0.403,-0.004,4.888
-1.57,-1.571,-0.002,-0.337,-0.007,0.754,-0.403,-0.005,4.893
-1.57,-1.571,-0.002,-0.337,0.001,0.746,-0.403,-0.005,4.898
-1.57,-1.571,-0.002,-0.337,0,0.747,-0.403,-0.005,4.903
-1.57,-1.571,-0.002,-0.337,0,0.747,-0.403,-0.005,4.908
-1.57,-1.571,-0.002,-0.337,0.007,0.738,-0.403,-0.004,4.913
-1.57,-1.571,-0.002,-0.337,-0.001,0.747,-0.403,-0.004,4.918
-1.57,-1.571,-0.002,-0.337,-0.007,0.754,-0.403,-0.005,4.923
-1.57,-1.571,-0.002,-0.337,0.009,0.737,-0.403,-0.004,4.928
-1.57,-1.571,-0.002,-0.337,-0.002,0.747,-0.403,-0.004,4.933
-1.57,-1.571,-0.002,-0.337,0,0.745,-0.403,-0.004,4.938
-1.57,-1.571,-0.002,-0.338,0,0.746,-0.403,-0.004,4.943
-1.57,-1.571,-0.002,-0.338,-0.007,0.755,-0.403,-0.005,4.948
-1.57,-1.571,-0.002,-0.338,0.009,0.737,-0.403,-0.004,4.953
-1.57,-1.571,-0.002,-0.338,-0.002,0.748,-0.403,-0.004,4.958
-1.57,-1.571,-0.002,-0.338,-0.007,0.755,-0.403,-0.005,4.963
-1.57,-1.571,-0.002,-0.338,0.009,0.738,-0.403,-0.004,4.968
-1.57,-1.571,-0.002,-0.338,-0.002,0.748,-0.403,-0.004,4.973
-1.57,-1.571,-0.002,-0.338,0,0.746,-0.403,-0.004,4.978
-1.57,-1.571,-0.002,-0.338,0,0.747,-0.403,-0.004,4.983
-1.57,-1.571,-0.002,-0.338,0,0.747,-0.403,-0.004,4.988
-1.57,-1.571,-0.002,-0.338,0,0.747,-0.403,-0.004,4.993
-1.57,-1.571,-0.002,-0.338,0,0.747,-0.403,-0.004,4.998
-1.57,-1.571,-0.002,-0.338,0,0.747,-0.403,-0.004,5.003
