theta,reference,proportional,integral,derivative,dutycycle,g_comp,f_comp,time
0,1.571,6.597,0.3,37.011,-1,0,0.21,0
0.003,1.571,6.583,0.3,-5.631,-1,0.001,0.21,0.005
0.021,1.571,6.511,0.3,0.44,-1,0.008,0.21,0.01
0.024,1.571,6.496,0.3,-0.153,-1,0.01,0.21,0.015
0.032,1.571,6.462,0.3,-0.165,-1,0.013,0.21,0.02
0.053,1.571,6.376,0.3,-0.46,-1,0.021,0.21,0.025
0.067,1.571,6.318,0.3,-0.256,-1,0.027,0.21,0.03
0.089,1.571,6.224,0.3,-0.489,-1,0.036,0.21,0.035
0.116,1.571,6.11,0.3,-0.563,-1,0.047,0.21,0.04
0.143,1.571,5.997,0.3,-0.552,-1,0.057,0.21,0.045
0.176,1.571,5.858,0.3,-0.698,-1,0.071,0.21,0.05
0.21,1.571,5.713,0.3,-0.705,-1,0.084,0.21,0.055
0.249,1.571,5.552,0.3,-0.798,-1,0.099,0.21,0.06
0.292,1.571,5.371,0.3,-0.9,-1,0.116,0.21,0.065
0.339,1.571,5.175,0.3,-0.964,-1,0.134,0.21,0.07
0.388,1.571,4.969,0.3,-1.012,-1,0.152,0.21,0.075
0.438,1.571,4.759,0.3,-1.026,-1,0.171,0.21,0.08
0.493,1.571,4.528,0.3,-1.14,-1,0.191,0.21,0.085
0.547,1.571,4.301,0.3,-1.101,-1,0.209,0.21,0.09
0.602,1.571,4.069,0.3,-1.136,-1,0.228,0.21,0.095
0.663,1.571,3.813,0.3,-1.268,-1,0.248,0.21,0.1
0.724,1.571,3.556,0.3,-1.248,-1,0.267,0.21,0.105
0.787,1.571,3.291,0.3,-1.302,-1,0.285,0.21,0.11
0.854,1.571,3.01,0.3,-1.381,-1,0.304,0.21,0.115
0.923,1.571,2.723,0.3,-1.405,-1,0.321,0.21,0.12
0.997,1.571,2.41,0.3,-1.546,-1,0.338,0.21,0.125
1.07,1.571,2.104,0.3,-1.481,-1,0.353,0.21,0.13
1.144,1.571,1.791,0.3,-1.534,-1,0.367,0.21,0.135
1.221,1.571,1.469,0.3,-1.577,-0.78,0.378,0.21,0.14
1.293,1.571,1.165,0.353,-1.469,-0.646,0.387,0.21,0.145
1.37,1.571,0.843,0.391,-1.587,-0.252,0.395,0.21,0.15
1.449,1.571,0.51,0.414,-1.627,0.093,0.4,0.21,0.155
1.521,1.571,0.209,0.424,-1.447,0.204,0.402,0.209,0.16
1.587,1.571,-0.07,0.421,-1.344,0.66,0.403,-0.07,0.165
1.644,1.571,-0.307,0.407,-1.128,0.837,0.402,-0.21,0.17
1.68,1.571,-0.457,0.386,-0.676,0.558,0.4,-0.21,0.175
1.691,1.571,-0.506,0.363,-0.173,0.127,0.4,-0.21,0.18
1.699,1.571,-0.539,0.338,-0.155,0.165,0.4,-0.21,0.185
1.775,1.571,-0.858,0.299,-1.77,1,0.394,-0.21,0.19
1.856,1.571,-1.2,0.299,-1.65,1,0.386,-0.21,0.195
1.902,1.571,-1.392,0.299,-0.83,1,0.381,-0.21,0.2
1.918,1.571,-1.459,0.299,-0.251,1,0.379,-0.21,0.205
1.928,1.571,-1.5,0.299,-0.194,1,0.377,-0.21,0.21
1.971,1.571,-1.679,0.299,-0.976,1,0.371,-0.21,0.215
1.998,1.571,-1.792,0.299,-0.49,1,0.367,-0.21,0.22
2.006,1.571,-1.828,0.299,-0.129,1,0.365,-0.21,0.225
2.021,1.571,-1.89,0.299,-0.328,1,0.363,-0.21,0.23
2.023,1.571,-1.899,0.299,-0.001,1,0.362,-0.21,0.235
2.021,1.571,-1.89,0.299,0.051,1,0.363,-0.21,0.24
2.019,1.571,-1.883,0.299,0.036,1,0.363,-0.21,0.245
2.004,1.571,-1.819,0.299,0.349,1,0.366,-0.21,0.25
1.988,1.571,-1.751,0.299,0.331,0.963,0.368,-0.21,0.255
1.967,1.571,-1.664,0.224,0.442,0.836,0.372,-0.21,0.26
1.94,1.571,-1.549,0.153,0.577,0.653,0.376,-0.21,0.265
1.912,1.571,-1.433,0.088,0.564,0.611,0.38,-0.21,0.27
1.876,1.571,-1.283,0.03,0.754,0.325,0.384,-0.21,0.275
1.84,1.571,-1.129,-0.021,0.754,0.217,0.388,-0.21,0.28
1.805,1.571,-0.984,-0.066,0.696,0.172,0.392,-0.21,0.285
1.77,1.571,-0.838,-0.104,0.72,0.037,0.395,-0.21,0.29
1.731,1.571,-0.671,-0.135,0.825,-0.206,0.398,-0.21,0.295
1.688,1.571,-0.494,-0.157,0.874,-0.413,0.4,-0.21,0.3
1.647,1.571,-0.32,-0.172,0.845,-0.545,0.402,-0.21,0.306
1.612,1.571,-0.174,-0.18,0.69,-0.565,0.402,-0.174,0.311
1.591,1.571,-0.084,-0.183,0.402,-0.454,0.403,-0.084,0.316
1.585,1.571,-0.058,-0.186,0.084,-0.185,0.403,-0.058,0.321
1.59,1.571,-0.082,-0.19,-0.15,0.102,0.403,-0.082,0.326
1.583,1.571,-0.053,-0.192,0.189,-0.294,0.403,-0.053,0.331
1.516,1.571,0.232,-0.182,1.569,-1,0.402,0.21,0.336
1.452,1.571,0.499,-0.182,1.261,-1,0.4,0.21,0.341
1.422,1.571,0.624,-0.182,0.512,-1,0.398,0.21,0.346
1.42,1.571,0.634,-0.182,-0.019,-1,0.398,0.21,0.351
1.395,1.571,0.74,-0.182,0.596,-1,0.397,0.21,0.356
1.345,1.571,0.948,-0.182,1.082,-1,0.393,0.21,0.361
1.324,1.571,1.036,-0.182,0.329,-1,0.391,0.21,0.366
1.32,1.571,1.053,-0.182,0.045,-1,0.39,0.21,0.371
1.293,1.571,1.167,-0.182,0.637,-1,0.387,0.21,0.376
1.276,1.571,1.237,-0.182,0.295,-1,0.385,0.21,0.381
1.27,1.571,1.265,-0.182,0.115,-1,0.385,0.21,0.386
1.253,1.571,1.334,-0.182,0.366,-1,0.383,0.21,0.391
1.248,1.571,1.354,-0.182,0.061,-1,0.382,0.21,0.396
1.244,1.571,1.372,-0.182,0.092,-1,0.382,0.21,0.401
1.237,1.571,1.402,-0.182,0.152,-1,0.381,0.21,0.406
1.239,1.571,1.393,-0.182,-0.073,-1,0.381,0.21,0.411
1.237,1.571,1.401,-0.182,0.054,-1,0.381,0.21,0.416
1.241,1.571,1.386,-0.182,-0.088,-1,0.381,0.21,0.421
1.245,1.571,1.367,-0.182,-0.095,-1,0.382,0.21,0.426
1.25,1.571,1.348,-0.182,-0.094,-1,0.382,0.21,0.431
1.261,1.571,1.303,-0.182,-0.239,-1,0.384,0.21,0.436
1.27,1.571,1.263,-0.182,-0.188,-1,0.385,0.21,0.441
1.285,1.571,1.202,-0.182,-0.312,-1,0.386,0.21,0.446
1.301,1.571,1.133,-0.182,-0.344,-1,0.388,0.21,0.451
1.318,1.571,1.06,-0.182,-0.353,-1,0.39,0.21,0.456
1.34,1.571,0.97,-0.182,-0.453,-0.938,0.392,0.21,0.461
1.362,1.571,0.877,-0.142,-0.453,-0.887,0.394,0.21,0.466
1.388,1.571,0.767,-0.107,-0.554,-0.712,0.396,0.21,0.471
1.414,1.571,0.658,-0.077,-0.524,-0.665,0.398,0.21,0.476
1.443,1.571,0.535,-0.053,-0.615,-0.476,0.4,0.21,0.481
1.474,1.571,0.408,-0.034,-0.616,-0.369,0.401,0.21,0.486
1.502,1.571,0.29,-0.021,-0.573,-0.308,0.402,0.21,0.491
1.532,1.571,0.161,-0.014,-0.637,-0.074,0.403,0.161,0.496
1.562,1.571,0.036,-0.012,-0.606,0.143,0.403,0.036,0.501
1.588,1.571,-0.071,-0.015,-0.509,0.263,0.403,-0.071,0.506
1.604,1.571,-0.138,-0.021,-0.3,0.194,0.403,-0.138,0.511
1.613,1.571,-0.179,-0.03,-0.186,0.172,0.402,-0.179,0.516
1.619,1.571,-0.201,-0.039,-0.095,0.133,0.402,-0.201,0.521
1.622,1.571,-0.215,-0.048,-0.065,0.137,0.402,-0.21,0.526
1.626,1.571,-0.231,-0.059,-0.077,0.174,0.402,-0.21,0.531
1.631,1.571,-0.253,-0.07,-0.111,0.242,0.402,-0.21,0.536
1.637,1.571,-0.277,-0.083,-0.121,0.289,0.402,-0.21,0.541
1.642,1.571,-0.298,-0.097,-0.098,0.3,0.402,-0.21,0.546
1.644,1.571,-0.305,-0.11,-0.029,0.253,0.402,-0.21,0.551
1.642,1.571,-0.3,-0.124,0.033,0.199,0.402,-0.21,0.556
1.641,1.571,-0.294,-0.137,0.031,0.208,0.402,-0.21,0.561
1.641,1.571,-0.295,-0.151,-0.012,0.266,0.402,-0.21,0.566
1.642,1.571,-0.3,-0.165,-0.027,0.3,0.402,-0.21,0.571
1.641,1.571,-0.295,-0.178,0.033,0.248,0.402,-0.21,0.576
1.638,1.571,-0.281,-0.191,0.075,0.205,0.402,-0.21,0.581
1.633,1.571,-0.262,-0.203,0.097,0.175,0.402,-0.21,0.586
1.627,1.571,-0.235,-0.213,0.137,0.118,0.402,-0.21,0.591
1.618,1.571,-0.198,-0.222,0.182,0.035,0.402,-0.198,0.596
1.609,1.571,-0.16,-0.23,0.19,-0.043,0.403,-0.16,0.601
1.601,1.571,-0.128,-0.235,0.152,-0.064,0.403,-0.128,0.606
1.595,1.571,-0.103,-0.24,0.115,-0.071,0.403,-0.103,0.611
1.585,1.571,-0.059,-0.243,0.229,-0.27,0.403,-0.059,0.616
1.57,1.571,0.001,-0.243,0.305,-0.468,0.403,0.001,0.621
1.557,1.571,0.057,-0.24,0.265,-0.541,0.403,0.057,0.626
1.551,1.571,0.085,-0.236,0.119,-0.456,0.403,0.085,0.631
1.555,1.571,0.068,-0.233,-0.112,-0.194,0.403,0.068,0.636
1.567,1.571,0.018,-0.232,-0.265,0.059,0.403,0.018,0.641
1.578,1.571,-0.031,-0.234,-0.235,0.128,0.403,-0.031,0.646
1.583,1.571,-0.05,-0.236,-0.073,0.007,0.403,-0.05,0.651
1.581,1.571,-0.044,-0.238,0.047,-0.124,0.403,-0.044,0.656
1.565,1.571,0.023,-0.237,0.369,-0.581,0.403,0.023,0.661
1.54,1.571,0.131,-0.231,0.552,-0.986,0.403,0.131,0.666
1.528,1.571,0.18,-0.223,0.192,-0.732,0.402,0.18,0.671
1.521,1.571,0.21,-0.213,0.137,-0.747,0.402,0.21,0.676
1.499,1.571,0.3,-0.2,0.485,-1,0.402,0.21,0.681
1.494,1.571,0.323,-0.2,0.057,-0.793,0.402,0.21,0.686
1.489,1.571,0.343,-0.184,0.1,-0.87,0.401,0.21,0.691
1.48,1.571,0.381,-0.167,0.202,-1,0.401,0.21,0.696
1.483,1.571,0.369,-0.167,-0.103,-0.711,0.401,0.21,0.701
1.482,1.571,0.375,-0.15,0.052,-0.888,0.401,0.21,0.706
1.484,1.571,0.366,-0.133,-0.058,-0.786,0.401,0.21,0.711
1.491,1.571,0.334,-0.118,-0.172,-0.656,0.402,0.21,0.716
1.495,1.571,0.318,-0.103,-0.061,-0.766,0.402,0.21,0.721
1.506,1.571,0.271,-0.091,-0.258,-0.533,0.402,0.21,0.726
1.516,1.571,0.229,-0.081,-0.193,-0.568,0.402,0.21,0.731
1.526,1.571,0.188,-0.072,-0.202,-0.504,0.402,0.188,0.736
1.542,1.571,0.121,-0.067,-0.346,-0.233,0.403,0.121,0.741
1.553,1.571,0.073,-0.063,-0.216,-0.271,0.403,0.073,0.746
1.564,1.571,0.027,-0.062,-0.228,-0.167,0.403,0.027,0.751
1.578,1.571,-0.028,-0.063,-0.277,-0.006,0.403,-0.028,0.756
1.588,1.571,-0.072,-0.067,-0.204,0.012,0.403,-0.072,0.761
1.594,1.571,-0.099,-0.071,-0.121,-0.012,0.403,-0.099,0.766
1.599,1.571,-0.119,-0.076,-0.09,0.001,0.403,-0.119,0.771
1.604,1.571,-0.138,-0.083,-0.095,0.051,0.403,-0.138,0.776
1.608,1.571,-0.156,-0.09,-0.087,0.086,0.403,-0.156,0.781
1.61,1.571,-0.166,-0.097,-0.045,0.072,0.403,-0.166,0.786
1.612,1.571,-0.173,-0.105,-0.029,0.077,0.402,-0.173,0.791
1.612,1.571,-0.171,-0.113,0.012,0.042,0.402,-0.171,0.796
1.61,1.571,-0.165,-0.12,0.034,0.013,0.403,-0.165,0.801
1.608,1.571,-0.155,-0.128,0.053,-0.018,0.403,-0.155,0.806
1.606,1.571,-0.147,-0.134,0.035,-0.01,0.403,-0.147,0.811
1.604,1.571,-0.14,-0.141,0.031,-0.012,0.403,-0.14,0.816
1.599,1.571,-0.119,-0.146,0.118,-0.138,0.403,-0.119,0.821
1.589,1.571,-0.076,-0.149,0.221,-0.322,0.403,-0.076,0.826
1.58,1.571,-0.039,-0.151,0.177,-0.351,0.403,-0.039,0.831
1.574,1.571,-0.013,-0.152,0.118,-0.343,0.403,-0.013,0.836
1.564,1.571,0.03,-0.15,0.221,-0.533,0.403,0.03,0.841
1.555,1.571,0.068,-0.147,0.184,-0.576,0.403,0.068,0.846
1.548,1.571,0.094,-0.143,0.117,-0.565,0.403,0.094,0.851
1.54,1.571,0.129,-0.137,0.178,-0.701,0.403,0.129,0.856
1.536,1.571,0.148,-0.13,0.082,-0.65,0.403,0.148,0.861
1.534,1.571,0.156,-0.123,0.031,-0.622,0.403,0.156,0.866
1.531,1.571,0.166,-0.116,0.053,-0.672,0.403,0.166,0.871
1.533,1.571,0.16,-0.109,-0.044,-0.569,0.403,0.16,0.876
1.535,1.571,0.151,-0.102,-0.044,-0.558,0.403,0.151,0.881
1.538,1.571,0.138,-0.095,-0.066,-0.517,0.403,0.138,0.886
1.543,1.571,0.115,-0.09,-0.12,-0.422,0.403,0.115,0.891
1.548,1.571,0.094,-0.086,-0.098,-0.407,0.403,0.094,0.896
1.555,1.571,0.068,-0.083,-0.13,-0.327,0.403,0.068,0.902
1.561,1.571,0.04,-0.081,-0.14,-0.262,0.403,0.04,0.907
1.566,1.571,0.021,-0.08,-0.087,-0.276,0.403,0.021,0.912
1.571,1.571,0,-0.08,-0.103,-0.22,0.403,0,0.917
1.576,1.571,-0.022,-0.081,-0.108,-0.17,0.403,-0.022,0.922
1.579,1.571,-0.034,-0.083,-0.049,-0.204,0.403,-0.034,0.927
1.581,1.571,-0.043,-0.085,-0.043,-0.19,0.403,-0.043,0.932
1.582,1.571,-0.049,-0.087,-0.03,-0.188,0.403,-0.049,0.937
1.582,1.571,-0.049,-0.089,0.004,-0.22,0.403,-0.049,0.942
1.582,1.571,-0.048,-0.091,0.007,-0.223,0.403,-0.048,0.947
1.581,1.571,-0.041,-0.093,0.035,-0.262,0.403,-0.041,0.952
1.578,1.571,-0.031,-0.094,0.053,-0.299,0.403,-0.031,0.957
1.575,1.571,-0.019,-0.095,0.057,-0.326,0.403,-0.019,0.962
1.572,1.571,-0.006,-0.096,0.064,-0.358,0.403,-0.006,0.967
1.569,1.571,0.006,-0.095,0.063,-0.383,0.403,0.006,0.972
1.566,1.571,0.021,-0.094,0.07,-0.42,0.403,0.021,0.977
1.563,1.571,0.032,-0.093,0.055,-0.429,0.403,0.032,0.982
1.561,1.571,0.043,-0.091,0.05,-0.447,0.403,0.043,0.987
1.559,1.571,0.052,-0.089,0.043,-0.46,0.403,0.052,0.992
1.557,1.571,0.057,-0.086,0.022,-0.453,0.403,0.057,0.997
1.557,1.571,0.058,-0.083,0.004,-0.439,0.403,0.058,1.002
1.557,1.571,0.058,-0.081,-0.001,-0.437,0.403,0.058,1.007
1.558,1.571,0.054,-0.078,-0.022,-0.411,0.403,0.054,1.012
1.559,1.571,0.049,-0.076,-0.026,-0.399,0.403,0.049,1.017
1.561,1.571,0.043,-0.074,-0.032,-0.381,0.403,0.043,1.022
1.562,1.571,0.036,-0.073,-0.031,-0.371,0.403,0.036,1.027
1.564,1.571,0.03,-0.071,-0.031,-0.359,0.403,0.03,1.032
1.565,1.571,0.023,-0.07,-0.031,-0.348,0.403,0.023,1.037
1.567,1.571,0.018,-0.069,-0.024,-0.345,0.403,0.018,1.042
1.568,1.571,0.013,-0.069,-0.025,-0.335,0.403,0.013,1.047
1.569,1.571,0.008,-0.068,-0.025,-0.325,0.403,0.008,1.052
1.57,1.571,0.005,-0.068,-0.011,-0.334,0.403,0.005,1.057
1.57,1.571,0.003,-0.068,-0.013,-0.327,0.403,0.003,1.062
1.57,1.571,0.001,-0.068,-0.005,-0.332,0.403,0.001,1.067
1.57,1.571,0.001,-0.068,0.001,-0.338,0.403,0.001,1.072
1.57,1.571,0.003,-0.068,0.007,-0.347,0.403,0.003,1.077
1.57,1.571,0.004,-0.068,0.006,-0.349,0.403,0.004,1.082
1.57,1.571,0.005,-0.067,0.006,-0.352,0.403,0.005,1.087
1.569,1.571,0.006,-0.067,0.006,-0.355,0.403,0.006,1.092
1.569,1.571,0.009,-0.067,0.014,-0.368,0.403,0.009,1.097
1.568,1.571,0.01,-0.066,0.005,-0.362,0.403,0.01,1.102
1.568,1.571,0.012,-0.066,0.006,-0.367,0.403,0.012,1.107
1.568,1.571,0.012,-0.065,-0.001,-0.36,0.403,0.012,1.112
1.568,1.571,0.013,-0.065,0.007,-0.371,0.403,0.013,1.117
1.568,1.571,0.013,-0.064,-0.001,-0.364,0.403,0.013,1.122
1.568,1.571,0.013,-0.063,0,-0.365,0.403,0.013,1.127
1.568,1.571,0.013,-0.063,0,-0.366,0.403,0.013,1.132
1.568,1.571,0.012,-0.062,-0.007,-0.357,0.403,0.012,1.137
1.568,1.571,0.012,-0.062,0.001,-0.365,0.403,0.012,1.142
1.568,1.571,0.012,-0.061,0,-0.365,0.403,0.012,1.147
1.568,1.571,0.012,-0.061,0,-0.365,0.403,0.012,1.152
1.568,1.571,0.013,-0.06,0.007,-0.376,0.403,0.013,1.157
1.568,1.571,0.012,-0.06,-0.008,-0.358,0.403,0.012,1.162
1.568,1.571,0.013,-0.059,0.008,-0.378,0.403,0.013,1.167
1.568,1.571,0.012,-0.058,-0.009,-0.359,0.403,0.012,1.172
1.568,1.571,0.012,-0.058,0.001,-0.369,0.403,0.012,1.177
1.568,1.571,0.012,-0.057,0,-0.368,0.403,0.012,1.182
1.568,1.571,0.012,-0.057,0,-0.369,0.403,0.012,1.187
1.568,1.571,0.012,-0.056,0,-0.37,0.403,0.012,1.192
1.568,1.571,0.012,-0.056,0,-0.37,0.403,0.012,1.197
1.568,1.571,0.012,-0.055,0,-0.371,0.403,0.012,1.202
1.568,1.571,0.012,-0.055,0,-0.371,0.403,0.012,1.207
1.568,1.571,0.012,-0.054,0,-0.372,0.403,0.012,1.212
1.568,1.571,0.012,-0.054,0,-0.372,0.403,0.012,1.217
1.568,1.571,0.012,-0.053,0,-0.373,0.403,0.012,1.222
1.568,1.571,0.012,-0.053,0,-0.373,0.403,0.012,1.227
1.568,1.571,0.012,-0.052,0,-0.374,0.403,0.012,1.232
1.568,1.571,0.012,-0.052,0,-0.374,0.403,0.012,1.237
1.568,1.571,0.012,-0.051,0,-0.375,0.403,0.012,1.242
1.568,1.571,0.012,-0.051,0,-0.375,0.403,0.012,1.247
1.568,1.571,0.012,-0.05,0,-0.376,0.403,0.012,1.252
1.568,1.571,0.012,-0.049,0,-0.377,0.403,0.012,1.257
1.568,1.571,0.012,-0.049,0,-0.377,0.403,0.012,1.262
1.568,1.571,0.012,-0.048,0,-0.378,0.403,0.012,1.267
1.568,1.571,0.012,-0.048,0,-0.378,0.403,0.012,1.272
1.568,1.571,0.012,-0.047,0,-0.379,0.403,0.012,1.277
1.568,1.571,0.012,-0.047,0,-0.379,0.403,0.012,1.282
1.568,1.571,0.012,-0.046,0,-0.38,0.403,0.012,1.287
1.568,1.571,0.012,-0.046,0,-0.38,0.403,0.012,1.292
1.568,1.571,0.012,-0.045,0,-0.381,0.403,0.012,1.297
1.568,1.571,0.01,-0.045,-0.007,-0.371,0.403,0.01,1.302
1.568,1.571,0.012,-0.044,0.008,-0.39,0.403,0.012,1.307
1.568,1.571,0.012,-0.044,-0.001,-0.381,0.403,0.012,1.312
1.568,1.571,0.01,-0.043,-0.007,-0.373,0.403,0.01,1.317
1.568,1.571,0.012,-0.043,0.008,-0.392,0.403,0.012,1.322
1.568,1.571,0.012,-0.042,-0.001,-0.383,0.403,0.012,1.327
1.568,1.571,0.01,-0.042,-0.007,-0.375,0.403,0.01,1.332
1.568,1.571,0.01,-0.041,0.001,-0.383,0.403,0.01,1.337
1.568,1.571,0.01,-0.041,0,-0.382,0.403,0.01,1.342
1.568,1.571,0.01,-0.04,0,-0.383,0.403,0.01,1.347
1.568,1.571,0.01,-0.04,0,-0.384,0.403,0.01,1.352
1.568,1.571,0.01,-0.039,0,-0.384,0.403,0.01,1.357
1.568,1.571,0.01,-0.039,0,-0.384,0.403,0.01,1.362
1.568,1.571,0.01,-0.038,0,-0.385,0.403,0.01,1.367
1.568,1.571,0.01,-0.038,0,-0.385,0.403,0.01,1.372
1.568,1.571,0.01,-0.038,0,-0.386,0.403,0.01,1.377
1.568,1.571,0.01,-0.037,0,-0.386,0.403,0.01,1.382
1.568,1.571,0.01,-0.037,0,-0.387,0.403,0.01,1.387
1.568,1.571,0.01,-0.036,0,-0.387,0.403,0.01,1.392
1.568,1.571,0.01,-0.036,0,-0.388,0.403,0.01,1.397
1.568,1.571,0.01,-0.035,0,-0.388,0.403,0.01,1.402
1.568,1.571,0.01,-0.035,0,-0.389,0.403,0.01,1.407
1.568,1.571,0.01,-0.034,0,-0.389,0.403,0.01,1.412
1.568,1.571,0.01,-0.034,0,-0.39,0.403,0.01,1.417
1.568,1.571,0.01,-0.033,0,-0.39,0.403,0.01,1.422
1.568,1.571,0.01,-0.033,0,-0.391,0.403,0.01,1.427
1.569,1.571,0.009,-0.032,-0.007,-0.381,0.403,0.009,1.432
1.569,1.571,0.009,-0.032,0.001,-0.39,0.403,0.009,1.437
1.569,1.571,0.009,-0.032,0,-0.389,0.403,0.009,1.442
1.569,1.571,0.009,-0.031,0,-0.39,0.403,0.009,1.447
1.569,1.571,0.009,-0.031,0,-0.39,0.403,0.009,1.452
1.569,1.571,0.009,-0.03,0,-0.39,0.403,0.009,1.457
1.569,1.571,0.009,-0.03,0,-0.391,0.403,0.009,1.462
1.569,1.571,0.009,-0.03,0,-0.391,0.403,0.009,1.467
1.569,1.571,0.009,-0.029,0,-0.392,0.403,0.009,1.472
1.569,1.571,0.009,-0.029,0,-0.392,0.403,0.009,1.477
1.569,1.571,0.008,-0.028,-0.007,-0.383,0.403,0.008,1.482
1.569,1.571,0.008,-0.028,0.001,-0.391,0.403,0.008,1.487
1.569,1.571,0.008,-0.028,0,-0.39,0.403,0.008,1.492
1.569,1.571,0.008,-0.027,0,-0.391,0.403,0.008,1.498
1.569,1.571,0.008,-0.027,0,-0.391,0.403,0.008,1.503
1.569,1.571,0.008,-0.027,0,-0.392,0.403,0.008,1.508
1.569,1.571,0.008,-0.026,0,-0.392,0.403,0.008,1.513
1.569,1.571,0.006,-0.026,-0.007,-0.382,0.403,0.006,1.518
1.569,1.571,0.006,-0.026,0.001,-0.391,0.403,0.006,1.523
1.569,1.571,0.006,-0.025,0,-0.39,0.403,0.006,1.528
1.57,1.571,0.005,-0.025,-0.007,-0.381,0.403,0.005,1.533
1.57,1.571,0.005,-0.025,0.001,-0.389,0.403,0.005,1.538
1.57,1.571,0.004,-0.025,-0.007,-0.378,0.403,0.004,1.543
1.57,1.571,0.003,-0.025,-0.006,-0.377,0.403,0.003,1.548
1.57,1.571,0.003,-0.025,0.001,-0.384,0.403,0.003,1.553
1.57,1.571,0.003,-0.024,0,-0.383,0.403,0.003,1.558
1.57,1.571,0.001,-0.024,-0.007,-0.374,0.403,0.001,1.563
1.57,1.571,0.001,-0.024,0.001,-0.382,0.403,0.001,1.568
1.57,1.571,0.001,-0.024,0,-0.381,0.403,0.001,1.573
1.57,1.571,0.001,-0.024,0,-0.381,0.403,0.001,1.578
1.57,1.571,0.001,-0.024,0,-0.381,0.403,0.001,1.583
1.57,1.571,0.001,-0.024,0,-0.381,0.403,0.001,1.588
1.571,1.571,0,-0.024,-0.007,-0.372,0.403,0,1.593
1.571,1.571,0,-0.024,0.001,-0.38,0.403,0,1.598
1.571,1.571,0,-0.024,0,-0.379,0.403,0,1.603
1.571,1.571,0,-0.024,0,-0.379,0.403,0,1.608
1.571,1.571,0,-0.024,0,-0.379,0.403,0,1.613
1.571,1.571,0,-0.024,0,-0.379,0.403,0,1.618
1.571,1.571,-0.001,-0.024,-0.007,-0.369,0.403,-0.001,1.623
1.571,1.571,0,-0.024,0.008,-0.387,0.403,0,1.628
1.571,1.571,0,-0.024,-0.001,-0.377,0.403,0,1.633
1.571,1.571,-0.001,-0.024,-0.007,-0.369,0.403,-0.001,1.638
1.571,1.571,-0.001,-0.024,0.001,-0.377,0.403,-0.001,1.643
1.571,1.571,-0.001,-0.024,0,-0.376,0.403,-0.001,1.648
1.571,1.571,-0.001,-0.024,0,-0.376,0.403,-0.001,1.653
1.571,1.571,-0.001,-0.024,0,-0.376,0.403,-0.001,1.658
1.571,1.571,-0.001,-0.024,0,-0.376,0.403,-0.001,1.663
1.571,1.571,-0.001,-0.025,0,-0.376,0.403,-0.001,1.668
1.571,1.571,-0.001,-0.025,0,-0.376,0.403,-0.001,1.673
1.571,1.571,-0.001,-0.025,0,-0.376,0.403,-0.001,1.678
1.571,1.571,-0.001,-0.025,0,-0.376,0.403,-0.001,1.683
1.571,1.571,-0.001,-0.025,0,-0.375,0.403,-0.001,1.688
1.571,1.571,-0.001,-0.025,0,-0.375,0.403,-0.001,1.693
1.571,1.571,-0.001,-0.025,0,-0.375,0.403,-0.001,1.698
1.571,1.571,-0.001,-0.025,0,-0.375,0.403,-0.001,1.703
1.571,1.571,-0.001,-0.025,0,-0.375,0.403,-0.001,1.708
1.571,1.571,-0.001,-0.025,0,-0.375,0.403,-0.001,1.713
1.571,1.571,-0.001,-0.025,0,-0.375,0.403,-0.001,1.718
1.571,1.571,-0.001,-0.025,0,-0.375,0.403,-0.001,1.723
1.571,1.571,-0.001,-0.025,0,-0.375,0.403,-0.001,1.728
1.571,1.571,-0.001,-0.025,0,-0.375,0.403,-0.001,1.733
1.571,1.571,-0.001,-0.025,0,-0.375,0.403,-0.001,1.738
1.571,1.571,-0.001,-0.025,0,-0.375,0.403,-0.001,1.743
1.571,1.571,-0.001,-0.025,0,-0.375,0.403,-0.001,1.748
1.571,1.571,-0.001,-0.026,0,-0.375,0.403,-0.001,1.753
1.571,1.571,-0.001,-0.026,0,-0.375,0.403,-0.001,1.758
1.571,1.571,-0.003,-0.026,-0.007,-0.365,0.403,-0.003,1.763
1.571,1.571,-0.001,-0.026,0.008,-0.383,0.403,-0.001,1.768
1.571,1.571,-0.001,-0.026,-0.001,-0.373,0.403,-0.001,1.773
1.571,1.571,-0.003,-0.026,-0.007,-0.365,0.403,-0.003,1.778
1.571,1.571,-0.001,-0.026,0.008,-0.383,0.403,-0.001,1.783
1.571,1.571,-0.003,-0.026,-0.008,-0.363,0.403,-0.003,1.788
1.571,1.571,-0.003,-0.026,0.001,-0.373,0.403,-0.003,1.793
1.571,1.571,-0.003,-0.026,0,-0.371,0.403,-0.003,1.798
1.571,1.571,-0.003,-0.026,0,-0.371,0.403,-0.003,1.803
1.571,1.571,-0.003,-0.027,0,-0.371,0.403,-0.003,1.808
1.571,1.571,-0.003,-0.027,0,-0.371,0.403,-0.003,1.813
1.571,1.571,-0.003,-0.027,0,-0.371,0.403,-0.003,1.818
1.571,1.571,-0.003,-0.027,0,-0.371,0.403,-0.003,1.823
1.571,1.571,-0.003,-0.027,0,-0.371,0.403,-0.003,1.828
1.571,1.571,-0.003,-0.027,0,-0.37,0.403,-0.003,1.833
1.571,1.571,-0.003,-0.027,0,-0.37,0.403,-0.003,1.838
1.571,1.571,-0.001,-0.027,0.007,-0.38,0.403,-0.001,1.843
1.571,1.571,-0.003,-0.027,-0.008,-0.362,0.403,-0.003,1.848
1.571,1.571,-0.003,-0.028,0.001,-0.371,0.403,-0.003,1.853
1.571,1.571,-0.003,-0.028,0,-0.37,0.403,-0.003,1.858
1.571,1.571,-0.003,-0.028,0,-0.37,0.403,-0.003,1.863
1.571,1.571,-0.003,-0.028,0,-0.37,0.403,-0.003,1.868
1.571,1.571,-0.003,-0.028,0,-0.37,0.403,-0.003,1.873
1.571,1.571,-0.003,-0.028,0,-0.369,0.403,-0.003,1.878
1.571,1.571,-0.003,-0.028,0,-0.369,0.403,-0.003,1.883
1.571,1.571,-0.003,-0.028,0,-0.369,0.403,-0.003,1.888
1.571,1.571,-0.003,-0.029,0,-0.369,0.403,-0.003,1.893
1.571,1.571,-0.003,-0.029,0,-0.369,0.403,-0.003,1.898
1.571,1.571,-0.003,-0.029,0,-0.369,0.403,-0.003,1.903
1.571,1.571,-0.003,-0.029,0,-0.369,0.403,-0.003,1.908
1.571,1.571,-0.003,-0.029,0,-0.369,0.403,-0.003,1.913
1.571,1.571,-0.003,-0.029,0,-0.369,0.403,-0.003,1.918
1.571,1.571,-0.003,-0.029,0,-0.368,0.403,-0.003,1.923
1.571,1.571,-0.003,-0.029,0,-0.368,0.403,-0.003,1.928
1.571,1.571,-0.003,-0.029,0,-0.368,0.403,-0.003,1.933
1.571,1.571,-0.003,-0.03,0,-0.368,0.403,-0.003,1.938
1.571,1.571,-0.003,-0.03,0,-0.368,0.403,-0.003,1.943
1.571,1.571,-0.003,-0.03,0,-0.368,0.403,-0.003,1.948
1.571,1.571,-0.003,-0.03,0,-0.368,0.403,-0.003,1.953
1.571,1.571,-0.003,-0.03,0,-0.368,0.403,-0.003,1.958
1.571,1.571,-0.003,-0.03,0,-0.367,0.403,-0.003,1.963
1.571,1.571,-0.003,-0.03,0,-0.367,0.403,-0.003,1.968
1.571,1.571,-0.003,-0.03,0,-0.367,0.403,-0.003,1.973
1.571,1.571,-0.003,-0.031,0,-0.367,0.403,-0.003,1.978
1.571,1.571,-0.003,-0.031,0,-0.367,0.403,-0.003,1.983
1.571,1.571,-0.003,-0.031,0,-0.367,0.403,-0.003,1.988
1.571,1.571,-0.003,-0.031,0,-0.367,0.403,-0.003,1.993
1.571,1.571,-0.003,-0.031,0,-0.367,0.403,-0.003,1.998
1.571,1.571,-0.003,-0.031,0,-0.367,0.403,-0.003,2.003
1.571,1.571,-0.003,-0.031,0,-0.366,0.403,-0.003,2.008
1.571,1.571,-0.003,-0.031,0,-0.366,0.403,-0.003,2.013
1.571,1.571,-0.003,-0.031,0,-0.366,0.403,-0.003,2.018
1.571,1.571,-0.003,-0.032,0,-0.366,0.403,-0.003,2.023
1.571,1.571,-0.003,-0.032,0,-0.366,0.403,-0.003,2.028
1.571,1.571,-0.003,-0.032,0,-0.366,0.403,-0.003,2.033
1.571,1.571,-0.003,-0.032,0,-0.366,0.403,-0.003,2.038
1.571,1.571,-0.003,-0.032,0,-0.366,0.403,-0.003,2.043
1.571,1.571,-0.003,-0.032,0,-0.366,0.403,-0.003,2.048
1.571,1.571,-0.003,-0.032,0,-0.365,0.403,-0.003,2.053
1.571,1.571,-0.003,-0.032,0,-0.365,0.403,-0.003,2.058
1.571,1.571,-0.003,-0.033,0,-0.365,0.403,-0.003,2.063
1.571,1.571,-0.003,-0.033,0,-0.365,0.403,-0.003,2.068
1.571,1.571,-0.003,-0.033,0,-0.365,0.403,-0.003,2.073
1.571,1.571,-0.003,-0.033,0,-0.365,0.403,-0.003,2.078
1.571,1.571,-0.003,-0.033,0,-0.365,0.403,-0.003,2.083
1.571,1.571,-0.003,-0.033,0,-0.365,0.403,-0.003,2.088
1.571,1.571,-0.003,-0.033,0,-0.364,0.403,-0.003,2.093
1.571,1.571,-0.003,-0.033,0,-0.364,0.403,-0.003,2.098
1.571,1.571,-0.003,-0.033,0,-0.364,0.403,-0.003,2.104
1.571,1.571,-0.003,-0.034,0,-0.364,0.403,-0.003,2.109
1.571,1.571,-0.003,-0.034,0,-0.364,0.403,-0.003,2.114
1.571,1.571,-0.003,-0.034,0,-0.364,0.403,-0.003,2.119
1.571,1.571,-0.001,-0.034,0.007,-0.374,0.403,-0.001,2.124
1.571,1.571,-0.003,-0.034,-0.008,-0.355,0.403,-0.003,2.129
1.571,1.571,-0.003,-0.034,0.001,-0.365,0.403,-0.003,2.134
1.571,1.571,-0.003,-0.034,0,-0.363,0.403,-0.003,2.139
1.571,1.571,-0.003,-0.034,0,-0.363,0.403,-0.003,2.144
1.571,1.571,-0.003,-0.034,0,-0.363,0.403,-0.003,2.149
1.571,1.571,-0.003,-0.035,0,-0.363,0.403,-0.003,2.154
1.571,1.571,-0.003,-0.035,0,-0.363,0.403,-0.003,2.159
1.571,1.571,-0.003,-0.035,0,-0.363,0.403,-0.003,2.164
1.571,1.571,-0.003,-0.035,0,-0.363,0.403,-0.003,2.169
1.571,1.571,-0.003,-0.035,0,-0.363,0.403,-0.003,2.174
1.571,1.571,-0.003,-0.035,0,-0.363,0.403,-0.003,2.179
1.571,1.571,-0.003,-0.035,0,-0.362,0.403,-0.003,2.184
1.571,1.571,-0.003,-0.035,0,-0.362,0.403,-0.003,2.189
1.571,1.571,-0.003,-0.035,0,-0.362,0.403,-0.003,2.194
1.571,1.571,-0.003,-0.036,0,-0.362,0.403,-0.003,2.199
1.571,1.571,-0.003,-0.036,0,-0.362,0.403,-0.003,2.204
1.571,1.571,-0.003,-0.036,0,-0.362,0.403,-0.003,2.209
1.571,1.571,-0.003,-0.036,0,-0.362,0.403,-0.003,2.214
1.571,1.571,-0.003,-0.036,0,-0.362,0.403,-0.003,2.219
1.571,1.571,-0.003,-0.036,0,-0.361,0.403,-0.003,2.224
1.571,1.571,-0.003,-0.036,0,-0.361,0.403,-0.003,2.229
1.571,1.571,-0.003,-0.036,0,-0.361,0.403,-0.003,2.234
1.571,1.571,-0.003,-0.037,0,-0.361,0.403,-0.003,2.239
1.571,1.571,-0.003,-0.037,0,-0.361,0.403,-0.003,2.244
1.571,1.571,-0.003,-0.037,0,-0.361,0.403,-0.003,2.249
1.571,1.571,-0.003,-0.037,0,-0.361,0.403,-0.003,2.254
1.571,1.571,-0.001,-0.037,0.007,-0.371,0.403,-0.001,2.259
1.571,1.571,-0.001,-0.037,-0.001,-0.362,0.403,-0.001,2.264
1.571,1.571,-0.001,-0.037,0,-0.363,0.403,-0.001,2.269
1.571,1.571,-0.001,-0.037,0,-0.363,0.403,-0.001,2.274
1.571,1.571,-0.001,-0.037,0,-0.363,0.403,-0.001,2.279
1.571,1.571,-0.001,-0.037,0,-0.363,0.403,-0.001,2.284
1.571,1.571,-0.001,-0.037,0,-0.363,0.403,-0.001,2.289
1.571,1.571,-0.001,-0.037,0,-0.363,0.403,-0.001,2.294
1.571,1.571,-0.001,-0.037,0,-0.363,0.403,-0.001,2.299
1.571,1.571,-0.001,-0.037,0,-0.363,0.403,-0.001,2.304
1.571,1.571,-0.001,-0.038,0,-0.363,0.403,-0.001,2.309
1.571,1.571,-0.001,-0.038,0,-0.363,0.403,-0.001,2.314
1.571,1.571,-0.001,-0.038,0,-0.363,0.403,-0.001,2.319
1.571,1.571,-0.001,-0.038,0,-0.363,0.403,-0.001,2.324
1.571,1.571,-0.001,-0.038,0,-0.362,0.403,-0.001,2.329
1.571,1.571,-0.001,-0.038,0,-0.362,0.403,-0.001,2.334
1.571,1.571,-0.001,-0.038,0,-0.362,0.403,-0.001,2.339
1.571,1.571,-0.001,-0.038,0,-0.362,0.403,-0.001,2.344
1.571,1.571,-0.001,-0.038,0,-0.362,0.403,-0.001,2.349
1.571,1.571,-0.001,-0.038,0,-0.362,0.403,-0.001,2.354
1.571,1.571,-0.001,-0.038,0,-0.362,0.403,-0.001,2.359
1.571,1.571,-0.003,-0.038,-0.007,-0.352,0.403,-0.003,2.364
1.571,1.571,-0.001,-0.038,0.008,-0.37,0.403,-0.001,2.369
1.571,1.571,-0.001,-0.038,-0.001,-0.361,0.403,-0.001,2.374
1.571,1.571,-0.003,-0.038,-0.007,-0.352,0.403,-0.003,2.379
1.571,1.571,-0.003,-0.039,0.001,-0.36,0.403,-0.003,2.384
1.571,1.571,-0.003,-0.039,0,-0.359,0.403,-0.003,2.389
1.572,1.571,-0.004,-0.039,-0.007,-0.349,0.403,-0.004,2.394
1.572,1.571,-0.004,-0.039,0.001,-0.357,0.403,-0.004,2.399
1.572,1.571,-0.004,-0.039,0,-0.356,0.403,-0.004,2.404
1.572,1.571,-0.005,-0.039,-0.007,-0.346,0.403,-0.005,2.409
1.572,1.571,-0.005,-0.04,0.001,-0.354,0.403,-0.005,2.414
1.572,1.571,-0.005,-0.04,0,-0.352,0.403,-0.005,2.419
1.572,1.571,-0.006,-0.04,-0.007,-0.342,0.403,-0.006,2.424
1.572,1.571,-0.006,-0.041,0.001,-0.35,0.403,-0.006,2.429
1.572,1.571,-0.006,-0.041,0,-0.349,0.403,-0.006,2.434
1.573,1.571,-0.008,-0.041,-0.007,-0.339,0.403,-0.008,2.439
1.573,1.571,-0.008,-0.042,0.001,-0.347,0.403,-0.008,2.444
1.573,1.571,-0.008,-0.042,0,-0.345,0.403,-0.008,2.449
1.573,1.571,-0.008,-0.042,0,-0.345,0.403,-0.008,2.454
1.573,1.571,-0.008,-0.043,0,-0.345,0.403,-0.008,2.459
1.573,1.571,-0.009,-0.043,-0.007,-0.335,0.403,-0.009,2.464
1.573,1.571,-0.009,-0.043,0.001,-0.342,0.403,-0.009,2.469
1.573,1.571,-0.01,-0.044,-0.007,-0.331,0.403,-0.01,2.474
1.573,1.571,-0.01,-0.044,0.001,-0.339,0.403,-0.01,2.479
1.574,1.571,-0.012,-0.045,-0.007,-0.327,0.403,-0.012,2.484
1.574,1.571,-0.012,-0.045,0.001,-0.335,0.403,-0.012,2.489
1.574,1.571,-0.013,-0.046,-0.007,-0.324,0.403,-0.013,2.494
1.574,1.571,-0.014,-0.047,-0.006,-0.322,0.403,-0.014,2.499
1.574,1.571,-0.014,-0.047,0.001,-0.328,0.403,-0.014,2.504
1.574,1.571,-0.015,-0.048,-0.007,-0.317,0.403,-0.015,2.509
1.575,1.571,-0.017,-0.049,-0.006,-0.314,0.403,-0.017,2.514
1.575,1.571,-0.017,-0.049,0.001,-0.321,0.403,-0.017,2.519
1.575,1.571,-0.018,-0.05,-0.007,-0.309,0.403,-0.018,2.524
1.575,1.571,-0.019,-0.051,-0.006,-0.307,0.403,-0.019,2.529
1.575,1.571,-0.019,-0.052,0.001,-0.313,0.403,-0.019,2.534
1.576,1.571,-0.021,-0.053,-0.007,-0.301,0.403,-0.021,2.539
1.576,1.571,-0.021,-0.054,0.001,-0.309,0.403,-0.021,2.544
1.576,1.571,-0.021,-0.055,0,-0.307,0.403,-0.021,2.549
1.576,1.571,-0.021,-0.056,0,-0.306,0.403,-0.021,2.554
1.576,1.571,-0.022,-0.057,-0.007,-0.295,0.403,-0.022,2.559
1.576,1.571,-0.021,-0.058,0.008,-0.312,0.403,-0.021,2.564
1.576,1.571,-0.021,-0.059,-0.001,-0.302,0.403,-0.021,2.569
1.576,1.571,-0.021,-0.06,0,-0.302,0.403,-0.021,2.574
1.575,1.571,-0.019,-0.061,0.007,-0.311,0.403,-0.019,2.579
1.575,1.571,-0.018,-0.061,0.006,-0.312,0.403,-0.018,2.584
1.573,1.571,-0.009,-0.062,0.05,-0.373,0.403,-0.009,2.589
1.571,1.571,-0.003,-0.062,0.029,-0.365,0.403,-0.003,2.594
1.57,1.571,0.004,-0.062,0.032,-0.381,0.403,0.004,2.599
1.566,1.571,0.022,-0.061,0.096,-0.482,0.403,0.022,2.604
1.563,1.571,0.034,-0.059,0.051,-0.461,0.403,0.034,2.609
1.56,1.571,0.045,-0.057,0.057,-0.493,0.403,0.045,2.614
1.555,1.571,0.064,-0.054,0.1,-0.577,0.403,0.064,2.619
1.552,1.571,0.077,-0.051,0.057,-0.564,0.403,0.077,2.624
1.549,1.571,0.093,-0.046,0.078,-0.62,0.403,0.093,2.629
1.544,1.571,0.112,-0.041,0.097,-0.682,0.403,0.112,2.634
1.541,1.571,0.126,-0.036,0.065,-0.685,0.403,0.126,2.639
1.537,1.571,0.142,-0.029,0.077,-0.734,0.403,0.142,2.644
1.532,1.571,0.161,-0.022,0.097,-0.8,0.403,0.161,2.649
1.529,1.571,0.174,-0.014,0.058,-0.794,0.402,0.174,2.654
1.526,1.571,0.189,-0.005,0.078,-0.854,0.402,0.189,2.659
1.522,1.571,0.204,0.004,0.068,-0.881,0.402,0.204,2.664
1.52,1.571,0.213,0.014,0.04,-0.879,0.402,0.21,2.669
1.518,1.571,0.223,0.024,0.052,-0.911,0.402,0.21,2.674
1.516,1.571,0.232,0.034,0.043,-0.921,0.402,0.21,2.679
1.515,1.571,0.236,0.045,0.015,-0.908,0.402,0.21,2.684
1.513,1.571,0.242,0.056,0.034,-0.944,0.402,0.21,2.689
1.513,1.571,0.244,0.067,0.002,-0.925,0.402,0.21,2.694
1.513,1.571,0.244,0.078,0,-0.933,0.402,0.21,2.7
1.513,1.571,0.244,0.089,0,-0.945,0.402,0.21,2.705
1.513,1.571,0.244,0.1,0,-0.956,0.402,0.21,2.71
1.513,1.571,0.241,0.111,-0.014,-0.95,0.402,0.21,2.715
1.514,1.571,0.238,0.122,-0.012,-0.96,0.402,0.21,2.72
1.515,1.571,0.235,0.133,-0.02,-0.96,0.402,0.21,2.725
1.516,1.571,0.229,0.143,-0.026,-0.959,0.402,0.21,2.73
1.517,1.571,0.225,0.153,-0.018,-0.973,0.402,0.21,2.735
1.519,1.571,0.219,0.163,-0.033,-0.961,0.402,0.21,2.74
1.52,1.571,0.213,0.173,-0.031,-0.967,0.402,0.21,2.745
1.522,1.571,0.206,0.182,-0.031,-0.966,0.402,0.206,2.75
1.524,1.571,0.197,0.191,-0.046,-0.942,0.402,0.197,2.755
1.526,1.571,0.189,0.2,-0.036,-0.945,0.402,0.189,2.76
1.528,1.571,0.179,0.208,-0.052,-0.916,0.402,0.179,2.765
1.531,1.571,0.169,0.216,-0.05,-0.906,0.402,0.169,2.77
1.533,1.571,0.158,0.223,-0.05,-0.892,0.403,0.158,2.775
1.536,1.571,0.147,0.23,-0.058,-0.868,0.403,0.147,2.78
1.539,1.571,0.135,0.236,-0.056,-0.853,0.403,0.135,2.785
1.541,1.571,0.124,0.241,-0.057,-0.835,0.403,0.124,2.79
1.544,1.571,0.111,0.246,-0.064,-0.807,0.403,0.111,2.795
1.547,1.571,0.098,0.251,-0.063,-0.787,0.403,0.098,2.8
1.551,1.571,0.085,0.255,-0.063,-0.765,0.403,0.085,2.805
1.554,1.571,0.071,0.258,-0.07,-0.732,0.403,0.071,2.81
1.557,1.571,0.059,0.261,-0.055,-0.727,0.403,0.059,2.815
1.56,1.571,0.046,0.263,-0.064,-0.694,0.403,0.046,2.82
1.563,1.571,0.035,0.264,-0.055,-0.681,0.403,0.035,2.825
1.565,1.571,0.026,0.266,-0.042,-0.678,0.403,0.026,2.83
1.567,1.571,0.014,0.266,-0.059,-0.639,0.403,0.014,2.835
1.569,1.571,0.006,0.266,-0.035,-0.648,0.403,0.006,2.84
1.571,1.571,-0.001,0.266,-0.038,-0.628,0.403,-0.001,2.845
1.573,1.571,-0.009,0.266,-0.038,-0.613,0.403,-0.009,2.85
1.574,1.571,-0.014,0.265,-0.023,-0.617,0.403,-0.014,2.855
1.575,1.571,-0.019,0.265,-0.025,-0.603,0.403,-0.019,2.86
1.577,1.571,-0.024,0.263,-0.025,-0.592,0.403,-0.024,2.865
1.577,1.571,-0.027,0.262,-0.011,-0.6,0.403,-0.027,2.87
1.578,1.571,-0.031,0.261,-0.02,-0.582,0.403,-0.031,2.875
1.578,1.571,-0.032,0.259,-0.004,-0.593,0.403,-0.032,2.88
1.578,1.571,-0.032,0.258,0.001,-0.597,0.403,-0.032,2.885
1.578,1.571,-0.032,0.256,0,-0.595,0.403,-0.032,2.89
1.578,1.571,-0.032,0.255,0,-0.593,0.403,-0.032,2.895
1.578,1.571,-0.031,0.253,0.007,-0.602,0.403,-0.031,2.9
1.578,1.571,-0.028,0.252,0.013,-0.612,0.403,-0.028,2.905
1.577,1.571,-0.026,0.251,0.012,-0.615,0.403,-0.026,2.91
1.577,1.571,-0.024,0.25,0.005,-0.609,0.403,-0.024,2.915
1.575,1.571,-0.019,0.249,0.028,-0.641,0.403,-0.019,2.92
1.575,1.571,-0.017,0.248,0.01,-0.628,0.403,-0.017,2.925
1.574,1.571,-0.014,0.248,0.013,-0.635,0.403,-0.014,2.93
1.573,1.571,-0.009,0.247,0.027,-0.659,0.403,-0.009,2.935
1.573,1.571,-0.008,0.247,0.003,-0.637,0.403,-0.008,2.94
1.572,1.571,-0.004,0.247,0.021,-0.663,0.403,-0.004,2.945
1.57,1.571,0.001,0.247,0.026,-0.678,0.403,0.001,2.95
1.57,1.571,0.001,0.247,-0.004,-0.648,0.403,0.001,2.955
1.569,1.571,0.006,0.247,0.029,-0.692,0.403,0.006,2.96
1.568,1.571,0.01,0.248,0.017,-0.688,0.403,0.01,2.965
1.568,1.571,0.013,0.248,0.012,-0.689,0.403,0.013,2.97
1.566,1.571,0.019,0.249,0.034,-0.725,0.403,0.019,2.975
1.566,1.571,0.022,0.25,0.009,-0.706,0.403,0.022,2.98
1.565,1.571,0.024,0.251,0.013,-0.716,0.403,0.024,2.985
1.563,1.571,0.031,0.253,0.034,-0.751,0.403,0.031,2.99
1.563,1.571,0.032,0.254,0.002,-0.723,0.403,0.032,2.995
1.563,1.571,0.035,0.256,0.014,-0.742,0.403,0.035,3
1.562,1.571,0.039,0.257,0.02,-0.757,0.403,0.039,3.005
1.562,1.571,0.039,0.259,-0.003,-0.736,0.403,0.039,3.01
1.561,1.571,0.04,0.261,0.008,-0.751,0.403,0.04,3.015
1.561,1.571,0.041,0.263,0.006,-0.754,0.403,0.041,3.02
1.561,1.571,0.041,0.265,-0.001,-0.749,0.403,0.041,3.025
1.561,1.571,0.041,0.267,0,-0.752,0.403,0.041,3.03
1.561,1.571,0.041,0.268,0,-0.754,0.403,0.041,3.035
1.561,1.571,0.04,0.27,-0.007,-0.746,0.403,0.04,3.04
1.561,1.571,0.04,0.272,0.001,-0.756,0.403,0.04,3.045
1.562,1.571,0.039,0.274,-0.007,-0.747,0.403,0.039,3.05
1.562,1.571,0.039,0.276,0.001,-0.757,0.403,0.039,3.055
1.562,1.571,0.039,0.277,0,-0.757,0.403,0.039,3.06
1.562,1.571,0.039,0.279,0,-0.759,0.403,0.039,3.065
1.562,1.571,0.039,0.281,0,-0.761,0.403,0.039,3.07
1.562,1.571,0.039,0.283,0,-0.763,0.403,0.039,3.075
1.562,1.571,0.039,0.284,0,-0.764,0.403,0.039,3.08
1.562,1.571,0.039,0.286,0,-0.766,0.403,0.039,3.085
1.562,1.571,0.039,0.288,0,-0.768,0.403,0.039,3.09
1.562,1.571,0.039,0.29,0,-0.77,0.403,0.039,3.095
1.562,1.571,0.039,0.291,0,-0.771,0.403,0.039,3.1
1.562,1.571,0.039,0.293,0,-0.773,0.403,0.039,3.105
1.562,1.571,0.039,0.295,0,-0.775,0.403,0.039,3.11
1.562,1.571,0.039,0.297,0,-0.777,0.403,0.039,3.115
1.562,1.571,0.039,0.298,0,-0.779,0.403,0.039,3.12
1.562,1.571,0.039,0.3,0,-0.78,0.403,0.039,3.125
1.562,1.571,0.037,0.302,-0.007,-0.772,0.403,0.037,3.13
1.562,1.571,0.037,0.304,0.001,-0.782,0.403,0.037,3.135
1.562,1.571,0.036,0.305,-0.007,-0.773,0.403,0.036,3.14
1.563,1.571,0.035,0.307,-0.006,-0.773,0.403,0.035,3.145
1.563,1.571,0.035,0.308,0.001,-0.782,0.403,0.035,3.15
1.563,1.571,0.034,0.31,-0.007,-0.772,0.403,0.034,3.155
1.563,1.571,0.032,0.311,-0.006,-0.772,0.403,0.032,3.16
1.563,1.571,0.031,0.313,-0.006,-0.771,0.403,0.031,3.165
1.564,1.571,0.03,0.314,-0.006,-0.77,0.403,0.03,3.17
1.564,1.571,0.03,0.315,0.001,-0.778,0.403,0.03,3.175
1.564,1.571,0.028,0.317,-0.007,-0.769,0.403,0.028,3.18
1.564,1.571,0.027,0.318,-0.006,-0.769,0.403,0.027,3.185
1.564,1.571,0.027,0.319,0.001,-0.777,0.403,0.027,3.19
1.565,1.571,0.026,0.32,-0.007,-0.767,0.403,0.026,3.195
1.565,1.571,0.026,0.322,0.001,-0.777,0.403,0.026,3.2
1.565,1.571,0.026,0.323,0,-0.777,0.403,0.026,3.205
1.565,1.571,0.026,0.324,0,-0.778,0.403,0.026,3.21
1.565,1.571,0.026,0.325,0,-0.779,0.403,0.026,3.215
1.565,1.571,0.026,0.326,0,-0.781,0.403,0.026,3.22
1.565,1.571,0.026,0.327,0,-0.782,0.403,0.026,3.225
1.565,1.571,0.026,0.329,0,-0.783,0.403,0.026,3.23
1.565,1.571,0.026,0.33,0,-0.784,0.403,0.026,3.235
1.565,1.571,0.026,0.331,0,-0.785,0.403,0.026,3.24
1.565,1.571,0.026,0.332,0,-0.786,0.403,0.026,3.245
1.565,1.571,0.026,0.333,0,-0.788,0.403,0.026,3.25
1.565,1.571,0.026,0.334,0,-0.789,0.403,0.026,3.255
1.565,1.571,0.026,0.336,0,-0.79,0.403,0.026,3.26
1.565,1.571,0.024,0.337,-0.007,-0.781,0.403,0.024,3.265
1.565,1.571,0.024,0.338,0.001,-0.791,0.403,0.024,3.27
1.565,1.571,0.026,0.339,0.007,-0.8,0.403,0.026,3.275
1.565,1.571,0.024,0.34,-0.008,-0.784,0.403,0.024,3.28
1.565,1.571,0.026,0.341,0.008,-0.804,0.403,0.026,3.285
1.565,1.571,0.026,0.342,-0.001,-0.796,0.403,0.026,3.29
1.565,1.571,0.026,0.344,0,-0.798,0.403,0.026,3.296
1.565,1.571,0.026,0.345,0,-0.799,0.403,0.026,3.301
1.565,1.571,0.026,0.346,0,-0.8,0.403,0.026,3.306
1.565,1.571,0.024,0.347,-0.007,-0.792,0.403,0.024,3.311
1.565,1.571,0.024,0.348,0.001,-0.801,0.403,0.024,3.316
1.565,1.571,0.024,0.349,0,-0.801,0.403,0.024,3.321
1.565,1.571,0.024,0.35,0,-0.802,0.403,0.024,3.326
1.565,1.571,0.024,0.352,0,-0.803,0.403,0.024,3.331
1.565,1.571,0.024,0.353,0,-0.804,0.403,0.024,3.336
1.565,1.571,0.026,0.354,0.007,-0.815,0.403,0.026,3.341
1.565,1.571,0.024,0.355,-0.008,-0.798,0.403,0.024,3.346
1.566,1.571,0.022,0.356,-0.013,-0.789,0.403,0.022,3.351
1.566,1.571,0.022,0.357,0.002,-0.806,0.403,0.022,3.356
1.566,1.571,0.021,0.358,-0.008,-0.794,0.403,0.021,3.361
1.566,1.571,0.019,0.359,-0.006,-0.794,0.403,0.019,3.366
1.567,1.571,0.018,0.36,-0.006,-0.792,0.403,0.018,3.371
1.567,1.571,0.017,0.36,-0.006,-0.79,0.403,0.017,3.376
1.567,1.571,0.017,0.361,0.001,-0.798,0.403,0.017,3.381
1.567,1.571,0.015,0.362,-0.007,-0.788,0.403,0.015,3.386
1.567,1.571,0.015,0.362,0.001,-0.797,0.403,0.015,3.391
1.567,1.571,0.015,0.363,0,-0.797,0.403,0.015,3.396
1.567,1.571,0.015,0.364,0,-0.798,0.403,0.015,3.401
1.567,1.571,0.015,0.365,0,-0.798,0.403,0.015,3.406
1.567,1.571,0.015,0.365,0,-0.799,0.403,0.015,3.411
1.567,1.571,0.015,0.366,0,-0.8,0.403,0.015,3.416
1.567,1.571,0.015,0.367,0,-0.8,0.403,0.015,3.421
1.567,1.571,0.015,0.367,0,-0.801,0.403,0.015,3.426
1.567,1.571,0.015,0.368,0,-0.802,0.403,0.015,3.431
1.567,1.571,0.015,0.369,0,-0.803,0.403,0.015,3.436
1.567,1.571,0.015,0.37,0,-0.803,0.403,0.015,3.441
1.567,1.571,0.015,0.37,0,-0.804,0.403,0.015,3.446
1.567,1.571,0.015,0.371,0,-0.805,0.403,0.015,3.451
1.567,1.571,0.015,0.372,0,-0.805,0.403,0.015,3.456
1.567,1.571,0.015,0.372,0,-0.806,0.403,0.015,3.461
1.567,1.571,0.015,0.373,0,-0.807,0.403,0.015,3.466
1.567,1.571,0.015,0.374,0,-0.807,0.403,0.015,3.471
1.567,1.571,0.015,0.374,0,-0.808,0.403,0.015,3.476
1.567,1.571,0.015,0.375,0,-0.809,0.403,0.015,3.481
1.567,1.571,0.015,0.376,0,-0.81,0.403,0.015,3.486
1.567,1.571,0.015,0.377,0,-0.81,0.403,0.015,3.491
1.567,1.571,0.015,0.377,0,-0.811,0.403,0.015,3.496
1.567,1.571,0.015,0.378,0,-0.812,0.403,0.015,3.501
1.567,1.571,0.014,0.379,-0.007,-0.803,0.403,0.014,3.506
1.568,1.571,0.013,0.379,-0.006,-0.802,0.403,0.013,3.511
1.568,1.571,0.013,0.38,0.001,-0.809,0.403,0.013,3.516
1.568,1.571,0.012,0.38,-0.007,-0.799,0.403,0.012,3.521
1.568,1.571,0.01,0.381,-0.006,-0.798,0.403,0.01,3.526
1.568,1.571,0.01,0.381,0.001,-0.806,0.403,0.01,3.531
1.568,1.571,0.01,0.382,0,-0.805,0.403,0.01,3.536
1.568,1.571,0.01,0.382,0,-0.806,0.403,0.01,3.541
1.568,1.571,0.01,0.383,0,-0.806,0.403,0.01,3.546
1.568,1.571,0.01,0.383,0,-0.807,0.403,0.01,3.551
1.568,1.571,0.01,0.384,0,-0.807,0.403,0.01,3.556
1.568,1.571,0.01,0.384,0,-0.807,0.403,0.01,3.561
1.568,1.571,0.01,0.385,0,-0.808,0.403,0.01,3.566
1.568,1.571,0.01,0.385,0,-0.808,0.403,0.01,3.571
1.568,1.571,0.01,0.385,0,-0.809,0.403,0.01,3.576
1.568,1.571,0.01,0.386,0,-0.809,0.403,0.01,3.581
1.568,1.571,0.01,0.386,0,-0.81,0.403,0.01,3.586
1.568,1.571,0.01,0.387,0,-0.81,0.403,0.01,3.591
1.568,1.571,0.01,0.387,0,-0.811,0.403,0.01,3.596
1.568,1.571,0.01,0.388,0,-0.811,0.403,0.01,3.601
1.568,1.571,0.01,0.388,0,-0.812,0.403,0.01,3.606
1.568,1.571,0.01,0.389,0,-0.812,0.403,0.01,3.611
1.569,1.571,0.009,0.389,-0.007,-0.803,0.403,0.009,3.616
1.569,1.571,0.009,0.39,0.001,-0.811,0.403,0.009,3.621
1.569,1.571,0.008,0.39,-0.007,-0.801,0.403,0.008,3.626
1.569,1.571,0.008,0.39,0.001,-0.81,0.403,0.008,3.631
1.569,1.571,0.008,0.391,0,-0.809,0.403,0.008,3.636
1.569,1.571,0.008,0.391,0,-0.809,0.403,0.008,3.641
1.569,1.571,0.008,0.391,0,-0.81,0.403,0.008,3.646
1.569,1.571,0.008,0.392,0,-0.81,0.403,0.008,3.651
1.569,1.571,0.008,0.392,0,-0.81,0.403,0.008,3.656
1.569,1.571,0.008,0.392,0,-0.811,0.403,0.008,3.661
1.569,1.571,0.006,0.393,-0.007,-0.801,0.403,0.006,3.666
1.569,1.571,0.008,0.393,0.008,-0.82,0.403,0.008,3.671
1.569,1.571,0.008,0.393,-0.001,-0.81,0.403,0.008,3.676
1.569,1.571,0.008,0.394,0,-0.812,0.403,0.008,3.681
1.569,1.571,0.008,0.394,0,-0.812,0.403,0.008,3.686
1.569,1.571,0.008,0.394,0,-0.813,0.403,0.008,3.691
1.569,1.571,0.006,0.395,-0.007,-0.803,0.403,0.006,3.696
1.57,1.571,0.005,0.395,-0.006,-0.802,0.403,0.005,3.701
1.57,1.571,0.005,0.395,0.001,-0.809,0.403,0.005,3.706
1.57,1.571,0.005,0.395,0,-0.808,0.403,0.005,3.711
1.57,1.571,0.005,0.396,0,-0.809,0.403,0.005,3.716
1.57,1.571,0.005,0.396,0,-0.809,0.403,0.005,3.721
1.57,1.571,0.005,0.396,0,-0.809,0.403,0.005,3.726
1.57,1.571,0.005,0.396,0,-0.809,0.403,0.005,3.731
1.57,1.571,0.005,0.397,0,-0.81,0.403,0.005,3.736
1.57,1.571,0.005,0.397,0,-0.81,0.403,0.005,3.741
1.57,1.571,0.005,0.397,0,-0.81,0.403,0.005,3.746
1.57,1.571,0.005,0.397,0,-0.81,0.403,0.005,3.751
1.57,1.571,0.004,0.397,-0.007,-0.801,0.403,0.004,3.756
1.57,1.571,0.005,0.398,0.008,-0.819,0.403,0.005,3.761
1.57,1.571,0.004,0.398,-0.008,-0.8,0.403,0.004,3.766
1.57,1.571,0.004,0.398,0.001,-0.81,0.403,0.004,3.771
1.57,1.571,0.005,0.398,0.007,-0.818,0.403,0.005,3.776
1.57,1.571,0.004,0.398,-0.008,-0.801,0.403,0.004,3.781
1.57,1.571,0.004,0.399,0.001,-0.81,0.403,0.004,3.786
1.57,1.571,0.004,0.399,0,-0.809,0.403,0.004,3.791
1.57,1.571,0.004,0.399,0,-0.81,0.403,0.004,3.796
1.57,1.571,0.004,0.399,0,-0.81,0.403,0.004,3.801
1.57,1.571,0.004,0.399,0,-0.81,0.403,0.004,3.806
1.57,1.571,0.004,0.4,0,-0.81,0.403,0.004,3.811
1.57,1.571,0.004,0.4,0,-0.81,0.403,0.004,3.816
1.57,1.571,0.004,0.4,0,-0.81,0.403,0.004,3.821
1.57,1.571,0.004,0.4,0,-0.811,0.403,0.004,3.826
1.57,1.571,0.004,0.4,0,-0.811,0.403,0.004,3.831
1.57,1.571,0.004,0.4,0,-0.811,0.403,0.004,3.836
1.57,1.571,0.004,0.401,0,-0.811,0.403,0.004,3.841
1.57,1.571,0.004,0.401,0,-0.811,0.403,0.004,3.846
1.57,1.571,0.004,0.401,0,-0.811,0.403,0.004,3.851
1.57,1.571,0.004,0.401,0,-0.812,0.403,0.004,3.856
1.57,1.571,0.004,0.401,0,-0.812,0.403,0.004,3.861
1.57,1.571,0.004,0.401,0,-0.812,0.403,0.004,3.866
1.57,1.571,0.004,0.402,0,-0.812,0.403,0.004,3.871
1.57,1.571,0.004,0.402,0,-0.812,0.403,0.004,3.876
1.57,1.571,0.004,0.402,0,-0.813,0.403,0.004,3.881
1.57,1.571,0.004,0.402,0,-0.813,0.403,0.004,3.886
1.57,1.571,0.004,0.402,0,-0.813,0.403,0.004,3.892
1.57,1.571,0.004,0.402,0,-0.813,0.403,0.004,3.897
1.57,1.571,0.004,0.403,0,-0.813,0.403,0.004,3.902
1.57,1.571,0.004,0.403,0,-0.813,0.403,0.004,3.907
1.57,1.571,0.004,0.403,0,-0.814,0.403,0.004,3.912
1.57,1.571,0.004,0.403,0,-0.814,0.403,0.004,3.917
1.57,1.571,0.004,0.403,0,-0.814,0.403,0.004,3.922
1.57,1.571,0.004,0.404,0,-0.814,0.403,0.004,3.927
1.57,1.571,0.004,0.404,0,-0.814,0.403,0.004,3.932
1.57,1.571,0.004,0.404,0,-0.814,0.403,0.004,3.937
1.57,1.571,0.004,0.404,0,-0.815,0.403,0.004,3.942
1.57,1.571,0.004,0.404,0,-0.815,0.403,0.004,3.947
1.57,1.571,0.004,0.404,0,-0.815,0.403,0.004,3.952
1.57,1.571,0.004,0.405,0,-0.815,0.403,0.004,3.957
1.57,1.571,0.004,0.405,0,-0.815,0.403,0.004,3.962
1.57,1.571,0.004,0.405,0,-0.815,0.403,0.004,3.967
1.57,1.571,0.004,0.405,0,-0.816,0.403,0.004,3.972
1.57,1.571,0.004,0.405,0,-0.816,0.403,0.004,3.977
1.57,1.571,0.004,0.405,0,-0.816,0.403,0.004,3.982
1.57,1.571,0.004,0.406,0,-0.816,0.403,0.004,3.987
1.57,1.571,0.004,0.406,0,-0.816,0.403,0.004,3.992
1.57,1.571,0.003,0.406,-0.007,-0.807,0.403,0.003,3.997
1.57,1.571,0.004,0.406,0.008,-0.825,0.403,0.004,4.002
1.57,1.571,0.003,0.406,-0.008,-0.806,0.403,0.003,4.007
1.57,1.571,0.004,0.406,0.009,-0.825,0.403,0.004,4.012
1.57,1.571,0.003,0.407,-0.009,-0.806,0.403,0.003,4.017
1.57,1.571,0.003,0.407,0.001,-0.816,0.403,0.003,4.022
1.57,1.571,0.003,0.407,0,-0.815,0.403,0.003,4.027
1.57,1.571,0.003,0.407,0,-0.815,0.403,0.003,4.032
1.57,1.571,0.003,0.407,0,-0.815,0.403,0.003,4.037
1.57,1.571,0.003,0.407,0,-0.815,0.403,0.003,4.042
1.57,1.571,0.003,0.407,0,-0.815,0.403,0.003,4.047
1.57,1.571,0.003,0.407,0,-0.815,0.403,0.003,4.052
1.57,1.571,0.003,0.407,0,-0.815,0.403,0.003,4.057
1.57,1.571,0.003,0.408,0,-0.816,0.403,0.003,4.062
1.57,1.571,0.003,0.408,0,-0.816,0.403,0.003,4.067
1.57,1.571,0.003,0.408,0,-0.816,0.403,0.003,4.072
1.57,1.571,0.003,0.408,0,-0.816,0.403,0.003,4.077
1.57,1.571,0.003,0.408,0,-0.816,0.403,0.003,4.082
1.57,1.571,0.003,0.408,0,-0.816,0.403,0.003,4.087
1.57,1.571,0.003,0.408,0,-0.816,0.403,0.003,4.092
1.57,1.571,0.003,0.408,0,-0.816,0.403,0.003,4.097
1.57,1.571,0.003,0.409,0,-0.816,0.403,0.003,4.102
1.57,1.571,0.003,0.409,0,-0.817,0.403,0.003,4.107
1.57,1.571,0.003,0.409,0,-0.817,0.403,0.003,4.112
1.57,1.571,0.003,0.409,0,-0.817,0.403,0.003,4.117
1.57,1.571,0.003,0.409,0,-0.817,0.403,0.003,4.122
1.57,1.571,0.003,0.409,0,-0.817,0.403,0.003,4.127
1.57,1.571,0.003,0.409,0,-0.817,0.403,0.003,4.132
1.57,1.571,0.003,0.409,0,-0.817,0.403,0.003,4.137
1.57,1.571,0.003,0.409,0,-0.817,0.403,0.003,4.142
1.57,1.571,0.003,0.41,0,-0.818,0.403,0.003,4.147
1.57,1.571,0.001,0.41,-0.007,-0.808,0.403,0.001,4.152
1.57,1.571,0.001,0.41,0.001,-0.816,0.403,0.001,4.157
1.57,1.571,0.003,0.41,0.007,-0.825,0.403,0.003,4.162
1.57,1.571,0.001,0.41,-0.008,-0.807,0.403,0.001,4.167
1.57,1.571,0.001,0.41,0.001,-0.817,0.403,0.001,4.172
1.57,1.571,0.003,0.41,0.007,-0.825,0.403,0.003,4.177
1.57,1.571,0.001,0.41,-0.008,-0.807,0.403,0.001,4.182
1.57,1.571,0.001,0.41,0.001,-0.817,0.403,0.001,4.187
1.57,1.571,0.001,0.41,0,-0.815,0.403,0.001,4.192
1.57,1.571,0.001,0.41,0,-0.816,0.403,0.001,4.197
1.57,1.571,0.001,0.41,0,-0.816,0.403,0.001,4.202
1.57,1.571,0.001,0.41,0,-0.816,0.403,0.001,4.207
1.57,1.571,0.001,0.41,0,-0.816,0.403,0.001,4.212
1.57,1.571,0.001,0.411,0,-0.816,0.403,0.001,4.217
1.57,1.571,0.001,0.411,0,-0.816,0.403,0.001,4.222
1.57,1.571,0.001,0.411,0,-0.816,0.403,0.001,4.227
1.57,1.571,0.001,0.411,0,-0.816,0.403,0.001,4.232
1.57,1.571,0.001,0.411,0,-0.816,0.403,0.001,4.237
1.57,1.571,0.001,0.411,0,-0.816,0.403,0.001,4.242
1.57,1.571,0.001,0.411,0,-0.816,0.403,0.001,4.247
1.57,1.571,0.001,0.411,0,-0.816,0.403,0.001,4.252
1.57,1.571,0.001,0.411,0,-0.816,0.403,0.001,4.257
1.57,1.571,0.001,0.411,0,-0.816,0.403,0.001,4.262
1.57,1.571,0.001,0.411,0,-0.816,0.403,0.001,4.267
1.57,1.571,0.001,0.411,0,-0.817,0.403,0.001,4.272
1.57,1.571,0.001,0.411,0,-0.817,0.403,0.001,4.277
1.57,1.571,0.001,0.411,0,-0.817,0.403,0.001,4.282
1.57,1.571,0.001,0.411,0,-0.817,0.403,0.001,4.287
1.57,1.571,0.001,0.411,0,-0.817,0.403,0.001,4.292
1.57,1.571,0.001,0.411,0,-0.817,0.403,0.001,4.297
1.57,1.571,0.001,0.412,0,-0.817,0.403,0.001,4.302
1.57,1.571,0.001,0.412,0,-0.817,0.403,0.001,4.307
1.57,1.571,0.001,0.412,0,-0.817,0.403,0.001,4.312
1.57,1.571,0.001,0.412,0,-0.817,0.403,0.001,4.317
1.57,1.571,0.001,0.412,0,-0.817,0.403,0.001,4.322
1.57,1.571,0.001,0.412,0,-0.817,0.403,0.001,4.327
1.57,1.571,0.001,0.412,0,-0.817,0.403,0.001,4.332
1.57,1.571,0.001,0.412,0,-0.817,0.403,0.001,4.337
1.57,1.571,0.001,0.412,0,-0.817,0.403,0.001,4.342
1.57,1.571,0.001,0.412,0,-0.817,0.403,0.001,4.347
1.57,1.571,0.001,0.412,0,-0.817,0.403,0.001,4.352
1.57,1.571,0.001,0.412,0,-0.818,0.403,0.001,4.357
1.57,1.571,0.001,0.412,0,-0.818,0.403,0.001,4.362
1.57,1.571,0.001,0.412,0,-0.818,0.403,0.001,4.367
1.57,1.571,0.001,0.412,0,-0.818,0.403,0.001,4.372
1.57,1.571,0.001,0.412,0,-0.818,0.403,0.001,4.377
1.57,1.571,0.001,0.412,0,-0.818,0.403,0.001,4.382
1.57,1.571,0.001,0.413,0,-0.818,0.403,0.001,4.387
1.57,1.571,0.001,0.413,0,-0.818,0.403,0.001,4.392
1.57,1.571,0.001,0.413,0,-0.818,0.403,0.001,4.397
1.57,1.571,0.001,0.413,0,-0.818,0.403,0.001,4.402
1.57,1.571,0.001,0.413,0,-0.818,0.403,0.001,4.407
1.57,1.571,0.001,0.413,0,-0.818,0.403,0.001,4.412
1.57,1.571,0.001,0.413,0,-0.818,0.403,0.001,4.417
1.57,1.571,0.001,0.413,0,-0.818,0.403,0.001,4.422
1.57,1.571,0.001,0.413,0,-0.818,0.403,0.001,4.427
1.57,1.571,0.001,0.413,0,-0.818,0.403,0.001,4.432
1.57,1.571,0.001,0.413,0,-0.818,0.403,0.001,4.437
1.57,1.571,0.001,0.413,0,-0.819,0.403,0.001,4.442
1.57,1.571,0.001,0.413,0,-0.819,0.403,0.001,4.447
1.57,1.571,0.001,0.413,0,-0.819,0.403,0.001,4.452
1.57,1.571,0.001,0.413,0,-0.819,0.403,0.001,4.457
1.57,1.571,0.001,0.413,0,-0.819,0.403,0.001,4.462
1.57,1.571,0.001,0.413,0,-0.819,0.403,0.001,4.467
1.57,1.571,0.001,0.414,0,-0.819,0.403,0.001,4.472
1.57,1.571,0.001,0.414,0,-0.819,0.403,0.001,4.478
1.57,1.571,0.001,0.414,0,-0.819,0.403,0.001,4.483
1.57,1.571,0.001,0.414,0,-0.819,0.403,0.001,4.488
1.57,1.571,0.001,0.414,0,-0.819,0.403,0.001,4.493
1.57,1.571,0.001,0.414,0,-0.819,0.403,0.001,4.498
1.57,1.571,0.001,0.414,0,-0.819,0.403,0.001,4.503
1.57,1.571,0.001,0.414,0,-0.819,0.403,0.001,4.508
1.57,1.571,0.001,0.414,0,-0.819,0.403,0.001,4.513
1.57,1.571,0.001,0.414,0,-0.819,0.403,0.001,4.518
1.57,1.571,0.001,0.414,0,-0.819,0.403,0.001,4.523
1.57,1.571,0.001,0.414,0,-0.82,0.403,0.001,4.528
1.57,1.571,0.001,0.414,0,-0.82,0.403,0.001,4.533
1.57,1.571,0.001,0.414,0,-0.82,0.403,0.001,4.538
1.571,1.571,0,0.414,-0.007,-0.81,0.403,0,4.543
1.57,1.571,0.001,0.414,0.008,-0.828,0.403,0.001,4.548
1.57,1.571,0.001,0.414,-0.001,-0.819,0.403,0.001,4.553
1.57,1.571,0.001,0.414,0,-0.82,0.403,0.001,4.558
1.57,1.571,0.001,0.414,0,-0.82,0.403,0.001,4.563
1.57,1.571,0.001,0.415,0,-0.82,0.403,0.001,4.568
1.57,1.571,0.001,0.415,0,-0.82,0.403,0.001,4.573
1.57,1.571,0.001,0.415,0,-0.82,0.403,0.001,4.578
1.571,1.571,0,0.415,-0.007,-0.81,0.403,0,4.583
1.571,1.571,0,0.415,0.001,-0.819,0.403,0,4.588
1.571,1.571,0,0.415,0,-0.817,0.403,0,4.593
1.571,1.571,0,0.415,0,-0.818,0.403,0,4.598
1.571,1.571,0,0.415,0,-0.817,0.403,0,4.603
1.571,1.571,0,0.415,0,-0.817,0.403,0,4.608
1.57,1.571,0.001,0.415,0.007,-0.827,0.403,0.001,4.613
1.571,1.571,0,0.415,-0.008,-0.809,0.403,0,4.618
1.571,1.571,0,0.415,0.001,-0.819,0.403,0,4.623
1.571,1.571,0,0.415,0,-0.817,0.403,0,4.628
1.571,1.571,0,0.415,0,-0.818,0.403,0,4.633
1.571,1.571,0,0.415,0,-0.818,0.403,0,4.638
1.571,1.571,0,0.415,0,-0.818,0.403,0,4.643
1.571,1.571,0,0.415,0,-0.818,0.403,0,4.648
1.571,1.571,0,0.415,0,-0.818,0.403,0,4.653
1.571,1.571,0,0.415,0,-0.818,0.403,0,4.658
1.571,1.571,0,0.415,0,-0.818,0.403,0,4.663
1.571,1.571,0,0.415,0,-0.818,0.403,0,4.668
1.571,1.571,0,0.415,0,-0.818,0.403,0,4.673
1.571,1.571,0,0.415,0,-0.818,0.403,0,4.678
1.571,1.571,0,0.415,0,-0.818,0.403,0,4.683
1.571,1.571,0,0.415,0,-0.818,0.403,0,4.688
1.571,1.571,0,0.415,0,-0.818,0.403,0,4.693
1.571,1.571,0,0.415,0,-0.818,0.403,0,4.698
1.571,1.571,0,0.415,0,-0.818,0.403,0,4.703
1.571,1.571,0,0.415,0,-0.818,0.403,0,4.708
1.571,1.571,0,0.415,0,-0.818,0.403,0,4.713
1.571,1.571,0,0.415,0,-0.818,0.403,0,4.718
1.571,1.571,0,0.415,0,-0.818,0.403,0,4.723
1.571,1.571,0,0.415,0,-0.818,0.403,0,4.728
1.571,1.571,0,0.415,0,-0.818,0.403,0,4.733
1.571,1.571,0,0.415,0,-0.818,0.403,0,4.738
1.571,1.571,0,0.415,0,-0.818,0.403,0,4.743
1.571,1.571,0,0.415,0,-0.818,0.403,0,4.748
1.571,1.571,0,0.415,0,-0.818,0.403,0,4.753
1.571,1.571,0,0.415,0,-0.818,0.403,0,4.758
1.571,1.571,0,0.415,0,-0.818,0.403,0,4.763
1.571,1.571,0,0.415,0,-0.818,0.403,0,4.768
1.571,1.571,0,0.415,0,-0.818,0.403,0,4.773
1.571,1.571,0,0.415,0,-0.818,0.403,0,4.778
1.571,1.571,0,0.415,0,-0.818,0.403,0,4.783
1.571,1.571,0,0.415,0,-0.818,0.403,0,4.788
1.571,1.571,0,0.415,0,-0.818,0.403,0,4.793
1.571,1.571,0,0.415,0,-0.818,0.403,0,4.798
1.571,1.571,0,0.415,0,-0.818,0.403,0,4.803
1.571,1.571,0,0.415,0,-0.818,0.403,0,4.808
1.571,1.571,0,0.415,0,-0.818,0.403,0,4.813
1.571,1.571,0,0.415,0,-0.818,0.403,0,4.818
1.571,1.571,0,0.415,0,-0.818,0.403,0,4.823
1.571,1.571,0,0.415,0,-0.818,0.403,0,4.828
1.571,1.571,0,0.415,0,-0.818,0.403,0,4.833
1.571,1.571,0,0.415,0,-0.818,0.403,0,4.838
1.571,1.571,0,0.415,0,-0.818,0.403,0,4.843
1.571,1.571,0,0.415,0,-0.818,0.403,0,4.848
1.571,1.571,0,0.415,0,-0.818,0.403,0,4.853
1.571,1.571,0,0.415,0,-0.818,0.403,0,4.858
1.571,1.571,0,0.415,0,-0.818,0.403,0,4.863
1.571,1.571,0,0.415,0,-0.818,0.403,0,4.868
1.571,1.571,0,0.415,0,-0.818,0.403,0,4.873
1.571,1.571,0,0.415,0,-0.818,0.403,0,4.878
1.571,1.571,0,0.415,0,-0.818,0.403,0,4.883
1.571,1.571,0,0.415,0,-0.818,0.403,0,4.888
1.571,1.571,0,0.415,0,-0.818,0.403,0,4.893
1.571,1.571,0,0.415,0,-0.818,0.403,0,4.898
1.571,1.571,0,0.415,0,-0.818,0.403,0,4.903
1.571,1.571,0,0.415,0,-0.818,0.403,0,4.908
1.571,1.571,0,0.415,0,-0.818,0.403,0,4.913
1.571,1.571,0,0.415,0,-0.818,0.403,0,4.918
1.571,1.571,0,0.415,0,-0.818,0.403,0,4.923
1.571,1.571,0,0.415,0,-0.818,0.403,0,4.928
1.571,1.571,0,0.415,0,-0.818,0.403,0,4.933
1.571,1.571,0,0.415,0,-0.818,0.403,0,4.938
1.571,1.571,0,0.415,0,-0.818,0.403,0,4.943
1.571,1.571,0,0.415,0,-0.818,0.403,0,4.948
1.571,1.571,0,0.415,0,-0.818,0.403,0,4.953
1.571,1.571,0,0.415,0,-0.818,0.403,0,4.958
1.571,1.571,0,0.415,0,-0.818,0.403,0,4.963
1.571,1.571,0,0.415,0,-0.818,0.403,0,4.968
1.571,1.571,0,0.415,0,-0.818,0.403,0,4.973
1.571,1.571,0,0.415,0,-0.818,0.403,0,4.978
1.571,1.571,0,0.415,0,-0.818,0.403,0,4.983
1.571,1.571,0,0.415,0,-0.818,0.403,0,4.988
1.571,1.571,0,0.415,0,-0.818,0.403,0,4.993
1.571,1.571,0,0.415,0,-0.818,0.403,0,4.998
1.571,1.571,0,0.415,0,-0.818,0.403,0,5.003
