theta,reference,proportional,integral,derivative,dutycycle,g_comp,f_comp,time
-0.004,-1.571,-6.581,-0.299,-36.823,1,-0.002,-0.21,0
-0.006,-1.571,-6.57,-0.299,5.581,1,-0.003,-0.21,0.005
-0.021,-1.571,-6.508,-0.299,-0.49,1,-0.009,-0.21,0.01
-0.026,-1.571,-6.488,-0.299,0.189,1,-0.011,-0.21,0.015
-0.034,-1.571,-6.454,-0.299,0.16,1,-0.014,-0.21,0.02
-0.055,-1.571,-6.365,-0.299,0.475,1,-0.022,-0.21,0.025
-0.07,-1.571,-6.302,-0.299,0.283,1,-0.028,-0.21,0.03
-0.094,-1.571,-6.204,-0.299,0.507,1,-0.038,-0.21,0.035
-0.123,-1.571,-6.082,-0.299,0.611,1,-0.049,-0.21,0.04
-0.148,-1.571,-5.974,-0.299,0.516,1,-0.06,-0.21,0.045
-0.185,-1.571,-5.82,-0.299,0.783,1,-0.074,-0.21,0.05
-0.22,-1.571,-5.675,-0.299,0.699,1,-0.088,-0.21,0.055
-0.258,-1.571,-5.514,-0.299,0.799,1,-0.103,-0.21,0.06
-0.303,-1.571,-5.324,-0.299,0.943,1,-0.12,-0.21,0.065
-0.345,-1.571,-5.148,-0.299,0.849,1,-0.136,-0.21,0.07
-0.395,-1.571,-4.936,-0.299,1.058,1,-0.155,-0.21,0.075
-0.445,-1.571,-4.73,-0.299,0.998,1,-0.173,-0.21,0.08
-0.496,-1.571,-4.514,-0.299,1.065,1,-0.192,-0.21,0.085
-0.553,-1.571,-4.274,-0.299,1.185,1,-0.212,-0.21,0.09
-0.608,-1.571,-4.042,-0.299,1.123,1,-0.23,-0.21,0.095
-0.67,-1.571,-3.783,-0.299,1.284,1,-0.25,-0.21,0.1
-0.733,-1.571,-3.519,-0.299,1.289,1,-0.27,-0.21,0.105
-0.799,-1.571,-3.243,-0.299,1.354,1,-0.289,-0.21,0.11
-0.871,-1.571,-2.939,-0.299,1.503,1,-0.308,-0.21,0.115
-0.939,-1.571,-2.653,-0.299,1.379,1,-0.325,-0.21,0.12
-1.012,-1.571,-2.346,-0.299,1.514,1,-0.342,-0.21,0.125
-1.085,-1.571,-2.04,-0.299,1.493,1,-0.356,-0.21,0.13
-1.157,-1.571,-1.74,-0.299,1.46,1,-0.369,-0.21,0.135
-1.232,-1.571,-1.424,-0.299,1.552,0.761,-0.38,-0.21,0.14
-1.309,-1.571,-1.098,-0.349,1.596,0.45,-0.389,-0.21,0.145
-1.387,-1.571,-0.773,-0.384,1.582,0.181,-0.396,-0.21,0.15
-1.461,-1.571,-0.46,-0.405,1.519,-0.044,-0.4,-0.21,0.155
-1.534,-1.571,-0.155,-0.412,1.485,-0.361,-0.403,-0.155,0.16
-1.6,-1.571,0.124,-0.406,1.339,-0.777,-0.403,0.124,0.165
-1.659,-1.571,0.37,-0.39,1.18,-0.969,-0.401,0.21,0.17
-1.695,-1.571,0.523,-0.366,0.683,-0.651,-0.4,0.21,0.175
-1.707,-1.571,0.572,-0.34,0.172,-0.215,-0.399,0.21,0.18
-1.701,-1.571,0.549,-0.315,-0.156,0.111,-0.399,0.21,0.185
-1.75,-1.571,0.751,-0.281,1.158,-1,-0.396,0.21,0.19
-1.836,-1.571,1.115,-0.281,1.865,-1,-0.389,0.21,0.195
-1.894,-1.571,1.359,-0.281,1.094,-1,-0.382,0.21,0.2
-1.92,-1.571,1.465,-0.281,0.429,-1,-0.379,0.21,0.205
-1.917,-1.571,1.453,-0.281,-0.129,-0.874,-0.379,0.21,0.21
-1.924,-1.571,1.484,-0.213,0.193,-1,-0.378,0.21,0.215
-1.974,-1.571,1.693,-0.213,1.142,-1,-0.371,0.21,0.22
-2.001,-1.571,1.807,-0.213,0.465,-1,-0.366,0.21,0.225
-2,-1.571,1.801,-0.213,-0.099,-1,-0.366,0.21,0.23
-1.985,-1.571,1.741,-0.213,-0.325,-1,-0.369,0.21,0.235
-1.998,-1.571,1.792,-0.213,0.338,-1,-0.367,0.21,0.24
-1.999,-1.571,1.8,-0.213,-0.007,-1,-0.366,0.21,0.245
-1.979,-1.571,1.712,-0.213,-0.49,-0.849,-0.37,0.21,0.25
-1.966,-1.571,1.66,-0.138,-0.223,-1,-0.372,0.21,0.255
-1.954,-1.571,1.608,-0.138,-0.256,-1,-0.374,0.21,0.26
-1.925,-1.571,1.487,-0.138,-0.641,-0.54,-0.378,0.21,0.265
-1.9,-1.571,1.381,-0.075,-0.497,-0.638,-0.381,0.21,0.27
-1.874,-1.571,1.274,-0.017,-0.525,-0.557,-0.384,0.21,0.275
-1.839,-1.571,1.125,0.034,-0.76,-0.221,-0.388,0.21,0.28
-1.807,-1.571,0.991,0.079,-0.638,-0.25,-0.392,0.21,0.285
-1.776,-1.571,0.863,0.118,-0.62,-0.177,-0.394,0.21,0.29
-1.744,-1.571,0.727,0.151,-0.673,-0.018,-0.397,0.21,0.296
-1.708,-1.571,0.575,0.177,-0.752,0.189,-0.399,0.21,0.301
-1.671,-1.571,0.421,0.197,-0.747,0.32,-0.401,0.21,0.306
-1.639,-1.571,0.285,0.21,-0.654,0.352,-0.402,0.21,0.311
-1.615,-1.571,0.186,0.218,-0.458,0.272,-0.402,0.186,0.316
-1.601,-1.571,0.128,0.224,-0.257,0.18,-0.403,0.128,0.321
-1.593,-1.571,0.091,0.228,-0.164,0.156,-0.403,0.091,0.326
-1.584,-1.571,0.057,0.23,-0.171,0.23,-0.403,0.057,0.331
-1.571,-1.571,0.003,0.231,-0.278,0.445,-0.403,0.003,0.336
-1.536,-1.571,-0.147,0.224,-0.797,1,-0.403,-0.147,0.341
-1.489,-1.571,-0.345,0.224,-0.994,1,-0.401,-0.21,0.346
-1.462,-1.571,-0.456,0.224,-0.473,1,-0.4,-0.21,0.351
-1.432,-1.571,-0.585,0.224,-0.652,1,-0.399,-0.21,0.356
-1.398,-1.571,-0.724,0.224,-0.683,1,-0.397,-0.21,0.361
-1.377,-1.571,-0.813,0.224,-0.396,1,-0.395,-0.21,0.366
-1.355,-1.571,-0.907,0.224,-0.468,1,-0.393,-0.21,0.371
-1.337,-1.571,-0.983,0.224,-0.356,1,-0.392,-0.21,0.376
-1.324,-1.571,-1.039,0.224,-0.257,1,-0.391,-0.21,0.381
-1.313,-1.571,-1.084,0.224,-0.214,1,-0.389,-0.21,0.386
-1.305,-1.571,-1.116,0.224,-0.149,1,-0.389,-0.21,0.391
-1.3,-1.571,-1.136,0.224,-0.093,1,-0.388,-0.21,0.396
-1.301,-1.571,-1.133,0.224,0.036,1,-0.388,-0.21,0.401
-1.303,-1.571,-1.125,0.224,0.038,1,-0.388,-0.21,0.406
-1.308,-1.571,-1.102,0.224,0.124,1,-0.389,-0.21,0.411
-1.317,-1.571,-1.064,0.224,0.191,1,-0.39,-0.21,0.416
-1.328,-1.571,-1.021,0.224,0.217,1,-0.391,-0.21,0.421
-1.342,-1.571,-0.963,0.224,0.293,1,-0.392,-0.21,0.426
-1.358,-1.571,-0.894,0.224,0.339,0.935,-0.394,-0.21,0.431
-1.376,-1.571,-0.818,0.187,0.376,0.861,-0.395,-0.21,0.436
-1.397,-1.571,-0.732,0.153,0.428,0.757,-0.397,-0.21,0.441
-1.42,-1.571,-0.635,0.125,0.478,0.641,-0.398,-0.21,0.446
-1.444,-1.571,-0.532,0.1,0.507,0.535,-0.4,-0.21,0.451
-1.469,-1.571,-0.427,0.081,0.517,0.439,-0.401,-0.21,0.456
-1.496,-1.571,-0.314,0.067,0.551,0.308,-0.402,-0.21,0.461
-1.522,-1.571,-0.206,0.057,0.525,0.233,-0.402,-0.206,0.466
-1.545,-1.571,-0.107,0.052,0.478,0.086,-0.403,-0.107,0.471
-1.569,-1.571,-0.006,0.052,0.492,-0.129,-0.403,-0.006,0.476
-1.59,-1.571,0.079,0.056,0.403,-0.213,-0.403,0.079,0.481
-1.606,-1.571,0.148,0.062,0.33,-0.286,-0.403,0.148,0.486
-1.623,-1.571,0.218,0.072,0.341,-0.439,-0.402,0.21,0.491
-1.636,-1.571,0.274,0.085,0.267,-0.434,-0.402,0.21,0.496
-1.645,-1.571,0.313,0.099,0.177,-0.397,-0.402,0.21,0.501
-1.645,-1.571,0.313,0.113,-0.027,-0.208,-0.402,0.21,0.506
-1.64,-1.571,0.291,0.127,-0.119,-0.107,-0.402,0.21,0.511
-1.636,-1.571,0.276,0.139,-0.069,-0.154,-0.402,0.21,0.516
-1.636,-1.571,0.276,0.152,0.01,-0.246,-0.402,0.21,0.521
-1.639,-1.571,0.286,0.165,0.056,-0.315,-0.402,0.21,0.526
-1.639,-1.571,0.287,0.178,-0.001,-0.272,-0.402,0.21,0.531
-1.636,-1.571,0.276,0.19,-0.065,-0.209,-0.402,0.21,0.536
-1.636,-1.571,0.276,0.203,0.01,-0.296,-0.402,0.21,0.541
-1.628,-1.571,0.242,0.214,-0.189,-0.074,-0.402,0.21,0.546
-1.622,-1.571,0.214,0.224,-0.131,-0.114,-0.402,0.21,0.551
-1.616,-1.571,0.189,0.232,-0.118,-0.091,-0.402,0.189,0.556
-1.607,-1.571,0.153,0.239,-0.185,0.042,-0.403,0.153,0.561
-1.597,-1.571,0.112,0.244,-0.204,0.138,-0.403,0.112,0.566
-1.587,-1.571,0.07,0.247,-0.208,0.224,-0.403,0.07,0.571
-1.576,-1.571,0.023,0.248,-0.229,0.337,-0.403,0.023,0.576
-1.566,-1.571,-0.019,0.248,-0.204,0.398,-0.403,-0.019,0.581
-1.559,-1.571,-0.048,0.245,-0.128,0.381,-0.403,-0.048,0.586
-1.56,-1.571,-0.046,0.243,0.026,0.226,-0.403,-0.046,0.591
-1.564,-1.571,-0.028,0.242,0.097,0.12,-0.403,-0.028,0.596
-1.566,-1.571,-0.021,0.241,0.029,0.174,-0.403,-0.021,0.601
-1.554,-1.571,-0.07,0.238,-0.279,0.583,-0.403,-0.07,0.606
-1.536,-1.571,-0.146,0.231,-0.385,0.847,-0.403,-0.146,0.611
-1.53,-1.571,-0.17,0.224,-0.08,0.599,-0.402,-0.17,0.616
-1.524,-1.571,-0.196,0.215,-0.133,0.712,-0.402,-0.196,0.621
-1.511,-1.571,-0.251,0.203,-0.291,0.951,-0.402,-0.21,0.626
-1.508,-1.571,-0.264,0.191,-0.029,0.714,-0.402,-0.21,0.631
-1.505,-1.571,-0.274,0.179,-0.054,0.761,-0.402,-0.21,0.636
-1.501,-1.571,-0.291,0.165,-0.086,0.824,-0.402,-0.21,0.641
-1.505,-1.571,-0.277,0.153,0.092,0.644,-0.402,-0.21,0.646
-1.507,-1.571,-0.267,0.141,0.044,0.694,-0.402,-0.21,0.651
-1.511,-1.571,-0.25,0.129,0.087,0.645,-0.402,-0.21,0.656
-1.518,-1.571,-0.222,0.119,0.146,0.569,-0.402,-0.21,0.661
-1.526,-1.571,-0.187,0.111,0.173,0.492,-0.402,-0.187,0.666
-1.536,-1.571,-0.148,0.104,0.191,0.404,-0.403,-0.148,0.671
-1.544,-1.571,-0.112,0.099,0.174,0.354,-0.403,-0.112,0.676
-1.554,-1.571,-0.071,0.096,0.205,0.243,-0.403,-0.071,0.681
-1.563,-1.571,-0.032,0.094,0.186,0.187,-0.403,-0.032,0.686
-1.57,-1.571,-0.001,0.094,0.146,0.166,-0.403,-0.001,0.691
-1.577,-1.571,0.027,0.095,0.137,0.116,-0.403,0.027,0.696
-1.583,-1.571,0.052,0.098,0.117,0.085,-0.403,0.052,0.701
-1.588,-1.571,0.071,0.101,0.091,0.069,-0.403,0.071,0.706
-1.591,-1.571,0.084,0.105,0.059,0.072,-0.403,0.084,0.711
-1.592,-1.571,0.088,0.109,0.013,0.106,-0.403,0.088,0.716
-1.591,-1.571,0.086,0.113,-0.009,0.126,-0.403,0.086,0.721
-1.591,-1.571,0.084,0.117,-0.013,0.132,-0.403,0.084,0.726
-1.588,-1.571,0.072,0.12,-0.063,0.202,-0.403,0.072,0.731
-1.584,-1.571,0.055,0.122,-0.085,0.254,-0.403,0.055,0.736
-1.58,-1.571,0.039,0.124,-0.081,0.283,-0.403,0.039,0.741
-1.575,-1.571,0.019,0.125,-0.096,0.335,-0.403,0.019,0.746
-1.57,-1.571,-0.001,0.125,-0.101,0.382,-0.403,-0.001,0.751
-1.566,-1.571,-0.022,0.124,-0.1,0.423,-0.403,-0.022,0.756
-1.561,-1.571,-0.041,0.122,-0.093,0.457,-0.403,-0.041,0.761
-1.558,-1.571,-0.055,0.12,-0.066,0.46,-0.403,-0.055,0.766
-1.555,-1.571,-0.067,0.116,-0.055,0.476,-0.403,-0.067,0.771
-1.553,-1.571,-0.076,0.113,-0.042,0.484,-0.403,-0.076,0.776
-1.552,-1.571,-0.08,0.109,-0.015,0.468,-0.403,-0.08,0.781
-1.552,-1.571,-0.08,0.106,0.002,0.454,-0.403,-0.08,0.786
-1.552,-1.571,-0.077,0.102,0.014,0.441,-0.403,-0.077,0.791
-1.554,-1.571,-0.071,0.099,0.034,0.411,-0.403,-0.071,0.796
-1.555,-1.571,-0.064,0.096,0.031,0.404,-0.403,-0.064,0.801
-1.557,-1.571,-0.057,0.094,0.039,0.384,-0.403,-0.057,0.806
-1.559,-1.571,-0.048,0.091,0.045,0.362,-0.403,-0.048,0.811
-1.562,-1.571,-0.039,0.09,0.044,0.347,-0.403,-0.039,0.816
-1.563,-1.571,-0.034,0.088,0.022,0.359,-0.403,-0.034,0.821
-1.564,-1.571,-0.027,0.087,0.033,0.337,-0.403,-0.027,0.826
-1.566,-1.571,-0.021,0.086,0.031,0.327,-0.403,-0.021,0.831
-1.566,-1.571,-0.019,0.085,0.003,0.354,-0.403,-0.019,0.836
-1.567,-1.571,-0.018,0.084,0.007,0.348,-0.403,-0.018,0.841
-1.567,-1.571,-0.017,0.083,0.006,0.347,-0.403,-0.017,0.846
-1.567,-1.571,-0.017,0.083,-0.001,0.355,-0.403,-0.017,0.851
-1.567,-1.571,-0.017,0.082,0,0.354,-0.403,-0.017,0.856
-1.567,-1.571,-0.018,0.081,-0.007,0.365,-0.403,-0.018,0.861
-1.567,-1.571,-0.018,0.08,0.001,0.358,-0.403,-0.018,0.866
-1.567,-1.571,-0.018,0.079,0,0.36,-0.403,-0.018,0.871
-1.567,-1.571,-0.018,0.079,0,0.36,-0.403,-0.018,0.876
-1.567,-1.571,-0.018,0.078,0,0.361,-0.403,-0.018,0.882
-1.567,-1.571,-0.018,0.077,0,0.362,-0.403,-0.018,0.887
-1.567,-1.571,-0.018,0.076,0,0.363,-0.403,-0.018,0.892
-1.567,-1.571,-0.018,0.075,0,0.364,-0.403,-0.018,0.897
-1.567,-1.571,-0.018,0.075,0,0.364,-0.403,-0.018,0.902
-1.567,-1.571,-0.018,0.074,0,0.365,-0.403,-0.018,0.907
-1.567,-1.571,-0.018,0.073,0,0.366,-0.403,-0.018,0.912
-1.567,-1.571,-0.018,0.072,0,0.367,-0.403,-0.018,0.917
-1.567,-1.571,-0.018,0.071,0,0.368,-0.403,-0.018,0.922
-1.567,-1.571,-0.018,0.07,0,0.368,-0.403,-0.018,0.927
-1.567,-1.571,-0.018,0.07,0,0.369,-0.403,-0.018,0.932
-1.567,-1.571,-0.018,0.069,0,0.37,-0.403,-0.018,0.937
-1.567,-1.571,-0.018,0.068,0,0.371,-0.403,-0.018,0.942
-1.567,-1.571,-0.018,0.067,0,0.372,-0.403,-0.018,0.947
-1.567,-1.571,-0.018,0.066,0,0.373,-0.403,-0.018,0.952
-1.567,-1.571,-0.018,0.066,0,0.373,-0.403,-0.018,0.957
-1.567,-1.571,-0.018,0.065,0,0.374,-0.403,-0.018,0.962
-1.567,-1.571,-0.018,0.064,0,0.375,-0.403,-0.018,0.967
-1.567,-1.571,-0.018,0.063,0,0.376,-0.403,-0.018,0.972
-1.567,-1.571,-0.017,0.062,0.007,0.367,-0.403,-0.017,0.977
-1.567,-1.571,-0.017,0.062,-0.001,0.376,-0.403,-0.017,0.982
-1.567,-1.571,-0.018,0.061,-0.007,0.385,-0.403,-0.018,0.987
-1.567,-1.571,-0.018,0.06,0.001,0.378,-0.403,-0.018,0.992
-1.567,-1.571,-0.018,0.059,0,0.38,-0.403,-0.018,0.997
-1.567,-1.571,-0.018,0.058,0,0.381,-0.403,-0.018,1.002
-1.567,-1.571,-0.017,0.058,0.007,0.372,-0.403,-0.017,1.007
-1.567,-1.571,-0.018,0.057,-0.008,0.391,-0.403,-0.018,1.012
-1.567,-1.571,-0.017,0.056,0.008,0.372,-0.403,-0.017,1.017
-1.567,-1.571,-0.017,0.055,-0.001,0.382,-0.403,-0.017,1.022
-1.567,-1.571,-0.017,0.054,0,0.382,-0.403,-0.017,1.027
-1.567,-1.571,-0.018,0.054,-0.007,0.393,-0.403,-0.018,1.032
-1.567,-1.571,-0.017,0.053,0.008,0.375,-0.403,-0.017,1.037
-1.567,-1.571,-0.017,0.052,-0.001,0.385,-0.403,-0.017,1.042
-1.567,-1.571,-0.017,0.051,0,0.385,-0.403,-0.017,1.047
-1.567,-1.571,-0.017,0.051,0,0.386,-0.403,-0.017,1.052
-1.567,-1.571,-0.017,0.05,0,0.387,-0.403,-0.017,1.057
-1.567,-1.571,-0.017,0.049,0,0.387,-0.403,-0.017,1.062
-1.567,-1.571,-0.017,0.048,0,0.388,-0.403,-0.017,1.067
-1.567,-1.571,-0.017,0.048,0,0.389,-0.403,-0.017,1.072
-1.567,-1.571,-0.017,0.047,0,0.39,-0.403,-0.017,1.077
-1.567,-1.571,-0.017,0.046,0,0.39,-0.403,-0.017,1.082
-1.567,-1.571,-0.017,0.045,0,0.391,-0.403,-0.017,1.087
-1.567,-1.571,-0.017,0.044,0,0.392,-0.403,-0.017,1.092
-1.567,-1.571,-0.017,0.044,0,0.393,-0.403,-0.017,1.097
-1.567,-1.571,-0.017,0.043,0,0.393,-0.403,-0.017,1.102
-1.567,-1.571,-0.017,0.042,0,0.394,-0.403,-0.017,1.107
-1.567,-1.571,-0.017,0.041,0,0.395,-0.403,-0.017,1.112
-1.567,-1.571,-0.017,0.041,0,0.396,-0.403,-0.017,1.117
-1.567,-1.571,-0.017,0.04,0,0.396,-0.403,-0.017,1.122
-1.567,-1.571,-0.017,0.039,0,0.397,-0.403,-0.017,1.127
-1.567,-1.571,-0.017,0.038,0,0.398,-0.403,-0.017,1.132
-1.567,-1.571,-0.017,0.038,0,0.399,-0.403,-0.017,1.137
-1.567,-1.571,-0.017,0.037,0,0.399,-0.403,-0.017,1.142
-1.567,-1.571,-0.017,0.036,0,0.4,-0.403,-0.017,1.147
-1.567,-1.571,-0.017,0.035,0,0.401,-0.403,-0.017,1.152
-1.567,-1.571,-0.017,0.035,0,0.402,-0.403,-0.017,1.157
-1.567,-1.571,-0.017,0.034,0,0.403,-0.403,-0.017,1.162
-1.567,-1.571,-0.015,0.033,0.007,0.393,-0.403,-0.015,1.167
-1.567,-1.571,-0.017,0.032,-0.008,0.412,-0.403,-0.017,1.172
-1.567,-1.571,-0.015,0.032,0.008,0.394,-0.403,-0.015,1.177
-1.567,-1.571,-0.015,0.031,-0.001,0.404,-0.403,-0.015,1.182
-1.567,-1.571,-0.015,0.03,0,0.403,-0.403,-0.015,1.187
-1.567,-1.571,-0.015,0.03,0,0.404,-0.403,-0.015,1.192
-1.567,-1.571,-0.015,0.029,0,0.405,-0.403,-0.015,1.197
-1.567,-1.571,-0.014,0.028,0.007,0.396,-0.403,-0.014,1.202
-1.567,-1.571,-0.014,0.028,-0.001,0.405,-0.403,-0.014,1.207
-1.567,-1.571,-0.014,0.027,0,0.404,-0.403,-0.014,1.212
-1.567,-1.571,-0.014,0.026,0,0.405,-0.403,-0.014,1.217
-1.567,-1.571,-0.014,0.026,0,0.406,-0.403,-0.014,1.222
-1.567,-1.571,-0.014,0.025,0,0.406,-0.403,-0.014,1.227
-1.567,-1.571,-0.014,0.024,0,0.407,-0.403,-0.014,1.232
-1.567,-1.571,-0.014,0.024,0,0.407,-0.403,-0.014,1.237
-1.568,-1.571,-0.013,0.023,0.007,0.398,-0.403,-0.013,1.242
-1.568,-1.571,-0.013,0.022,-0.001,0.407,-0.403,-0.013,1.247
-1.568,-1.571,-0.013,0.022,0,0.407,-0.403,-0.013,1.252
-1.568,-1.571,-0.013,0.021,0,0.407,-0.403,-0.013,1.257
-1.568,-1.571,-0.013,0.021,0,0.408,-0.403,-0.013,1.262
-1.568,-1.571,-0.013,0.02,0,0.408,-0.403,-0.013,1.267
-1.568,-1.571,-0.013,0.02,0,0.409,-0.403,-0.013,1.272
-1.568,-1.571,-0.012,0.019,0.007,0.4,-0.403,-0.012,1.277
-1.568,-1.571,-0.012,0.019,-0.001,0.409,-0.403,-0.012,1.282
-1.568,-1.571,-0.012,0.018,0,0.408,-0.403,-0.012,1.287
-1.568,-1.571,-0.012,0.017,0,0.409,-0.403,-0.012,1.292
-1.568,-1.571,-0.012,0.017,0,0.409,-0.403,-0.012,1.297
-1.568,-1.571,-0.012,0.016,0,0.41,-0.403,-0.012,1.302
-1.568,-1.571,-0.01,0.016,0.007,0.4,-0.403,-0.01,1.307
-1.568,-1.571,-0.01,0.015,-0.001,0.409,-0.403,-0.01,1.312
-1.568,-1.571,-0.01,0.015,0,0.408,-0.403,-0.01,1.317
-1.568,-1.571,-0.01,0.015,0,0.409,-0.403,-0.01,1.322
-1.568,-1.571,-0.01,0.014,0,0.409,-0.403,-0.01,1.327
-1.568,-1.571,-0.01,0.014,0,0.41,-0.403,-0.01,1.332
-1.568,-1.571,-0.01,0.013,0,0.41,-0.403,-0.01,1.337
-1.568,-1.571,-0.01,0.013,0,0.411,-0.403,-0.01,1.342
-1.568,-1.571,-0.01,0.012,0,0.411,-0.403,-0.01,1.347
-1.568,-1.571,-0.01,0.012,0,0.412,-0.403,-0.01,1.352
-1.568,-1.571,-0.01,0.011,0,0.412,-0.403,-0.01,1.357
-1.568,-1.571,-0.01,0.011,0,0.413,-0.403,-0.01,1.362
-1.569,-1.571,-0.009,0.01,0.007,0.403,-0.403,-0.009,1.367
-1.569,-1.571,-0.009,0.01,-0.001,0.412,-0.403,-0.009,1.372
-1.569,-1.571,-0.009,0.01,0,0.411,-0.403,-0.009,1.377
-1.569,-1.571,-0.009,0.009,0,0.412,-0.403,-0.009,1.382
-1.569,-1.571,-0.009,0.009,0,0.412,-0.403,-0.009,1.387
-1.569,-1.571,-0.009,0.008,0,0.413,-0.403,-0.009,1.392
-1.569,-1.571,-0.009,0.008,0,0.413,-0.403,-0.009,1.397
-1.569,-1.571,-0.009,0.007,0,0.413,-0.403,-0.009,1.402
-1.569,-1.571,-0.009,0.007,0,0.414,-0.403,-0.009,1.407
-1.569,-1.571,-0.009,0.007,0,0.414,-0.403,-0.009,1.412
-1.569,-1.571,-0.009,0.006,0,0.415,-0.403,-0.009,1.417
-1.569,-1.571,-0.009,0.006,0,0.415,-0.403,-0.009,1.422
-1.569,-1.571,-0.009,0.005,0,0.415,-0.403,-0.009,1.427
-1.569,-1.571,-0.009,0.005,0,0.416,-0.403,-0.009,1.432
-1.569,-1.571,-0.008,0.005,0.007,0.406,-0.403,-0.008,1.437
-1.569,-1.571,-0.009,0.004,-0.008,0.425,-0.403,-0.009,1.442
-1.569,-1.571,-0.009,0.004,0.001,0.416,-0.403,-0.009,1.447
-1.569,-1.571,-0.008,0.004,0.007,0.408,-0.403,-0.008,1.452
-1.569,-1.571,-0.008,0.003,-0.001,0.416,-0.403,-0.008,1.457
-1.569,-1.571,-0.008,0.003,0,0.415,-0.403,-0.008,1.462
-1.569,-1.571,-0.008,0.002,0,0.416,-0.403,-0.008,1.467
-1.569,-1.571,-0.008,0.002,0,0.416,-0.403,-0.008,1.472
-1.569,-1.571,-0.008,0.002,0,0.417,-0.403,-0.008,1.477
-1.569,-1.571,-0.008,0.001,0,0.417,-0.403,-0.008,1.482
-1.569,-1.571,-0.006,0.001,0.007,0.407,-0.403,-0.006,1.488
-1.569,-1.571,-0.006,0.001,-0.001,0.416,-0.403,-0.006,1.493
-1.569,-1.571,-0.006,0.001,0,0.415,-0.403,-0.006,1.498
-1.569,-1.571,-0.006,0,0,0.415,-0.403,-0.006,1.503
-1.569,-1.571,-0.006,0,0,0.416,-0.403,-0.006,1.508
-1.569,-1.571,-0.006,0,0,0.416,-0.403,-0.006,1.513
-1.569,-1.571,-0.006,-0.001,0,0.416,-0.403,-0.006,1.518
-1.569,-1.571,-0.006,-0.001,0,0.417,-0.403,-0.006,1.523
-1.569,-1.571,-0.006,-0.001,0,0.417,-0.403,-0.006,1.528
-1.569,-1.571,-0.006,-0.002,0,0.417,-0.403,-0.006,1.533
-1.569,-1.571,-0.006,-0.002,0,0.418,-0.403,-0.006,1.538
-1.569,-1.571,-0.006,-0.002,0,0.418,-0.403,-0.006,1.543
-1.569,-1.571,-0.006,-0.002,0,0.418,-0.403,-0.006,1.548
-1.569,-1.571,-0.006,-0.003,0,0.418,-0.403,-0.006,1.553
-1.569,-1.571,-0.006,-0.003,0,0.419,-0.403,-0.006,1.558
-1.569,-1.571,-0.006,-0.003,0,0.419,-0.403,-0.006,1.563
-1.569,-1.571,-0.006,-0.004,0,0.419,-0.403,-0.006,1.568
-1.57,-1.571,-0.005,-0.004,0.007,0.41,-0.403,-0.005,1.573
-1.569,-1.571,-0.006,-0.004,-0.008,0.428,-0.403,-0.006,1.578
-1.569,-1.571,-0.006,-0.004,0.001,0.419,-0.403,-0.006,1.583
-1.57,-1.571,-0.005,-0.005,0.007,0.411,-0.403,-0.005,1.588
-1.57,-1.571,-0.005,-0.005,-0.001,0.419,-0.403,-0.005,1.593
-1.57,-1.571,-0.005,-0.005,0,0.418,-0.403,-0.005,1.598
-1.57,-1.571,-0.005,-0.005,0,0.418,-0.403,-0.005,1.603
-1.57,-1.571,-0.005,-0.006,0,0.419,-0.403,-0.005,1.608
-1.57,-1.571,-0.005,-0.006,0,0.419,-0.403,-0.005,1.613
-1.57,-1.571,-0.005,-0.006,0,0.419,-0.403,-0.005,1.618
-1.57,-1.571,-0.005,-0.006,0,0.419,-0.403,-0.005,1.623
-1.57,-1.571,-0.005,-0.007,0,0.42,-0.403,-0.005,1.628
-1.57,-1.571,-0.005,-0.007,0,0.42,-0.403,-0.005,1.633
-1.57,-1.571,-0.005,-0.007,0,0.42,-0.403,-0.005,1.638
-1.57,-1.571,-0.005,-0.007,0,0.42,-0.403,-0.005,1.643
-1.57,-1.571,-0.005,-0.007,0,0.421,-0.403,-0.005,1.648
-1.57,-1.571,-0.004,-0.008,0.007,0.411,-0.403,-0.004,1.653
-1.57,-1.571,-0.004,-0.008,-0.001,0.419,-0.403,-0.004,1.658
-1.57,-1.571,-0.004,-0.008,0,0.418,-0.403,-0.004,1.663
-1.57,-1.571,-0.004,-0.008,0,0.419,-0.403,-0.004,1.668
-1.57,-1.571,-0.004,-0.008,0,0.419,-0.403,-0.004,1.673
-1.57,-1.571,-0.004,-0.008,0,0.419,-0.403,-0.004,1.678
-1.57,-1.571,-0.004,-0.009,0,0.419,-0.403,-0.004,1.683
-1.57,-1.571,-0.004,-0.009,0,0.419,-0.403,-0.004,1.688
-1.57,-1.571,-0.003,-0.009,0.007,0.41,-0.403,-0.003,1.693
-1.57,-1.571,-0.003,-0.009,-0.001,0.418,-0.403,-0.003,1.698
-1.57,-1.571,-0.003,-0.009,0,0.417,-0.403,-0.003,1.703
-1.57,-1.571,-0.003,-0.009,0,0.417,-0.403,-0.003,1.708
-1.57,-1.571,-0.003,-0.009,0,0.417,-0.403,-0.003,1.713
-1.57,-1.571,-0.001,-0.009,0.007,0.408,-0.403,-0.001,1.718
-1.57,-1.571,-0.001,-0.01,-0.001,0.416,-0.403,-0.001,1.723
-1.57,-1.571,-0.001,-0.01,0,0.415,-0.403,-0.001,1.728
-1.57,-1.571,-0.001,-0.01,0,0.415,-0.403,-0.001,1.733
-1.571,-1.571,0,-0.01,0.007,0.405,-0.403,0,1.738
-1.571,-1.571,0,-0.01,-0.001,0.414,-0.403,0,1.743
-1.571,-1.571,0,-0.01,0,0.412,-0.403,0,1.748
-1.571,-1.571,0,-0.01,0,0.413,-0.403,0,1.753
-1.571,-1.571,0.001,-0.01,0.007,0.403,-0.403,0.001,1.758
-1.571,-1.571,0.001,-0.01,-0.001,0.411,-0.403,0.001,1.763
-1.571,-1.571,0.001,-0.009,0,0.41,-0.403,0.001,1.768
-1.571,-1.571,0.003,-0.009,0.007,0.4,-0.403,0.003,1.773
-1.571,-1.571,0.003,-0.009,-0.001,0.408,-0.403,0.003,1.778
-1.572,-1.571,0.004,-0.009,0.007,0.397,-0.403,0.004,1.783
-1.572,-1.571,0.004,-0.009,-0.001,0.405,-0.403,0.004,1.788
-1.572,-1.571,0.004,-0.009,0,0.404,-0.403,0.004,1.793
-1.572,-1.571,0.004,-0.009,0,0.404,-0.403,0.004,1.798
-1.572,-1.571,0.004,-0.008,0,0.403,-0.403,0.004,1.803
-1.572,-1.571,0.004,-0.008,0,0.403,-0.403,0.004,1.808
-1.572,-1.571,0.004,-0.008,0,0.403,-0.403,0.004,1.813
-1.572,-1.571,0.004,-0.008,0,0.403,-0.403,0.004,1.818
-1.572,-1.571,0.004,-0.008,0,0.403,-0.403,0.004,1.823
-1.572,-1.571,0.004,-0.007,0,0.403,-0.403,0.004,1.828
-1.572,-1.571,0.004,-0.007,0,0.402,-0.403,0.004,1.833
-1.572,-1.571,0.004,-0.007,0,0.402,-0.403,0.004,1.838
-1.572,-1.571,0.004,-0.007,0,0.402,-0.403,0.004,1.843
-1.572,-1.571,0.004,-0.007,0,0.402,-0.403,0.004,1.848
-1.572,-1.571,0.004,-0.007,0,0.402,-0.403,0.004,1.853
-1.572,-1.571,0.004,-0.006,0,0.402,-0.403,0.004,1.858
-1.572,-1.571,0.004,-0.006,0,0.401,-0.403,0.004,1.863
-1.572,-1.571,0.004,-0.006,0,0.401,-0.403,0.004,1.868
-1.572,-1.571,0.004,-0.006,0,0.401,-0.403,0.004,1.873
-1.572,-1.571,0.005,-0.006,0.007,0.391,-0.403,0.005,1.878
-1.572,-1.571,0.004,-0.006,-0.008,0.409,-0.403,0.004,1.883
-1.572,-1.571,0.004,-0.005,0.001,0.399,-0.403,0.004,1.888
-1.572,-1.571,0.005,-0.005,0.007,0.391,-0.403,0.005,1.893
-1.572,-1.571,0.005,-0.005,-0.001,0.398,-0.403,0.005,1.898
-1.572,-1.571,0.005,-0.005,0,0.397,-0.403,0.005,1.903
-1.572,-1.571,0.005,-0.004,0,0.397,-0.403,0.005,1.908
-1.572,-1.571,0.005,-0.004,0,0.397,-0.403,0.005,1.913
-1.572,-1.571,0.005,-0.004,0,0.396,-0.403,0.005,1.918
-1.572,-1.571,0.005,-0.004,0,0.396,-0.403,0.005,1.923
-1.572,-1.571,0.005,-0.003,0,0.396,-0.403,0.005,1.928
-1.572,-1.571,0.005,-0.003,0,0.396,-0.403,0.005,1.933
-1.572,-1.571,0.005,-0.003,0,0.395,-0.403,0.005,1.938
-1.572,-1.571,0.005,-0.003,0,0.395,-0.403,0.005,1.943
-1.572,-1.571,0.005,-0.003,0,0.395,-0.403,0.005,1.948
-1.572,-1.571,0.005,-0.002,0,0.395,-0.403,0.005,1.953
-1.572,-1.571,0.005,-0.002,0,0.395,-0.403,0.005,1.958
-1.572,-1.571,0.005,-0.002,0,0.394,-0.403,0.005,1.963
-1.572,-1.571,0.005,-0.002,0,0.394,-0.403,0.005,1.968
-1.572,-1.571,0.005,-0.001,0,0.394,-0.403,0.005,1.973
-1.572,-1.571,0.005,-0.001,0,0.394,-0.403,0.005,1.978
-1.572,-1.571,0.005,-0.001,0,0.393,-0.403,0.005,1.983
-1.572,-1.571,0.005,-0.001,0,0.393,-0.403,0.005,1.988
-1.572,-1.571,0.005,0,0,0.393,-0.403,0.005,1.993
-1.572,-1.571,0.004,0,-0.007,0.403,-0.403,0.004,1.998
-1.572,-1.571,0.005,0,0.008,0.384,-0.403,0.005,2.003
-1.572,-1.571,0.005,0,-0.001,0.394,-0.403,0.005,2.008
-1.572,-1.571,0.005,0,0,0.392,-0.403,0.005,2.013
-1.572,-1.571,0.005,0.001,0,0.392,-0.403,0.005,2.018
-1.572,-1.571,0.005,0.001,0,0.392,-0.403,0.005,2.023
-1.572,-1.571,0.005,0.001,0,0.391,-0.403,0.005,2.028
-1.572,-1.571,0.005,0.001,0,0.391,-0.403,0.005,2.033
-1.572,-1.571,0.005,0.002,0,0.391,-0.403,0.005,2.038
-1.572,-1.571,0.005,0.002,0,0.391,-0.403,0.005,2.043
-1.572,-1.571,0.005,0.002,0,0.39,-0.403,0.005,2.048
-1.572,-1.571,0.004,0.002,-0.007,0.4,-0.403,0.004,2.053
-1.572,-1.571,0.005,0.003,0.008,0.382,-0.403,0.005,2.058
-1.572,-1.571,0.005,0.003,-0.001,0.391,-0.403,0.005,2.063
-1.572,-1.571,0.005,0.003,0,0.389,-0.403,0.005,2.068
-1.572,-1.571,0.005,0.003,0,0.389,-0.403,0.005,2.073
-1.572,-1.571,0.005,0.003,0,0.389,-0.403,0.005,2.078
-1.572,-1.571,0.005,0.004,0,0.389,-0.403,0.005,2.084
-1.572,-1.571,0.005,0.004,0,0.389,-0.403,0.005,2.089
-1.572,-1.571,0.005,0.004,0,0.388,-0.403,0.005,2.094
-1.572,-1.571,0.005,0.004,0,0.388,-0.403,0.005,2.099
-1.572,-1.571,0.005,0.005,0,0.388,-0.403,0.005,2.104
-1.572,-1.571,0.005,0.005,0,0.388,-0.403,0.005,2.109
-1.572,-1.571,0.005,0.005,0,0.387,-0.403,0.005,2.114
-1.572,-1.571,0.005,0.005,0,0.387,-0.403,0.005,2.119
-1.572,-1.571,0.005,0.006,0,0.387,-0.403,0.005,2.124
-1.572,-1.571,0.005,0.006,0,0.387,-0.403,0.005,2.129
-1.572,-1.571,0.004,0.006,-0.007,0.396,-0.403,0.004,2.134
-1.572,-1.571,0.004,0.006,0.001,0.388,-0.403,0.004,2.139
-1.572,-1.571,0.004,0.006,0,0.389,-0.403,0.004,2.144
-1.572,-1.571,0.004,0.007,0,0.389,-0.403,0.004,2.149
-1.572,-1.571,0.004,0.007,0,0.388,-0.403,0.004,2.154
-1.571,-1.571,0.003,0.007,-0.007,0.398,-0.403,0.003,2.159
-1.571,-1.571,0.003,0.007,0.001,0.39,-0.403,0.003,2.164
-1.571,-1.571,0.003,0.007,0,0.391,-0.403,0.003,2.169
-1.571,-1.571,0.003,0.007,0,0.39,-0.403,0.003,2.174
-1.571,-1.571,0.003,0.007,0,0.39,-0.403,0.003,2.179
-1.571,-1.571,0.003,0.007,0,0.39,-0.403,0.003,2.184
-1.571,-1.571,0.003,0.007,0,0.39,-0.403,0.003,2.189
-1.571,-1.571,0.003,0.008,0,0.39,-0.403,0.003,2.194
-1.571,-1.571,0.003,0.008,0,0.39,-0.403,0.003,2.199
-1.571,-1.571,0.003,0.008,0,0.39,-0.403,0.003,2.204
-1.571,-1.571,0.003,0.008,0,0.39,-0.403,0.003,2.209
-1.571,-1.571,0.003,0.008,0,0.39,-0.403,0.003,2.214
-1.572,-1.571,0.004,0.008,0.007,0.38,-0.403,0.004,2.219
-1.572,-1.571,0.004,0.008,-0.001,0.388,-0.403,0.004,2.224
-1.572,-1.571,0.004,0.009,0,0.386,-0.403,0.004,2.229
-1.572,-1.571,0.004,0.009,0,0.386,-0.403,0.004,2.234
-1.572,-1.571,0.004,0.009,0,0.386,-0.403,0.004,2.239
-1.572,-1.571,0.004,0.009,0,0.386,-0.403,0.004,2.244
-1.572,-1.571,0.004,0.009,0,0.386,-0.403,0.004,2.249
-1.572,-1.571,0.004,0.009,0,0.386,-0.403,0.004,2.254
-1.572,-1.571,0.004,0.01,0,0.385,-0.403,0.004,2.259
-1.572,-1.571,0.004,0.01,0,0.385,-0.403,0.004,2.264
-1.572,-1.571,0.004,0.01,0,0.385,-0.403,0.004,2.269
-1.572,-1.571,0.004,0.01,0,0.385,-0.403,0.004,2.274
-1.572,-1.571,0.004,0.01,0,0.385,-0.403,0.004,2.279
-1.572,-1.571,0.004,0.011,0,0.385,-0.403,0.004,2.284
-1.572,-1.571,0.004,0.011,0,0.384,-0.403,0.004,2.289
-1.572,-1.571,0.004,0.011,0,0.384,-0.403,0.004,2.294
-1.572,-1.571,0.004,0.011,0,0.384,-0.403,0.004,2.299
-1.572,-1.571,0.004,0.011,0,0.384,-0.403,0.004,2.304
-1.572,-1.571,0.004,0.011,0,0.384,-0.403,0.004,2.309
-1.572,-1.571,0.004,0.012,0,0.383,-0.403,0.004,2.314
-1.572,-1.571,0.004,0.012,0,0.383,-0.403,0.004,2.319
-1.572,-1.571,0.004,0.012,0,0.383,-0.403,0.004,2.324
-1.572,-1.571,0.004,0.012,0,0.383,-0.403,0.004,2.329
-1.572,-1.571,0.004,0.012,0,0.383,-0.403,0.004,2.334
-1.572,-1.571,0.004,0.012,0,0.383,-0.403,0.004,2.339
-1.572,-1.571,0.004,0.013,0,0.382,-0.403,0.004,2.344
-1.571,-1.571,0.003,0.013,-0.007,0.392,-0.403,0.003,2.349
-1.571,-1.571,0.003,0.013,0.001,0.384,-0.403,0.003,2.354
-1.571,-1.571,0.003,0.013,0,0.385,-0.403,0.003,2.359
-1.571,-1.571,0.003,0.013,0,0.385,-0.403,0.003,2.364
-1.571,-1.571,0.003,0.013,0,0.384,-0.403,0.003,2.369
-1.571,-1.571,0.003,0.013,0,0.384,-0.403,0.003,2.374
-1.571,-1.571,0.003,0.013,0,0.384,-0.403,0.003,2.379
-1.571,-1.571,0.003,0.014,0,0.384,-0.403,0.003,2.384
-1.571,-1.571,0.003,0.014,0,0.384,-0.403,0.003,2.389
-1.571,-1.571,0.003,0.014,0,0.384,-0.403,0.003,2.394
-1.571,-1.571,0.003,0.014,0,0.384,-0.403,0.003,2.399
-1.571,-1.571,0.003,0.014,0,0.384,-0.403,0.003,2.404
-1.571,-1.571,0.003,0.014,0,0.383,-0.403,0.003,2.409
-1.571,-1.571,0.003,0.014,0,0.383,-0.403,0.003,2.414
-1.571,-1.571,0.003,0.014,0,0.383,-0.403,0.003,2.419
-1.571,-1.571,0.003,0.015,0,0.383,-0.403,0.003,2.424
-1.571,-1.571,0.003,0.015,0,0.383,-0.403,0.003,2.429
-1.571,-1.571,0.001,0.015,-0.007,0.393,-0.403,0.001,2.434
-1.571,-1.571,0.001,0.015,0.001,0.384,-0.403,0.001,2.439
-1.571,-1.571,0.001,0.015,0,0.386,-0.403,0.001,2.444
-1.57,-1.571,-0.001,0.015,-0.014,0.405,-0.403,-0.001,2.449
-1.57,-1.571,-0.003,0.015,-0.005,0.398,-0.403,-0.003,2.454
-1.57,-1.571,-0.004,0.014,-0.006,0.403,-0.403,-0.004,2.459
-1.568,-1.571,-0.01,0.014,-0.035,0.445,-0.403,-0.01,2.464
-1.567,-1.571,-0.014,0.013,-0.016,0.434,-0.403,-0.014,2.469
-1.567,-1.571,-0.018,0.013,-0.019,0.446,-0.403,-0.018,2.474
-1.564,-1.571,-0.028,0.011,-0.055,0.503,-0.403,-0.028,2.479
-1.562,-1.571,-0.036,0.01,-0.035,0.5,-0.403,-0.036,2.484
-1.561,-1.571,-0.043,0.008,-0.031,0.511,-0.403,-0.043,2.489
-1.558,-1.571,-0.054,0.005,-0.06,0.566,-0.403,-0.054,2.494
-1.556,-1.571,-0.063,0.002,-0.042,0.568,-0.403,-0.063,2.499
-1.554,-1.571,-0.072,-0.001,-0.044,0.592,-0.403,-0.072,2.504
-1.551,-1.571,-0.085,-0.005,-0.066,0.643,-0.403,-0.085,2.509
-1.548,-1.571,-0.095,-0.009,-0.048,0.651,-0.403,-0.095,2.514
-1.545,-1.571,-0.107,-0.014,-0.058,0.688,-0.403,-0.107,2.519
-1.542,-1.571,-0.12,-0.019,-0.064,0.725,-0.403,-0.12,2.524
-1.54,-1.571,-0.13,-0.025,-0.048,0.737,-0.403,-0.13,2.529
-1.538,-1.571,-0.139,-0.032,-0.043,0.756,-0.403,-0.139,2.534
-1.536,-1.571,-0.148,-0.038,-0.044,0.781,-0.403,-0.148,2.539
-1.534,-1.571,-0.156,-0.046,-0.037,0.797,-0.403,-0.156,2.544
-1.532,-1.571,-0.161,-0.053,-0.023,0.801,-0.403,-0.161,2.549
-1.532,-1.571,-0.165,-0.06,-0.018,0.811,-0.403,-0.165,2.554
-1.531,-1.571,-0.169,-0.068,-0.019,0.827,-0.402,-0.169,2.559
-1.53,-1.571,-0.171,-0.076,-0.012,0.833,-0.402,-0.171,2.564
-1.53,-1.571,-0.171,-0.084,0.002,0.827,-0.402,-0.171,2.569
-1.53,-1.571,-0.171,-0.091,0,0.837,-0.402,-0.171,2.574
-1.53,-1.571,-0.17,-0.099,0.007,0.834,-0.402,-0.17,2.579
-1.531,-1.571,-0.168,-0.107,0.013,0.831,-0.402,-0.168,2.584
-1.532,-1.571,-0.164,-0.114,0.02,0.824,-0.403,-0.164,2.589
-1.533,-1.571,-0.16,-0.121,0.019,0.825,-0.403,-0.16,2.594
-1.534,-1.571,-0.155,-0.128,0.026,0.814,-0.403,-0.155,2.599
-1.535,-1.571,-0.149,-0.135,0.025,0.812,-0.403,-0.149,2.604
-1.537,-1.571,-0.143,-0.142,0.032,0.798,-0.403,-0.143,2.609
-1.538,-1.571,-0.138,-0.148,0.024,0.802,-0.403,-0.138,2.614
-1.539,-1.571,-0.134,-0.154,0.018,0.807,-0.403,-0.134,2.619
-1.54,-1.571,-0.128,-0.16,0.033,0.784,-0.403,-0.128,2.624
-1.542,-1.571,-0.121,-0.165,0.031,0.779,-0.403,-0.121,2.629
-1.543,-1.571,-0.116,-0.171,0.024,0.781,-0.403,-0.116,2.634
-1.545,-1.571,-0.108,-0.176,0.04,0.755,-0.403,-0.108,2.639
-1.546,-1.571,-0.103,-0.18,0.023,0.766,-0.403,-0.103,2.644
-1.547,-1.571,-0.098,-0.185,0.025,0.758,-0.403,-0.098,2.649
-1.549,-1.571,-0.091,-0.189,0.032,0.742,-0.403,-0.091,2.654
-1.55,-1.571,-0.086,-0.193,0.024,0.744,-0.403,-0.086,2.659
-1.551,-1.571,-0.081,-0.197,0.025,0.736,-0.403,-0.081,2.664
-1.553,-1.571,-0.075,-0.2,0.032,0.72,-0.403,-0.075,2.669
-1.554,-1.571,-0.072,-0.203,0.01,0.741,-0.403,-0.072,2.674
-1.555,-1.571,-0.067,-0.206,0.027,0.716,-0.403,-0.067,2.679
-1.555,-1.571,-0.064,-0.209,0.01,0.73,-0.403,-0.064,2.685
-1.556,-1.571,-0.063,-0.212,0.006,0.735,-0.403,-0.063,2.69
-1.556,-1.571,-0.061,-0.215,0.014,0.725,-0.403,-0.061,2.695
-1.557,-1.571,-0.059,-0.217,0.005,0.734,-0.403,-0.059,2.7
-1.557,-1.571,-0.059,-0.22,-0.001,0.742,-0.403,-0.059,2.705
-1.557,-1.571,-0.059,-0.223,0,0.744,-0.403,-0.059,2.71
-1.557,-1.571,-0.059,-0.226,0,0.747,-0.403,-0.059,2.715
-1.557,-1.571,-0.059,-0.228,0,0.75,-0.403,-0.059,2.72
-1.557,-1.571,-0.059,-0.231,0,0.752,-0.403,-0.059,2.725
-1.557,-1.571,-0.059,-0.234,0,0.755,-0.403,-0.059,2.73
-1.557,-1.571,-0.059,-0.236,0,0.758,-0.403,-0.059,2.735
-1.556,-1.571,-0.061,-0.239,-0.007,0.77,-0.403,-0.061,2.74
-1.557,-1.571,-0.059,-0.242,0.008,0.755,-0.403,-0.059,2.745
-1.557,-1.571,-0.059,-0.244,-0.001,0.767,-0.403,-0.059,2.75
-1.557,-1.571,-0.059,-0.247,0,0.768,-0.403,-0.059,2.755
-1.557,-1.571,-0.057,-0.25,0.014,0.751,-0.403,-0.057,2.76
-1.558,-1.571,-0.055,-0.252,0.005,0.761,-0.403,-0.055,2.765
-1.558,-1.571,-0.055,-0.255,-0.001,0.769,-0.403,-0.055,2.77
-1.558,-1.571,-0.054,-0.257,0.007,0.761,-0.403,-0.054,2.775
-1.558,-1.571,-0.054,-0.26,-0.001,0.772,-0.403,-0.054,2.78
-1.558,-1.571,-0.054,-0.262,0,0.773,-0.403,-0.054,2.785
-1.558,-1.571,-0.054,-0.265,0,0.776,-0.403,-0.054,2.79
-1.558,-1.571,-0.054,-0.267,0,0.778,-0.403,-0.054,2.795
-1.558,-1.571,-0.054,-0.27,0,0.781,-0.403,-0.054,2.8
-1.558,-1.571,-0.054,-0.272,0,0.783,-0.403,-0.054,2.805
-1.558,-1.571,-0.054,-0.274,0,0.785,-0.403,-0.054,2.81
-1.558,-1.571,-0.054,-0.277,0,0.788,-0.403,-0.054,2.815
-1.558,-1.571,-0.054,-0.279,0,0.79,-0.403,-0.054,2.82
-1.558,-1.571,-0.054,-0.282,0,0.793,-0.403,-0.054,2.825
-1.558,-1.571,-0.054,-0.284,0,0.795,-0.403,-0.054,2.83
-1.558,-1.571,-0.054,-0.287,0,0.798,-0.403,-0.054,2.835
-1.558,-1.571,-0.054,-0.289,0,0.8,-0.403,-0.054,2.84
-1.558,-1.571,-0.054,-0.292,0,0.803,-0.403,-0.054,2.845
-1.558,-1.571,-0.054,-0.294,0,0.805,-0.403,-0.054,2.85
-1.558,-1.571,-0.054,-0.297,0,0.808,-0.403,-0.054,2.855
-1.558,-1.571,-0.054,-0.299,0,0.81,-0.403,-0.054,2.86
-1.558,-1.571,-0.054,-0.302,0,0.813,-0.403,-0.054,2.865
-1.558,-1.571,-0.053,-0.304,0.007,0.805,-0.403,-0.053,2.87
-1.558,-1.571,-0.053,-0.306,-0.001,0.816,-0.403,-0.053,2.875
-1.558,-1.571,-0.053,-0.309,0,0.817,-0.403,-0.053,2.88
-1.558,-1.571,-0.053,-0.311,0,0.82,-0.403,-0.053,2.885
-1.558,-1.571,-0.053,-0.314,0,0.822,-0.403,-0.053,2.89
-1.558,-1.571,-0.053,-0.316,0,0.824,-0.403,-0.053,2.895
-1.558,-1.571,-0.053,-0.318,0,0.827,-0.403,-0.053,2.9
-1.558,-1.571,-0.053,-0.321,0,0.829,-0.403,-0.053,2.905
-1.558,-1.571,-0.053,-0.323,0,0.832,-0.403,-0.053,2.91
-1.558,-1.571,-0.053,-0.326,0,0.834,-0.403,-0.053,2.915
-1.558,-1.571,-0.053,-0.328,0,0.836,-0.403,-0.053,2.92
-1.558,-1.571,-0.053,-0.33,0,0.839,-0.403,-0.053,2.925
-1.558,-1.571,-0.053,-0.333,0,0.841,-0.403,-0.053,2.93
-1.558,-1.571,-0.053,-0.335,0,0.844,-0.403,-0.053,2.935
-1.558,-1.571,-0.053,-0.338,0,0.846,-0.403,-0.053,2.94
-1.559,-1.571,-0.052,-0.34,0.007,0.839,-0.403,-0.052,2.945
-1.559,-1.571,-0.052,-0.342,-0.001,0.849,-0.403,-0.052,2.95
-1.559,-1.571,-0.05,-0.345,0.007,0.84,-0.403,-0.05,2.955
-1.559,-1.571,-0.05,-0.347,-0.001,0.851,-0.403,-0.05,2.96
-1.559,-1.571,-0.05,-0.349,0,0.852,-0.403,-0.05,2.965
-1.559,-1.571,-0.05,-0.351,0,0.855,-0.403,-0.05,2.97
-1.559,-1.571,-0.049,-0.354,0.007,0.847,-0.403,-0.049,2.975
-1.559,-1.571,-0.049,-0.356,-0.001,0.858,-0.403,-0.049,2.98
-1.559,-1.571,-0.049,-0.358,0,0.859,-0.403,-0.049,2.985
-1.559,-1.571,-0.049,-0.36,0,0.861,-0.403,-0.049,2.99
-1.559,-1.571,-0.049,-0.362,0,0.863,-0.403,-0.049,2.995
-1.559,-1.571,-0.049,-0.365,0,0.865,-0.403,-0.049,3
-1.559,-1.571,-0.049,-0.367,0,0.868,-0.403,-0.049,3.005
-1.559,-1.571,-0.049,-0.369,0,0.87,-0.403,-0.049,3.01
-1.559,-1.571,-0.049,-0.371,0,0.872,-0.403,-0.049,3.015
-1.559,-1.571,-0.049,-0.374,0,0.874,-0.403,-0.049,3.02
-1.559,-1.571,-0.049,-0.376,0,0.877,-0.403,-0.049,3.025
-1.559,-1.571,-0.049,-0.378,0,0.879,-0.403,-0.049,3.03
-1.559,-1.571,-0.049,-0.38,0,0.881,-0.403,-0.049,3.035
-1.559,-1.571,-0.049,-0.383,0,0.883,-0.403,-0.049,3.04
-1.559,-1.571,-0.049,-0.385,0,0.885,-0.403,-0.049,3.045
-1.559,-1.571,-0.049,-0.387,0,0.888,-0.403,-0.049,3.05
-1.559,-1.571,-0.049,-0.389,0,0.89,-0.403,-0.049,3.055
-1.559,-1.571,-0.049,-0.391,0,0.892,-0.403,-0.049,3.06
-1.559,-1.571,-0.049,-0.394,0,0.894,-0.403,-0.049,3.065
-1.559,-1.571,-0.049,-0.396,0,0.897,-0.403,-0.049,3.07
-1.559,-1.571,-0.049,-0.398,0,0.899,-0.403,-0.049,3.075
-1.559,-1.571,-0.049,-0.4,0,0.901,-0.403,-0.049,3.08
-1.559,-1.571,-0.049,-0.403,0,0.903,-0.403,-0.049,3.085
-1.559,-1.571,-0.049,-0.405,0,0.905,-0.403,-0.049,3.09
-1.559,-1.571,-0.049,-0.407,0,0.908,-0.403,-0.049,3.095
-1.559,-1.571,-0.048,-0.409,0.007,0.9,-0.403,-0.048,3.1
-1.56,-1.571,-0.046,-0.411,0.006,0.901,-0.403,-0.046,3.105
-1.56,-1.571,-0.045,-0.413,0.006,0.9,-0.403,-0.045,3.11
-1.56,-1.571,-0.044,-0.415,0.006,0.899,-0.403,-0.044,3.115
-1.561,-1.571,-0.043,-0.417,0.006,0.899,-0.403,-0.043,3.12
-1.561,-1.571,-0.043,-0.419,-0.001,0.908,-0.403,-0.043,3.125
-1.561,-1.571,-0.043,-0.421,0,0.909,-0.403,-0.043,3.13
-1.561,-1.571,-0.041,-0.423,0.007,0.901,-0.403,-0.041,3.135
-1.561,-1.571,-0.041,-0.425,-0.001,0.911,-0.403,-0.041,3.14
-1.561,-1.571,-0.041,-0.427,0,0.912,-0.403,-0.041,3.145
-1.561,-1.571,-0.041,-0.429,0,0.914,-0.403,-0.041,3.15
-1.561,-1.571,-0.041,-0.43,0,0.916,-0.403,-0.041,3.155
-1.561,-1.571,-0.041,-0.432,0,0.918,-0.403,-0.041,3.16
-1.561,-1.571,-0.041,-0.434,0,0.92,-0.403,-0.041,3.165
-1.561,-1.571,-0.041,-0.436,0,0.921,-0.403,-0.041,3.17
-1.561,-1.571,-0.041,-0.438,0,0.923,-0.403,-0.041,3.175
-1.561,-1.571,-0.041,-0.44,0,0.925,-0.403,-0.041,3.18
-1.561,-1.571,-0.041,-0.442,0,0.927,-0.403,-0.041,3.185
-1.561,-1.571,-0.041,-0.444,0,0.929,-0.403,-0.041,3.19
-1.561,-1.571,-0.041,-0.445,0,0.931,-0.403,-0.041,3.195
-1.561,-1.571,-0.04,-0.447,0.007,0.923,-0.403,-0.04,3.2
-1.562,-1.571,-0.039,-0.449,0.006,0.923,-0.403,-0.039,3.205
-1.562,-1.571,-0.039,-0.451,-0.001,0.932,-0.403,-0.039,3.21
-1.562,-1.571,-0.039,-0.453,0,0.933,-0.403,-0.039,3.215
-1.562,-1.571,-0.039,-0.454,0,0.934,-0.403,-0.039,3.22
-1.562,-1.571,-0.037,-0.456,0.007,0.926,-0.403,-0.037,3.225
-1.562,-1.571,-0.037,-0.458,-0.001,0.936,-0.403,-0.037,3.23
-1.562,-1.571,-0.037,-0.459,0,0.937,-0.403,-0.037,3.235
-1.562,-1.571,-0.039,-0.461,-0.007,0.949,-0.403,-0.039,3.24
-1.562,-1.571,-0.037,-0.463,0.008,0.932,-0.403,-0.037,3.245
-1.562,-1.571,-0.037,-0.465,-0.001,0.943,-0.403,-0.037,3.25
-1.562,-1.571,-0.037,-0.466,0,0.944,-0.403,-0.037,3.255
-1.562,-1.571,-0.037,-0.468,0,0.946,-0.403,-0.037,3.26
-1.562,-1.571,-0.037,-0.47,0,0.947,-0.403,-0.037,3.265
-1.562,-1.571,-0.037,-0.471,0,0.949,-0.403,-0.037,3.27
-1.562,-1.571,-0.036,-0.473,0.007,0.941,-0.403,-0.036,3.275
-1.562,-1.571,-0.036,-0.475,-0.001,0.951,-0.403,-0.036,3.28
-1.562,-1.571,-0.036,-0.476,0,0.951,-0.403,-0.036,3.286
-1.562,-1.571,-0.036,-0.478,0,0.953,-0.403,-0.036,3.291
-1.562,-1.571,-0.036,-0.48,0,0.955,-0.403,-0.036,3.296
-1.562,-1.571,-0.036,-0.481,0,0.956,-0.403,-0.036,3.301
-1.562,-1.571,-0.036,-0.483,0,0.958,-0.403,-0.036,3.306
-1.562,-1.571,-0.036,-0.484,0,0.959,-0.403,-0.036,3.311
-1.562,-1.571,-0.036,-0.486,0,0.961,-0.403,-0.036,3.316
-1.562,-1.571,-0.036,-0.488,0,0.963,-0.403,-0.036,3.321
-1.562,-1.571,-0.036,-0.489,0,0.964,-0.403,-0.036,3.326
-1.562,-1.571,-0.036,-0.491,0,0.966,-0.403,-0.036,3.331
-1.562,-1.571,-0.036,-0.493,0,0.968,-0.403,-0.036,3.336
-1.562,-1.571,-0.036,-0.494,0,0.969,-0.403,-0.036,3.341
-1.562,-1.571,-0.036,-0.496,0,0.971,-0.403,-0.036,3.346
-1.562,-1.571,-0.036,-0.498,0,0.973,-0.403,-0.036,3.351
-1.562,-1.571,-0.036,-0.499,0,0.974,-0.403,-0.036,3.356
-1.562,-1.571,-0.036,-0.501,0,0.976,-0.403,-0.036,3.361
-1.562,-1.571,-0.036,-0.503,0,0.977,-0.403,-0.036,3.366
-1.562,-1.571,-0.036,-0.504,0,0.979,-0.403,-0.036,3.371
-1.562,-1.571,-0.036,-0.506,0,0.981,-0.403,-0.036,3.376
-1.562,-1.571,-0.036,-0.507,0,0.982,-0.403,-0.036,3.381
-1.562,-1.571,-0.036,-0.509,0,0.984,-0.403,-0.036,3.386
-1.562,-1.571,-0.036,-0.511,0,0.986,-0.403,-0.036,3.391
-1.562,-1.571,-0.036,-0.512,0,0.987,-0.403,-0.036,3.396
-1.562,-1.571,-0.036,-0.514,0,0.989,-0.403,-0.036,3.401
-1.562,-1.571,-0.036,-0.516,0,0.991,-0.403,-0.036,3.406
-1.562,-1.571,-0.036,-0.516,0,0.991,-0.403,-0.036,3.411
-1.562,-1.571,-0.036,-0.516,0,0.991,-0.403,-0.036,3.416
-1.562,-1.571,-0.036,-0.516,0,0.991,-0.403,-0.036,3.421
-1.562,-1.571,-0.036,-0.516,0,0.991,-0.403,-0.036,3.426
-1.562,-1.571,-0.036,-0.516,0,0.991,-0.403,-0.036,3.431
-1.562,-1.571,-0.036,-0.516,0,0.991,-0.403,-0.036,3.436
-1.562,-1.571,-0.036,-0.516,0,0.991,-0.403,-0.036,3.441
-1.562,-1.571,-0.036,-0.516,0,0.991,-0.403,-0.036,3.446
-1.562,-1.571,-0.036,-0.516,0,0.991,-0.403,-0.036,3.451
-1.563,-1.571,-0.035,-0.516,0.007,0.981,-0.403,-0.035,3.456
-1.562,-1.571,-0.036,-0.517,-0.008,1,-0.403,-0.036,3.461
-1.563,-1.571,-0.035,-0.517,0.008,0.981,-0.403,-0.035,3.466
-1.562,-1.571,-0.036,-0.519,-0.009,1,-0.403,-0.036,3.471
-1.562,-1.571,-0.036,-0.519,0.001,0.993,-0.403,-0.036,3.476
-1.562,-1.571,-0.036,-0.519,0,0.994,-0.403,-0.036,3.481
-1.562,-1.571,-0.036,-0.519,0,0.994,-0.403,-0.036,3.486
-1.562,-1.571,-0.036,-0.519,0,0.994,-0.403,-0.036,3.491
-1.563,-1.571,-0.035,-0.519,0.007,0.984,-0.403,-0.035,3.496
-1.562,-1.571,-0.036,-0.521,-0.008,1,-0.403,-0.036,3.501
-1.563,-1.571,-0.035,-0.521,0.008,0.984,-0.403,-0.035,3.506
-1.563,-1.571,-0.035,-0.522,-0.001,0.996,-0.403,-0.035,3.511
-1.563,-1.571,-0.035,-0.522,0,0.994,-0.403,-0.035,3.516
-1.563,-1.571,-0.035,-0.522,0,0.995,-0.403,-0.035,3.521
-1.562,-1.571,-0.036,-0.522,-0.007,1,-0.403,-0.036,3.526
-1.562,-1.571,-0.036,-0.522,0.001,0.996,-0.403,-0.036,3.531
-1.563,-1.571,-0.035,-0.522,0.007,0.987,-0.403,-0.035,3.536
-1.562,-1.571,-0.036,-0.524,-0.008,1,-0.403,-0.036,3.541
-1.563,-1.571,-0.035,-0.524,0.008,0.988,-0.403,-0.035,3.546
-1.563,-1.571,-0.035,-0.525,-0.001,0.999,-0.403,-0.035,3.551
-1.563,-1.571,-0.035,-0.525,0,0.998,-0.403,-0.035,3.556
-1.563,-1.571,-0.035,-0.525,0,0.998,-0.403,-0.035,3.561
-1.563,-1.571,-0.035,-0.525,0,0.998,-0.403,-0.035,3.566
-1.563,-1.571,-0.035,-0.525,0,0.998,-0.403,-0.035,3.571
-1.563,-1.571,-0.035,-0.525,0,0.998,-0.403,-0.035,3.576
-1.563,-1.571,-0.035,-0.525,0,0.998,-0.403,-0.035,3.581
-1.563,-1.571,-0.035,-0.525,0,0.998,-0.403,-0.035,3.586
-1.563,-1.571,-0.035,-0.525,0,0.998,-0.403,-0.035,3.591
-1.563,-1.571,-0.035,-0.525,0,0.998,-0.403,-0.035,3.596
-1.563,-1.571,-0.035,-0.525,0,0.998,-0.403,-0.035,3.601
-1.563,-1.571,-0.035,-0.525,0,0.998,-0.403,-0.035,3.606
-1.563,-1.571,-0.035,-0.525,0,0.998,-0.403,-0.035,3.611
-1.563,-1.571,-0.035,-0.525,0,0.998,-0.403,-0.035,3.616
-1.563,-1.571,-0.035,-0.525,0,0.998,-0.403,-0.035,3.621
-1.563,-1.571,-0.035,-0.525,0,0.998,-0.403,-0.035,3.626
-1.563,-1.571,-0.035,-0.525,0,0.998,-0.403,-0.035,3.631
-1.563,-1.571,-0.035,-0.525,0,0.998,-0.403,-0.035,3.636
-1.563,-1.571,-0.035,-0.525,0,0.998,-0.403,-0.035,3.641
-1.563,-1.571,-0.035,-0.525,0,0.998,-0.403,-0.035,3.646
-1.563,-1.571,-0.035,-0.525,0,0.998,-0.403,-0.035,3.651
-1.563,-1.571,-0.035,-0.525,0,0.998,-0.403,-0.035,3.656
-1.563,-1.571,-0.035,-0.525,0,0.998,-0.403,-0.035,3.661
-1.563,-1.571,-0.035,-0.525,0,0.998,-0.403,-0.035,3.666
-1.563,-1.571,-0.035,-0.525,0,0.998,-0.403,-0.035,3.671
-1.563,-1.571,-0.035,-0.525,0,0.998,-0.403,-0.035,3.676
-1.563,-1.571,-0.035,-0.525,0,0.998,-0.403,-0.035,3.681
-1.563,-1.571,-0.035,-0.525,0,0.998,-0.403,-0.035,3.686
-1.563,-1.571,-0.035,-0.525,0,0.998,-0.403,-0.035,3.691
-1.563,-1.571,-0.035,-0.525,0,0.998,-0.403,-0.035,3.696
-1.563,-1.571,-0.035,-0.525,0,0.998,-0.403,-0.035,3.701
-1.563,-1.571,-0.035,-0.525,0,0.998,-0.403,-0.035,3.706
-1.563,-1.571,-0.035,-0.525,0,0.998,-0.403,-0.035,3.711
-1.563,-1.571,-0.035,-0.525,0,0.998,-0.403,-0.035,3.716
-1.563,-1.571,-0.035,-0.525,0,0.998,-0.403,-0.035,3.721
-1.563,-1.571,-0.035,-0.525,0,0.998,-0.403,-0.035,3.726
-1.563,-1.571,-0.035,-0.525,0,0.998,-0.403,-0.035,3.731
-1.563,-1.571,-0.035,-0.525,0,0.998,-0.403,-0.035,3.736
-1.563,-1.571,-0.035,-0.525,0,0.998,-0.403,-0.035,3.741
-1.563,-1.571,-0.035,-0.525,0,0.998,-0.403,-0.035,3.746
-1.563,-1.571,-0.035,-0.525,0,0.998,-0.403,-0.035,3.751
-1.563,-1.571,-0.035,-0.525,0,0.998,-0.403,-0.035,3.756
-1.563,-1.571,-0.035,-0.525,0,0.998,-0.403,-0.035,3.761
-1.563,-1.571,-0.035,-0.525,0,0.998,-0.403,-0.035,3.766
-1.563,-1.571,-0.035,-0.525,0,0.998,-0.403,-0.035,3.771
-1.563,-1.571,-0.035,-0.525,0,0.998,-0.403,-0.035,3.776
-1.563,-1.571,-0.035,-0.525,0,0.998,-0.403,-0.035,3.781
-1.563,-1.571,-0.035,-0.525,0,0.998,-0.403,-0.035,3.786
-1.563,-1.571,-0.035,-0.525,0,0.998,-0.403,-0.035,3.791
-1.563,-1.571,-0.035,-0.525,0,0.998,-0.403,-0.035,3.796
-1.563,-1.571,-0.035,-0.525,0,0.998,-0.403,-0.035,3.801
-1.563,-1.571,-0.035,-0.525,0,0.998,-0.403,-0.035,3.806
-1.563,-1.571,-0.035,-0.525,0,0.998,-0.403,-0.035,3.811
-1.563,-1.571,-0.035,-0.525,0,0.998,-0.403,-0.035,3.816
-1.563,-1.571,-0.035,-0.525,0,0.998,-0.403,-0.035,3.821
-1.563,-1.571,-0.035,-0.525,0,0.998,-0.403,-0.035,3.826
-1.563,-1.571,-0.035,-0.525,0,0.998,-0.403,-0.035,3.831
-1.563,-1.571,-0.035,-0.525,0,0.998,-0.403,-0.035,3.836
-1.563,-1.571,-0.035,-0.525,0,0.998,-0.403,-0.035,3.841
-1.563,-1.571,-0.035,-0.525,0,0.998,-0.403,-0.035,3.846
-1.563,-1.571,-0.035,-0.525,0,0.998,-0.403,-0.035,3.851
-1.563,-1.571,-0.035,-0.525,0,0.998,-0.403,-0.035,3.856
-1.563,-1.571,-0.035,-0.525,0,0.998,-0.403,-0.035,3.861
-1.563,-1.571,-0.035,-0.525,0,0.998,-0.403,-0.035,3.866
-1.563,-1.571,-0.035,-0.525,0,0.998,-0.403,-0.035,3.871
-1.563,-1.571,-0.035,-0.525,0,0.998,-0.403,-0.035,3.876
-1.563,-1.571,-0.035,-0.525,0,0.998,-0.403,-0.035,3.882
-1.563,-1.571,-0.035,-0.525,0,0.998,-0.403,-0.035,3.887
-1.563,-1.571,-0.035,-0.525,0,0.998,-0.403,-0.035,3.892
-1.563,-1.571,-0.035,-0.525,0,0.998,-0.403,-0.035,3.897
-1.563,-1.571,-0.035,-0.525,0,0.998,-0.403,-0.035,3.902
-1.563,-1.571,-0.035,-0.525,0,0.998,-0.403,-0.035,3.907
-1.563,-1.571,-0.035,-0.525,0,0.998,-0.403,-0.035,3.912
-1.563,-1.571,-0.035,-0.525,0,0.998,-0.403,-0.035,3.917
-1.563,-1.571,-0.035,-0.525,0,0.998,-0.403,-0.035,3.922
-1.563,-1.571,-0.035,-0.525,0,0.998,-0.403,-0.035,3.927
-1.563,-1.571,-0.035,-0.525,0,0.998,-0.403,-0.035,3.932
-1.563,-1.571,-0.035,-0.525,0,0.998,-0.403,-0.035,3.937
-1.563,-1.571,-0.035,-0.525,0,0.998,-0.403,-0.035,3.942
-1.563,-1.571,-0.035,-0.525,0,0.998,-0.403,-0.035,3.947
-1.563,-1.571,-0.035,-0.525,0,0.998,-0.403,-0.035,3.952
-1.563,-1.571,-0.035,-0.525,0,0.998,-0.403,-0.035,3.957
-1.563,-1.571,-0.035,-0.525,0,0.998,-0.403,-0.035,3.962
-1.563,-1.571,-0.035,-0.525,0,0.998,-0.403,-0.035,3.967
-1.563,-1.571,-0.035,-0.525,0,0.998,-0.403,-0.035,3.972
-1.563,-1.571,-0.035,-0.525,0,0.998,-0.403,-0.035,3.977
-1.563,-1.571,-0.035,-0.525,0,0.998,-0.403,-0.035,3.982
-1.563,-1.571,-0.035,-0.525,0,0.998,-0.403,-0.035,3.987
-1.563,-1.571,-0.035,-0.525,0,0.998,-0.403,-0.035,3.992
-1.563,-1.571,-0.035,-0.525,0,0.998,-0.403,-0.035,3.997
-1.563,-1.571,-0.035,-0.525,0,0.998,-0.403,-0.035,4.002
-1.563,-1.571,-0.035,-0.525,0,0.998,-0.403,-0.035,4.007
-1.563,-1.571,-0.035,-0.525,0,0.998,-0.403,-0.035,4.012
-1.563,-1.571,-0.035,-0.525,0,0.998,-0.403,-0.035,4.017
-1.563,-1.571,-0.035,-0.525,0,0.998,-0.403,-0.035,4.022
-1.563,-1.571,-0.035,-0.525,0,0.998,-0.403,-0.035,4.027
-1.563,-1.571,-0.035,-0.525,0,0.998,-0.403,-0.035,4.032
-1.563,-1.571,-0.035,-0.525,0,0.998,-0.403,-0.035,4.037
-1.563,-1.571,-0.035,-0.525,0,0.998,-0.403,-0.035,4.042
-1.563,-1.571,-0.035,-0.525,0,0.998,-0.403,-0.035,4.047
-1.563,-1.571,-0.035,-0.525,0,0.998,-0.403,-0.035,4.052
-1.563,-1.571,-0.035,-0.525,0,0.998,-0.403,-0.035,4.057
-1.563,-1.571,-0.035,-0.525,0,0.998,-0.403,-0.035,4.062
-1.563,-1.571,-0.035,-0.525,0,0.998,-0.403,-0.035,4.067
-1.563,-1.571,-0.035,-0.525,0,0.998,-0.403,-0.035,4.072
-1.563,-1.571,-0.035,-0.525,0,0.998,-0.403,-0.035,4.077
-1.563,-1.571,-0.035,-0.525,0,0.998,-0.403,-0.035,4.082
-1.563,-1.571,-0.035,-0.525,0,0.998,-0.403,-0.035,4.087
-1.563,-1.571,-0.035,-0.525,0,0.998,-0.403,-0.035,4.092
-1.563,-1.571,-0.035,-0.525,0,0.998,-0.403,-0.035,4.097
-1.563,-1.571,-0.035,-0.525,0,0.998,-0.403,-0.035,4.102
-1.563,-1.571,-0.035,-0.525,0,0.998,-0.403,-0.035,4.107
-1.563,-1.571,-0.035,-0.525,0,0.998,-0.403,-0.035,4.112
-1.563,-1.571,-0.035,-0.525,0,0.998,-0.403,-0.035,4.117
-1.563,-1.571,-0.035,-0.525,0,0.998,-0.403,-0.035,4.122
-1.563,-1.571,-0.035,-0.525,0,0.998,-0.403,-0.035,4.127
-1.563,-1.571,-0.035,-0.525,0,0.998,-0.403,-0.035,4.132
-1.563,-1.571,-0.035,-0.525,0,0.998,-0.403,-0.035,4.137
-1.563,-1.571,-0.035,-0.525,0,0.998,-0.403,-0.035,4.142
-1.563,-1.571,-0.035,-0.525,0,0.998,-0.403,-0.035,4.147
-1.563,-1.571,-0.035,-0.525,0,0.998,-0.403,-0.035,4.152
-1.563,-1.571,-0.035,-0.525,0,0.998,-0.403,-0.035,4.157
-1.563,-1.571,-0.035,-0.525,0,0.998,-0.403,-0.035,4.162
-1.563,-1.571,-0.035,-0.525,0,0.998,-0.403,-0.035,4.167
-1.563,-1.571,-0.035,-0.525,0,0.998,-0.403,-0.035,4.172
-1.563,-1.571,-0.035,-0.525,0,0.998,-0.403,-0.035,4.177
-1.563,-1.571,-0.035,-0.525,0,0.998,-0.403,-0.035,4.182
-1.563,-1.571,-0.035,-0.525,0,0.998,-0.403,-0.035,4.187
-1.563,-1.571,-0.035,-0.525,0,0.998,-0.403,-0.035,4.192
-1.563,-1.571,-0.035,-0.525,0,0.998,-0.403,-0.035,4.197
-1.563,-1.571,-0.035,-0.525,0,0.998,-0.403,-0.035,4.202
-1.563,-1.571,-0.035,-0.525,0,0.998,-0.403,-0.035,4.207
-1.563,-1.571,-0.035,-0.525,0,0.998,-0.403,-0.035,4.212
-1.563,-1.571,-0.035,-0.525,0,0.998,-0.403,-0.035,4.217
-1.563,-1.571,-0.035,-0.525,0,0.998,-0.403,-0.035,4.222
-1.563,-1.571,-0.035,-0.525,0,0.998,-0.403,-0.035,4.227
-1.563,-1.571,-0.035,-0.525,0,0.998,-0.403,-0.035,4.232
-1.563,-1.571,-0.035,-0.525,0,0.998,-0.403,-0.035,4.237
-1.563,-1.571,-0.035,-0.525,0,0.998,-0.403,-0.035,4.242
-1.563,-1.571,-0.035,-0.525,0,0.998,-0.403,-0.035,4.247
-1.563,-1.571,-0.035,-0.525,0,0.998,-0.403,-0.035,4.252
-1.563,-1.571,-0.035,-0.525,0,0.998,-0.403,-0.035,4.257
-1.563,-1.571,-0.035,-0.525,0,0.998,-0.403,-0.035,4.262
-1.563,-1.571,-0.035,-0.525,0,0.998,-0.403,-0.035,4.267
-1.563,-1.571,-0.035,-0.525,0,0.998,-0.403,-0.035,4.272
-1.563,-1.571,-0.035,-0.525,0,0.998,-0.403,-0.035,4.277
-1.563,-1.571,-0.035,-0.525,0,0.998,-0.403,-0.035,4.282
-1.563,-1.571,-0.035,-0.525,0,0.998,-0.403,-0.035,4.287
-1.563,-1.571,-0.035,-0.525,0,0.998,-0.403,-0.035,4.292
-1.563,-1.571,-0.035,-0.525,0,0.998,-0.403,-0.035,4.297
-1.563,-1.571,-0.035,-0.525,0,0.998,-0.403,-0.035,4.302
-1.563,-1.571,-0.035,-0.525,0,0.998,-0.403,-0.035,4.307
-1.563,-1.571,-0.035,-0.525,0,0.998,-0.403,-0.035,4.312
-1.563,-1.571,-0.035,-0.525,0,0.998,-0.403,-0.035,4.317
-1.563,-1.571,-0.035,-0.525,0,0.998,-0.403,-0.035,4.322
-1.563,-1.571,-0.035,-0.525,0,0.998,-0.403,-0.035,4.327
-1.563,-1.571,-0.035,-0.525,0,0.998,-0.403,-0.035,4.332
-1.563,-1.571,-0.035,-0.525,0,0.998,-0.403,-0.035,4.337
-1.563,-1.571,-0.035,-0.525,0,0.998,-0.403,-0.035,4.342
-1.563,-1.571,-0.035,-0.525,0,0.998,-0.403,-0.035,4.347
-1.563,-1.571,-0.035,-0.525,0,0.998,-0.403,-0.035,4.352
-1.563,-1.571,-0.035,-0.525,0,0.998,-0.403,-0.035,4.357
-1.563,-1.571,-0.035,-0.525,0,0.998,-0.403,-0.035,4.362
-1.563,-1.571,-0.035,-0.525,0,0.998,-0.403,-0.035,4.367
-1.563,-1.571,-0.035,-0.525,0,0.998,-0.403,-0.035,4.372
-1.563,-1.571,-0.035,-0.525,0,0.998,-0.403,-0.035,4.377
-1.563,-1.571,-0.035,-0.525,0,0.998,-0.403,-0.035,4.382
-1.563,-1.571,-0.035,-0.525,0,0.998,-0.403,-0.035,4.387
-1.563,-1.571,-0.035,-0.525,0,0.998,-0.403,-0.035,4.392
-1.563,-1.571,-0.035,-0.525,0,0.998,-0.403,-0.035,4.397
-1.563,-1.571,-0.035,-0.525,0,0.998,-0.403,-0.035,4.402
-1.563,-1.571,-0.035,-0.525,0,0.998,-0.403,-0.035,4.407
-1.563,-1.571,-0.035,-0.525,0,0.998,-0.403,-0.035,4.412
-1.563,-1.571,-0.035,-0.525,0,0.998,-0.403,-0.035,4.417
-1.563,-1.571,-0.035,-0.525,0,0.998,-0.403,-0.035,4.422
-1.563,-1.571,-0.035,-0.525,0,0.998,-0.403,-0.035,4.427
-1.563,-1.571,-0.035,-0.525,0,0.998,-0.403,-0.035,4.432
-1.563,-1.571,-0.035,-0.525,0,0.998,-0.403,-0.035,4.437
-1.563,-1.571,-0.035,-0.525,0,0.998,-0.403,-0.035,4.442
-1.563,-1.571,-0.035,-0.525,0,0.998,-0.403,-0.035,4.447
-1.563,-1.571,-0.035,-0.525,0,0.998,-0.403,-0.035,4.452
-1.563,-1.571,-0.035,-0.525,0,0.998,-0.403,-0.035,4.457
-1.563,-1.571,-0.035,-0.525,0,0.998,-0.403,-0.035,4.462
-1.563,-1.571,-0.035,-0.525,0,0.998,-0.403,-0.035,4.467
-1.563,-1.571,-0.035,-0.525,0,0.998,-0.403,-0.035,4.473
-1.563,-1.571,-0.035,-0.525,0,0.998,-0.403,-0.035,4.478
-1.563,-1.571,-0.035,-0.525,0,0.998,-0.403,-0.035,4.483
-1.563,-1.571,-0.035,-0.525,0,0.998,-0.403,-0.035,4.488
-1.563,-1.571,-0.035,-0.525,0,0.998,-0.403,-0.035,4.493
-1.563,-1.571,-0.035,-0.525,0,0.998,-0.403,-0.035,4.498
-1.563,-1.571,-0.035,-0.525,0,0.998,-0.403,-0.035,4.503
-1.563,-1.571,-0.035,-0.525,0,0.998,-0.403,-0.035,4.508
-1.563,-1.571,-0.035,-0.525,0,0.998,-0.403,-0.035,4.513
-1.563,-1.571,-0.035,-0.525,0,0.998,-0.403,-0.035,4.518
-1.563,-1.571,-0.035,-0.525,0,0.998,-0.403,-0.035,4.523
-1.563,-1.571,-0.035,-0.525,0,0.998,-0.403,-0.035,4.528
-1.563,-1.571,-0.035,-0.525,0,0.998,-0.403,-0.035,4.533
-1.563,-1.571,-0.035,-0.525,0,0.998,-0.403,-0.035,4.538
-1.563,-1.571,-0.035,-0.525,0,0.998,-0.403,-0.035,4.543
-1.563,-1.571,-0.035,-0.525,0,0.998,-0.403,-0.035,4.548
-1.563,-1.571,-0.035,-0.525,0,0.998,-0.403,-0.035,4.553
-1.563,-1.571,-0.035,-0.525,0,0.998,-0.403,-0.035,4.558
-1.563,-1.571,-0.035,-0.525,0,0.998,-0.403,-0.035,4.563
-1.563,-1.571,-0.035,-0.525,0,0.998,-0.403,-0.035,4.568
-1.563,-1.571,-0.035,-0.525,0,0.998,-0.403,-0.035,4.573
-1.563,-1.571,-0.035,-0.525,0,0.998,-0.403,-0.035,4.578
-1.563,-1.571,-0.035,-0.525,0,0.998,-0.403,-0.035,4.583
-1.563,-1.571,-0.035,-0.525,0,0.998,-0.403,-0.035,4.588
-1.563,-1.571,-0.035,-0.525,0,0.998,-0.403,-0.035,4.593
-1.563,-1.571,-0.035,-0.525,0,0.998,-0.403,-0.035,4.598
-1.563,-1.571,-0.035,-0.525,0,0.998,-0.403,-0.035,4.603
-1.563,-1.571,-0.035,-0.525,0,0.998,-0.403,-0.035,4.608
-1.563,-1.571,-0.035,-0.525,0,0.998,-0.403,-0.035,4.613
-1.563,-1.571,-0.035,-0.525,0,0.998,-0.403,-0.035,4.618
-1.563,-1.571,-0.035,-0.525,0,0.998,-0.403,-0.035,4.623
-1.563,-1.571,-0.035,-0.525,0,0.998,-0.403,-0.035,4.628
-1.563,-1.571,-0.035,-0.525,0,0.998,-0.403,-0.035,4.633
-1.563,-1.571,-0.035,-0.525,0,0.998,-0.403,-0.035,4.638
-1.563,-1.571,-0.035,-0.525,0,0.998,-0.403,-0.035,4.643
-1.563,-1.571,-0.035,-0.525,0,0.998,-0.403,-0.035,4.648
-1.563,-1.571,-0.035,-0.525,0,0.998,-0.403,-0.035,4.653
-1.563,-1.571,-0.035,-0.525,0,0.998,-0.403,-0.035,4.658
-1.563,-1.571,-0.035,-0.525,0,0.998,-0.403,-0.035,4.663
-1.563,-1.571,-0.035,-0.525,0,0.998,-0.403,-0.035,4.668
-1.563,-1.571,-0.035,-0.525,0,0.998,-0.403,-0.035,4.673
-1.563,-1.571,-0.035,-0.525,0,0.998,-0.403,-0.035,4.678
-1.563,-1.571,-0.035,-0.525,0,0.998,-0.403,-0.035,4.683
-1.563,-1.571,-0.035,-0.525,0,0.998,-0.403,-0.035,4.688
-1.563,-1.571,-0.035,-0.525,0,0.998,-0.403,-0.035,4.693
-1.563,-1.571,-0.035,-0.525,0,0.998,-0.403,-0.035,4.698
-1.563,-1.571,-0.035,-0.525,0,0.998,-0.403,-0.035,4.703
-1.563,-1.571,-0.035,-0.525,0,0.998,-0.403,-0.035,4.708
-1.563,-1.571,-0.035,-0.525,0,0.998,-0.403,-0.035,4.713
-1.563,-1.571,-0.035,-0.525,0,0.998,-0.403,-0.035,4.718
-1.563,-1.571,-0.035,-0.525,0,0.998,-0.403,-0.035,4.723
-1.563,-1.571,-0.035,-0.525,0,0.998,-0.403,-0.035,4.728
-1.563,-1.571,-0.035,-0.525,0,0.998,-0.403,-0.035,4.733
-1.563,-1.571,-0.035,-0.525,0,0.998,-0.403,-0.035,4.738
-1.563,-1.571,-0.035,-0.525,0,0.998,-0.403,-0.035,4.743
-1.563,-1.571,-0.035,-0.525,0,0.998,-0.403,-0.035,4.748
-1.563,-1.571,-0.035,-0.525,0,0.998,-0.403,-0.035,4.753
-1.563,-1.571,-0.035,-0.525,0,0.998,-0.403,-0.035,4.758
-1.563,-1.571,-0.035,-0.525,0,0.998,-0.403,-0.035,4.763
-1.563,-1.571,-0.035,-0.525,0,0.998,-0.403,-0.035,4.768
-1.563,-1.571,-0.035,-0.525,0,0.998,-0.403,-0.035,4.773
-1.563,-1.571,-0.035,-0.525,0,0.998,-0.403,-0.035,4.778
-1.563,-1.571,-0.035,-0.525,0,0.998,-0.403,-0.035,4.783
-1.563,-1.571,-0.035,-0.525,0,0.998,-0.403,-0.035,4.788
-1.563,-1.571,-0.035,-0.525,0,0.998,-0.403,-0.035,4.793
-1.563,-1.571,-0.035,-0.525,0,0.998,-0.403,-0.035,4.798
-1.563,-1.571,-0.035,-0.525,0,0.998,-0.403,-0.035,4.803
-1.563,-1.571,-0.035,-0.525,0,0.998,-0.403,-0.035,4.808
-1.563,-1.571,-0.035,-0.525,0,0.998,-0.403,-0.035,4.813
-1.563,-1.571,-0.035,-0.525,0,0.998,-0.403,-0.035,4.818
-1.563,-1.571,-0.035,-0.525,0,0.998,-0.403,-0.035,4.823
-1.563,-1.571,-0.035,-0.525,0,0.998,-0.403,-0.035,4.828
-1.563,-1.571,-0.035,-0.525,0,0.998,-0.403,-0.035,4.833
-1.563,-1.571,-0.035,-0.525,0,0.998,-0.403,-0.035,4.838
-1.563,-1.571,-0.035,-0.525,0,0.998,-0.403,-0.035,4.843
-1.563,-1.571,-0.035,-0.525,0,0.998,-0.403,-0.035,4.848
-1.563,-1.571,-0.035,-0.525,0,0.998,-0.403,-0.035,4.853
-1.563,-1.571,-0.035,-0.525,0,0.998,-0.403,-0.035,4.858
-1.563,-1.571,-0.035,-0.525,0,0.998,-0.403,-0.035,4.863
-1.563,-1.571,-0.035,-0.525,0,0.998,-0.403,-0.035,4.868
-1.563,-1.571,-0.035,-0.525,0,0.998,-0.403,-0.035,4.873
-1.563,-1.571,-0.035,-0.525,0,0.998,-0.403,-0.035,4.878
-1.563,-1.571,-0.035,-0.525,0,0.998,-0.403,-0.035,4.883
-1.563,-1.571,-0.035,-0.525,0,0.998,-0.403,-0.035,4.888
-1.563,-1.571,-0.035,-0.525,0,0.998,-0.403,-0.035,4.893
-1.563,-1.571,-0.035,-0.525,0,0.998,-0.403,-0.035,4.898
-1.563,-1.571,-0.035,-0.525,0,0.998,-0.403,-0.035,4.903
-1.563,-1.571,-0.035,-0.525,0,0.998,-0.403,-0.035,4.908
-1.563,-1.571,-0.035,-0.525,0,0.998,-0.403,-0.035,4.913
-1.563,-1.571,-0.035,-0.525,0,0.998,-0.403,-0.035,4.918
-1.563,-1.571,-0.035,-0.525,0,0.998,-0.403,-0.035,4.923
-1.563,-1.571,-0.035,-0.525,0,0.998,-0.403,-0.035,4.928
-1.563,-1.571,-0.035,-0.525,0,0.998,-0.403,-0.035,4.933
-1.563,-1.571,-0.035,-0.525,0,0.998,-0.403,-0.035,4.938
-1.563,-1.571,-0.035,-0.525,0,0.998,-0.403,-0.035,4.943
-1.563,-1.571,-0.035,-0.525,0,0.998,-0.403,-0.035,4.948
-1.563,-1.571,-0.035,-0.525,0,0.998,-0.403,-0.035,4.953
-1.563,-1.571,-0.035,-0.525,0,0.998,-0.403,-0.035,4.958
-1.563,-1.571,-0.035,-0.525,0,0.998,-0.403,-0.035,4.963
-1.563,-1.571,-0.035,-0.525,0,0.998,-0.403,-0.035,4.968
-1.563,-1.571,-0.035,-0.525,0,0.998,-0.403,-0.035,4.973
-1.563,-1.571,-0.035,-0.525,0,0.998,-0.403,-0.035,4.978
-1.563,-1.571,-0.035,-0.525,0,0.998,-0.403,-0.035,4.983
-1.563,-1.571,-0.035,-0.525,0,0.998,-0.403,-0.035,4.988
-1.563,-1.571,-0.035,-0.525,0,0.998,-0.403,-0.035,4.993
-1.563,-1.571,-0.035,-0.525,0,0.998,-0.403,-0.035,4.998
-1.563,-1.571,-0.035,-0.525,0,0.998,-0.403,-0.035,5.003
