theta,reference,proportional,integral,derivative,dutycycle,g_comp,f_comp,time
-0.017,0,0.031,0.001,0.816,-0.914,-0.007,0.072,0
-0.015,0,0.027,0.003,-0.222,0.137,-0.006,0.062,0.005
-0.003,0,0.006,0.003,-0.233,0.213,-0.001,0.013,0.01
-0.009,0,0.016,0.004,0.185,-0.238,-0.004,0.037,0.015
-0.015,0,0.028,0.005,0.116,-0.207,-0.006,0.064,0.02
-0.012,0,0.022,0.006,-0.103,0.031,-0.005,0.05,0.025
-0.005,0,0.008,0.006,-0.154,0.122,-0.002,0.019,0.03
0.002,0,-0.004,0.006,-0.137,0.145,0.001,-0.01,0.035
0.006,0,-0.011,0.005,-0.06,0.089,0.002,-0.026,0.04
0.007,0,-0.013,0.005,-0.017,0.053,0.003,-0.031,0.045
0.007,0,-0.013,0.004,0.003,0.033,0.003,-0.031,0.05
0.009,0,-0.017,0.004,-0.044,0.092,0.004,-0.039,0.055
0.013,0,-0.023,0.002,-0.079,0.148,0.005,-0.054,0.06
0.015,0,-0.028,0.001,-0.043,0.127,0.006,-0.064,0.065
0.017,0,-0.031,0,-0.035,0.132,0.007,-0.072,0.07
0.02,0,-0.035,-0.002,-0.051,0.163,0.008,-0.082,0.075
0.021,0,-0.037,-0.003,-0.012,0.13,0.008,-0.086,0.08
0.021,0,-0.038,-0.005,-0.012,0.136,0.009,-0.089,0.085
0.022,0,-0.04,-0.007,-0.019,0.15,0.009,-0.093,0.09
0.022,0,-0.039,-0.009,0.011,0.12,0.009,-0.091,0.095
0.022,0,-0.039,-0.011,-0.002,0.135,0.009,-0.091,0.1
0.021,0,-0.038,-0.012,0.015,0.116,0.009,-0.089,0.105
0.021,0,-0.037,-0.014,0.012,0.117,0.008,-0.086,0.11
0.019,0,-0.035,-0.016,0.027,0.097,0.008,-0.081,0.115
0.019,0,-0.034,-0.017,0.009,0.113,0.008,-0.079,0.12
0.018,0,-0.032,-0.019,0.02,0.098,0.007,-0.075,0.125
0.017,0,-0.03,-0.02,0.018,0.097,0.007,-0.071,0.13
0.016,0,-0.028,-0.021,0.026,0.083,0.006,-0.066,0.135
0.015,0,-0.027,-0.022,0.017,0.088,0.006,-0.062,0.14
0.013,0,-0.024,-0.024,0.026,0.073,0.005,-0.057,0.145
0.013,0,-0.023,-0.025,0.009,0.087,0.005,-0.054,0.15
0.012,0,-0.022,-0.026,0.013,0.082,0.005,-0.052,0.155
0.012,0,-0.022,-0.027,0.005,0.089,0.005,-0.05,0.16
0.01,0,-0.018,-0.027,0.043,0.041,0.004,-0.043,0.165
0.008,0,-0.014,-0.028,0.042,0.03,0.003,-0.034,0.17
0.006,0,-0.012,-0.029,0.028,0.037,0.003,-0.027,0.175
0.006,0,-0.011,-0.029,0.002,0.062,0.002,-0.026,0.18
0.005,0,-0.009,-0.029,0.029,0.028,0.002,-0.021,0.185
0.003,0,-0.006,-0.03,0.038,0.009,0.001,-0.013,0.19
0.002,0,-0.004,-0.03,0.014,0.028,0.001,-0.009,0.195
0.002,0,-0.004,-0.03,-0.003,0.045,0.001,-0.009,0.2
0.001,0,-0.002,-0.03,0.022,0.015,0,-0.005,0.205
0,0,-0.001,-0.03,0.017,0.015,0,-0.001,0.21
0,0,-0.001,-0.03,-0.003,0.035,0,-0.001,0.215
0,0,0,-0.03,0.008,0.022,0,0,0.22
0,0,0.001,-0.03,0.006,0.023,0,0.001,0.225
0,0,0.001,-0.03,-0.001,0.03,0,0.001,0.23
0,0,0.001,-0.03,0,0.028,0,0.001,0.235
0,0,0.001,-0.03,0,0.028,0,0.001,0.24
0,0,0,-0.03,-0.007,0.037,0,0,0.245
0,0,0,-0.03,0.001,0.029,0,0,0.25
0,0,-0.001,-0.03,-0.008,0.039,0,-0.001,0.255
0,0,-0.001,-0.03,0.002,0.03,0,-0.001,0.26
0,0,-0.001,-0.03,0,0.032,0,-0.001,0.265
0,0,-0.001,-0.03,0,0.032,0,-0.001,0.27
0,0,-0.001,-0.03,0,0.032,0,-0.001,0.275
0,0,-0.001,-0.03,0,0.032,0,-0.001,0.28
0,0,-0.001,-0.03,0,0.032,0,-0.001,0.285
0,0,-0.001,-0.03,0,0.032,0,-0.001,0.29
0,0,-0.001,-0.03,0,0.032,0,-0.001,0.295
0,0,-0.001,-0.03,0,0.032,0,-0.001,0.3
0,0,-0.001,-0.03,0,0.032,0,-0.001,0.306
0,0,-0.001,-0.03,0,0.032,0,-0.001,0.311
0,0,-0.001,-0.03,0,0.032,0,-0.001,0.316
0,0,-0.001,-0.03,0,0.032,0,-0.001,0.321
0,0,-0.001,-0.03,0,0.032,0,-0.001,0.326
0,0,-0.001,-0.031,0,0.032,0,-0.001,0.331
0,0,-0.001,-0.031,0,0.032,0,-0.001,0.336
0,0,-0.001,-0.031,0,0.032,0,-0.001,0.341
0,0,-0.001,-0.031,0,0.032,0,-0.001,0.346
0,0,-0.001,-0.031,0,0.032,0,-0.001,0.351
0,0,-0.001,-0.031,0,0.032,0,-0.001,0.356
0,0,-0.001,-0.031,0,0.032,0,-0.001,0.361
0,0,0,-0.031,0.007,0.023,0,0,0.366
0,0,0,-0.031,-0.001,0.032,0,0,0.371
0,0,0,-0.031,0,0.03,0,0,0.376
0,0,0,-0.031,0,0.031,0,0,0.381
0,0,-0.001,-0.031,-0.007,0.04,0,-0.001,0.386
0,0,-0.001,-0.031,0.001,0.031,0,-0.001,0.391
0,0,-0.001,-0.031,0,0.033,0,-0.001,0.396
0,0,0,-0.031,0.007,0.023,0,0,0.401
0,0,0,-0.031,-0.001,0.032,0,0,0.406
0,0,0,-0.031,0,0.03,0,0,0.411
0,0,0,-0.031,0,0.031,0,0,0.416
0,0,-0.001,-0.031,-0.007,0.04,0,-0.001,0.421
0,0,0,-0.031,0.009,0.022,0,0,0.426
0,0,0,-0.031,-0.002,0.033,0,0,0.431
0,0,-0.001,-0.031,-0.007,0.039,0,-0.001,0.436
0,0,0,-0.031,0.009,0.022,0,0,0.441
0,0,0,-0.031,-0.002,0.033,0,0,0.446
0,0,0,-0.031,0,0.03,0,0,0.451
0,0,0,-0.031,0,0.031,0,0,0.456
0,0,0,-0.031,0,0.031,0,0,0.461
0,0,0,-0.031,0,0.031,0,0,0.466
0,0,0,-0.031,0,0.031,0,0,0.471
0,0,0,-0.031,0,0.031,0,0,0.476
0,0,0,-0.031,0,0.031,0,0,0.481
0,0,-0.001,-0.031,-0.007,0.04,0,-0.001,0.486
0,0,-0.001,-0.031,0.001,0.031,0,-0.001,0.491
0,0,-0.001,-0.031,0,0.033,0,-0.001,0.496
0,0,0,-0.031,0.007,0.024,0,0,0.501
0,0,0,-0.031,-0.001,0.032,0,0,0.506
0,0,0,-0.031,0,0.031,0,0,0.511
0,0,-0.001,-0.031,-0.007,0.04,0,-0.001,0.516
0,0,0,-0.031,0.009,0.022,0,0,0.521
0,0,0,-0.031,-0.002,0.033,0,0,0.526
0,0,0,-0.031,0,0.031,0,0,0.531
0,0,-0.001,-0.031,-0.007,0.04,0,-0.001,0.536
0,0,-0.001,-0.031,0.001,0.031,0,-0.001,0.541
0,0,0,-0.031,0.007,0.024,0,0,0.546
0,0,0,-0.031,-0.001,0.032,0,0,0.551
0,0,0,-0.031,0,0.031,0,0,0.556
0,0,0,-0.031,0,0.031,0,0,0.561
0,0,0,-0.031,0,0.031,0,0,0.566
0,0,0,-0.031,0,0.031,0,0,0.571
0,0,-0.001,-0.031,-0.007,0.04,0,-0.001,0.576
0,0,0,-0.031,0.009,0.022,0,0,0.581
0,0,-0.001,-0.031,-0.009,0.042,0,-0.001,0.586
0,0,0,-0.031,0.009,0.022,0,0,0.591
0,0,0,-0.031,-0.002,0.033,0,0,0.596
0,0,-0.001,-0.031,-0.007,0.04,0,-0.001,0.601
0,0,0,-0.031,0.009,0.022,0,0,0.606
0,0,-0.001,-0.031,-0.009,0.042,0,-0.001,0.611
0,0,0,-0.031,0.009,0.022,0,0,0.616
0,0,0,-0.031,-0.002,0.033,0,0,0.621
0,0,0,-0.031,0,0.031,0,0,0.626
0,0,0,-0.031,0,0.031,0,0,0.631
0,0,0,-0.031,0,0.031,0,0,0.636
0,0,0,-0.031,0,0.031,0,0,0.641
0,0,0,-0.031,0,0.031,0,0,0.646
0,0,0,-0.031,0,0.031,0,0,0.651
0,0,0,-0.031,0,0.031,0,0,0.656
0,0,0,-0.031,0,0.031,0,0,0.661
0,0,-0.001,-0.031,-0.007,0.04,0,-0.001,0.666
0,0,-0.001,-0.031,0.001,0.031,0,-0.001,0.671
0,0,0,-0.031,0.007,0.024,0,0,0.676
0,0,0,-0.031,-0.001,0.033,0,0,0.681
0,0,-0.001,-0.031,-0.007,0.04,0,-0.001,0.686
0,0,0,-0.031,0.009,0.022,0,0,0.691
0,0,0,-0.031,-0.002,0.033,0,0,0.696
0,0,0,-0.031,0,0.031,0,0,0.701
0,0,0,-0.031,0,0.031,0,0,0.706
0,0,0,-0.031,0,0.031,0,0,0.711
0,0,0,-0.031,0,0.031,0,0,0.716
0,0,-0.001,-0.031,-0.007,0.04,0,-0.001,0.721
0,0,0,-0.031,0.009,0.022,0,0,0.726
0,0,0,-0.031,-0.002,0.033,0,0,0.731
0,0,0,-0.031,0,0.031,0,0,0.736
0,0,0,-0.031,0,0.031,0,0,0.741
0,0,0,-0.031,0,0.031,0,0,0.746
0,0,0,-0.031,0,0.031,0,0,0.751
0,0,0,-0.031,0,0.031,0,0,0.756
0,0,0,-0.031,0,0.031,0,0,0.761
0,0,-0.001,-0.031,-0.007,0.04,0,-0.001,0.766
0,0,0,-0.031,0.009,0.022,0,0,0.771
0,0,0,-0.031,-0.002,0.033,0,0,0.776
0,0,0,-0.031,0,0.031,0,0,0.781
0,0,-0.001,-0.031,-0.007,0.04,0,-0.001,0.786
0,0,0,-0.031,0.009,0.022,0,0,0.791
0,0,-0.001,-0.031,-0.009,0.042,0,-0.001,0.796
0,0,0,-0.031,0.009,0.022,0,0,0.801
0,0,0,-0.031,-0.002,0.033,0,0,0.806
0,0,0,-0.031,0,0.031,0,0,0.811
0,0,-0.001,-0.031,-0.007,0.04,0,-0.001,0.816
0,0,0,-0.031,0.009,0.022,0,0,0.821
0,0,-0.001,-0.031,-0.009,0.042,0,-0.001,0.826
0,0,0,-0.031,0.009,0.022,0,0,0.831
0,0,0,-0.031,-0.002,0.033,0,0,0.836
0,0,0,-0.031,0,0.031,0,0,0.841
0,0,0,-0.031,0,0.031,0,0,0.846
0,0,-0.001,-0.031,-0.007,0.04,0,-0.001,0.851
0,0,0,-0.031,0.009,0.023,0,0,0.856
0,0,0,-0.031,-0.002,0.033,0,0,0.861
0,0,0,-0.031,0,0.031,0,0,0.866
0,0,0,-0.031,0,0.031,0,0,0.871
0,0,-0.001,-0.031,-0.007,0.04,0,-0.001,0.876
0,0,0,-0.031,0.009,0.023,0,0,0.881
0,0,0,-0.031,-0.002,0.033,0,0,0.886
0,0,0,-0.031,0,0.031,0,0,0.891
0,0,0,-0.031,0,0.031,0,0,0.896
0,0,0,-0.031,0,0.031,0,0,0.902
0,0,0,-0.031,0,0.031,0,0,0.907
0,0,0,-0.031,0,0.031,0,0,0.912
0,0,-0.001,-0.031,-0.007,0.04,0,-0.001,0.917
0,0,0,-0.031,0.009,0.023,0,0,0.922
0,0,0,-0.031,-0.002,0.033,0,0,0.927
0,0,0,-0.031,0,0.031,0,0,0.932
0,0,0,-0.031,0,0.031,0,0,0.937
0,0,-0.001,-0.031,-0.007,0.04,0,-0.001,0.942
0,0,0,-0.031,0.009,0.023,0,0,0.947
0,0,0,-0.031,-0.002,0.033,0,0,0.952
0,0,0,-0.031,0,0.031,0,0,0.957
0,0,0,-0.031,0,0.031,0,0,0.962
0,0,0,-0.031,0,0.031,0,0,0.967
0,0,0,-0.031,0,0.031,0,0,0.972
0,0,0,-0.031,0,0.031,0,0,0.977
0,0,0,-0.031,0,0.031,0,0,0.982
0.001,0,-0.001,-0.031,-0.015,0.049,0,-0.003,0.987
0,0,0,-0.031,0.017,0.014,0,0,0.992
0,0,0,-0.031,-0.003,0.035,0,0,0.997
0,1.571,2.827,-0.031,37.323,-1,0,0.21,1.002
0.003,1.571,2.822,-0.031,-7.537,1,0.001,0.21,1.007
0.015,1.571,2.8,-0.031,1.216,-1,0.006,0.21,1.012
0.007,1.571,2.814,-0.031,-0.054,-1,0.003,0.21,1.017
0.014,1.571,2.801,-0.031,-0.157,-1,0.006,0.21,1.022
0.035,1.571,2.765,-0.031,-0.45,-1,0.014,0.21,1.027
0.036,1.571,2.763,-0.031,0.061,-1,0.014,0.21,1.032
0.05,1.571,2.737,-0.031,-0.347,-1,0.02,0.21,1.037
0.072,1.571,2.697,-0.031,-0.463,-1,0.029,0.21,1.042
0.088,1.571,2.669,-0.031,-0.272,-1,0.035,0.21,1.047
0.114,1.571,2.623,-0.031,-0.565,-1,0.046,0.21,1.052
0.143,1.571,2.57,-0.031,-0.587,-1,0.058,0.21,1.057
0.171,1.571,2.52,-0.031,-0.531,-1,0.068,0.21,1.062
0.207,1.571,2.455,-0.031,-0.761,-1,0.083,0.21,1.067
0.243,1.571,2.39,-0.031,-0.701,-1,0.097,0.21,1.072
0.286,1.571,2.312,-0.031,-0.888,-1,0.114,0.21,1.077
0.33,1.571,2.233,-0.031,-0.872,-1,0.131,0.21,1.082
0.376,1.571,2.152,-0.031,-0.897,-1,0.148,0.21,1.087
0.428,1.571,2.057,-0.031,-1.067,-1,0.167,0.21,1.092
0.477,1.571,1.969,-0.031,-0.946,-1,0.185,0.21,1.097
0.527,1.571,1.879,-0.031,-0.999,-1,0.203,0.21,1.102
0.584,1.571,1.776,-0.031,-1.163,-1,0.222,0.21,1.107
0.64,1.571,1.675,-0.031,-1.094,-1,0.241,0.21,1.112
0.701,1.571,1.566,-0.031,-1.225,-0.78,0.26,0.21,1.117
0.761,1.571,1.457,-0.031,-1.198,-0.715,0.278,0.21,1.122
0.826,1.571,1.341,-0.031,-1.284,-0.532,0.296,0.21,1.127
0.891,1.571,1.224,-0.031,-1.296,-0.42,0.313,0.21,1.132
0.957,1.571,1.105,-0.031,-1.308,-0.305,0.329,0.21,1.137
1.023,1.571,0.987,-0.031,-1.298,-0.211,0.344,0.21,1.142
1.086,1.571,0.872,0.008,-1.257,-0.19,0.356,0.21,1.147
1.146,1.571,0.765,0.043,-1.156,-0.23,0.367,0.21,1.152
1.203,1.571,0.662,0.073,-1.132,-0.189,0.376,0.21,1.157
1.261,1.571,0.557,0.098,-1.159,-0.091,0.384,0.21,1.162
1.319,1.571,0.453,0.119,-1.146,-0.026,0.39,0.21,1.167
1.375,1.571,0.352,0.135,-1.105,0.013,0.395,0.21,1.172
1.43,1.571,0.253,0.146,-1.084,0.076,0.399,0.21,1.177
1.484,1.571,0.157,0.154,-1.052,0.13,0.401,0.21,1.182
1.535,1.571,0.065,0.157,-1.007,0.233,0.403,0.151,1.187
1.582,1.571,-0.021,0.156,-0.928,0.44,0.403,-0.049,1.192
1.624,1.571,-0.095,0.151,-0.791,0.543,0.402,-0.21,1.197
1.652,1.571,-0.147,0.145,-0.527,0.338,0.401,-0.21,1.202
1.665,1.571,-0.17,0.137,-0.201,0.043,0.401,-0.21,1.207
1.668,1.571,-0.175,0.129,-0.018,-0.127,0.401,-0.21,1.212
1.673,1.571,-0.183,0.121,-0.113,-0.015,0.401,-0.21,1.217
1.686,1.571,-0.207,0.111,-0.284,0.189,0.4,-0.21,1.222
1.706,1.571,-0.243,0.1,-0.424,0.378,0.399,-0.21,1.227
1.739,1.571,-0.303,0.086,-0.702,0.731,0.397,-0.21,1.232
1.765,1.571,-0.349,0.071,-0.472,0.565,0.395,-0.21,1.237
1.78,1.571,-0.377,0.053,-0.277,0.417,0.394,-0.21,1.242
1.8,1.571,-0.413,0.035,-0.411,0.607,0.392,-0.21,1.247
1.813,1.571,-0.437,0.015,-0.239,0.48,0.391,-0.21,1.252
1.82,1.571,-0.449,-0.006,-0.113,0.387,0.39,-0.21,1.257
1.828,1.571,-0.462,-0.027,-0.152,0.462,0.39,-0.21,1.262
1.829,1.571,-0.464,-0.048,0.009,0.323,0.39,-0.21,1.267
1.827,1.571,-0.462,-0.069,0.027,0.323,0.39,-0.21,1.272
1.826,1.571,-0.459,-0.09,0.031,0.338,0.39,-0.21,1.277
1.819,1.571,-0.447,-0.11,0.147,0.23,0.39,-0.21,1.282
1.811,1.571,-0.432,-0.13,0.167,0.213,0.391,-0.21,1.287
1.803,1.571,-0.418,-0.149,0.156,0.229,0.392,-0.21,1.292
1.793,1.571,-0.399,-0.167,0.217,0.166,0.393,-0.21,1.297
1.78,1.571,-0.377,-0.184,0.256,0.121,0.394,-0.21,1.302
1.767,1.571,-0.353,-0.2,0.262,0.105,0.395,-0.21,1.307
1.754,1.571,-0.329,-0.215,0.261,0.097,0.396,-0.21,1.312
1.74,1.571,-0.305,-0.229,0.261,0.086,0.397,-0.21,1.317
1.725,1.571,-0.277,-0.241,0.327,0.003,0.398,-0.21,1.322
1.705,1.571,-0.241,-0.252,0.401,-0.097,0.399,-0.21,1.327
1.686,1.571,-0.207,-0.262,0.372,-0.093,0.4,-0.21,1.332
1.667,1.571,-0.174,-0.27,0.363,-0.11,0.401,-0.21,1.337
1.647,1.571,-0.136,-0.276,0.423,-0.203,0.402,-0.21,1.342
1.624,1.571,-0.095,-0.28,0.462,-0.279,0.402,-0.21,1.347
1.602,1.571,-0.056,-0.283,0.418,-0.35,0.403,-0.131,1.352
1.583,1.571,-0.022,-0.284,0.376,-0.423,0.403,-0.05,1.357
1.567,1.571,0.006,-0.283,0.289,-0.429,0.403,0.014,1.362
1.559,1.571,0.021,-0.282,0.139,-0.329,0.403,0.049,1.367
1.559,1.571,0.022,-0.281,-0.021,-0.173,0.403,0.05,1.372
1.563,1.571,0.014,-0.281,-0.091,-0.079,0.403,0.034,1.377
1.566,1.571,0.009,-0.28,-0.047,-0.106,0.403,0.022,1.382
1.565,1.571,0.011,-0.28,0.031,-0.191,0.403,0.026,1.387
1.561,1.571,0.018,-0.279,0.088,-0.273,0.403,0.043,1.392
1.549,1.571,0.039,-0.277,0.252,-0.506,0.403,0.09,1.397
1.516,1.571,0.099,-0.273,0.744,-1,0.402,0.21,1.402
1.492,1.571,0.142,-0.273,0.42,-0.901,0.402,0.21,1.407
1.482,1.571,0.159,-0.265,0.142,-0.647,0.401,0.21,1.412
1.455,1.571,0.208,-0.256,0.613,-1,0.4,0.21,1.417
1.439,1.571,0.237,-0.256,0.264,-0.854,0.399,0.21,1.422
1.435,1.571,0.245,-0.245,0.057,-0.666,0.399,0.21,1.427
1.418,1.571,0.275,-0.232,0.382,-1,0.398,0.21,1.432
1.413,1.571,0.284,-0.232,0.04,-0.699,0.398,0.21,1.437
1.41,1.571,0.289,-0.219,0.058,-0.735,0.398,0.21,1.442
1.403,1.571,0.302,-0.206,0.156,-0.859,0.397,0.21,1.447
1.408,1.571,0.293,-0.192,-0.148,-0.56,0.398,0.21,1.452
1.409,1.571,0.292,-0.179,0.022,-0.743,0.398,0.21,1.457
1.412,1.571,0.287,-0.166,-0.077,-0.651,0.398,0.21,1.462
1.422,1.571,0.268,-0.154,-0.232,-0.49,0.398,0.21,1.467
1.426,1.571,0.26,-0.142,-0.056,-0.671,0.399,0.21,1.472
1.437,1.571,0.241,-0.131,-0.244,-0.475,0.399,0.21,1.477
1.448,1.571,0.22,-0.121,-0.221,-0.488,0.4,0.21,1.482
1.457,1.571,0.205,-0.112,-0.153,-0.551,0.4,0.21,1.487
1.472,1.571,0.178,-0.104,-0.334,-0.351,0.401,0.21,1.492
1.484,1.571,0.156,-0.096,-0.217,-0.454,0.401,0.21,1.497
1.497,1.571,0.134,-0.09,-0.255,-0.4,0.402,0.21,1.503
1.513,1.571,0.103,-0.086,-0.35,-0.28,0.402,0.21,1.508
1.524,1.571,0.085,-0.082,-0.171,-0.433,0.402,0.198,1.513
1.536,1.571,0.063,-0.079,-0.257,-0.276,0.403,0.147,1.518
1.552,1.571,0.034,-0.077,-0.335,-0.103,0.403,0.079,1.523
1.561,1.571,0.018,-0.077,-0.144,-0.241,0.403,0.041,1.528
1.568,1.571,0.005,-0.076,-0.139,-0.204,0.403,0.012,1.533
1.577,1.571,-0.011,-0.077,-0.184,-0.105,0.403,-0.026,1.538
1.587,1.571,-0.03,-0.078,-0.211,-0.014,0.403,-0.07,1.543
1.598,1.571,-0.05,-0.081,-0.22,0.064,0.403,-0.116,1.548
1.606,1.571,-0.064,-0.083,-0.138,0.031,0.403,-0.148,1.553
1.609,1.571,-0.068,-0.087,-0.031,-0.059,0.403,-0.158,1.558
1.611,1.571,-0.072,-0.09,-0.052,-0.019,0.402,-0.169,1.563
1.614,1.571,-0.077,-0.093,-0.055,0.004,0.402,-0.18,1.568
1.617,1.571,-0.083,-0.097,-0.062,0.033,0.402,-0.193,1.573
1.616,1.571,-0.081,-0.101,0.034,-0.065,0.402,-0.189,1.578
1.613,1.571,-0.077,-0.104,0.051,-0.094,0.402,-0.179,1.583
1.613,1.571,-0.076,-0.108,0.004,-0.047,0.402,-0.177,1.588
1.607,1.571,-0.066,-0.111,0.13,-0.203,0.403,-0.153,1.593
1.603,1.571,-0.058,-0.113,0.076,-0.172,0.403,-0.135,1.598
1.599,1.571,-0.051,-0.116,0.072,-0.188,0.403,-0.12,1.603
1.592,1.571,-0.038,-0.117,0.16,-0.319,0.403,-0.089,1.608
1.586,1.571,-0.027,-0.119,0.114,-0.308,0.403,-0.063,1.613
1.58,1.571,-0.017,-0.119,0.108,-0.335,0.403,-0.04,1.618
1.572,1.571,-0.002,-0.119,0.182,-0.46,0.403,-0.004,1.623
1.566,1.571,0.009,-0.119,0.102,-0.415,0.403,0.021,1.628
1.56,1.571,0.02,-0.118,0.125,-0.476,0.403,0.046,1.633
1.553,1.571,0.032,-0.117,0.135,-0.528,0.403,0.075,1.638
1.549,1.571,0.039,-0.115,0.06,-0.477,0.403,0.09,1.643
1.545,1.571,0.046,-0.113,0.083,-0.525,0.403,0.107,1.648
1.543,1.571,0.051,-0.111,0.049,-0.51,0.403,0.119,1.653
1.542,1.571,0.052,-0.108,0.005,-0.472,0.403,0.121,1.658
1.541,1.571,0.054,-0.106,0.028,-0.505,0.403,0.126,1.663
1.542,1.571,0.052,-0.103,-0.028,-0.447,0.403,0.122,1.668
1.543,1.571,0.051,-0.101,-0.016,-0.455,0.403,0.119,1.673
1.544,1.571,0.047,-0.099,-0.04,-0.422,0.403,0.111,1.678
1.547,1.571,0.043,-0.097,-0.058,-0.39,0.403,0.099,1.683
1.549,1.571,0.039,-0.095,-0.032,-0.406,0.403,0.091,1.688
1.552,1.571,0.033,-0.094,-0.074,-0.346,0.403,0.077,1.693
1.555,1.571,0.028,-0.092,-0.051,-0.353,0.403,0.066,1.698
1.558,1.571,0.023,-0.091,-0.055,-0.333,0.403,0.054,1.703
1.561,1.571,0.017,-0.091,-0.069,-0.3,0.403,0.04,1.708
1.563,1.571,0.013,-0.09,-0.037,-0.32,0.403,0.031,1.713
1.566,1.571,0.009,-0.09,-0.051,-0.292,0.403,0.021,1.718
1.568,1.571,0.005,-0.089,-0.041,-0.289,0.403,0.012,1.723
1.57,1.571,0.002,-0.089,-0.028,-0.293,0.403,0.005,1.728
1.571,1.571,-0.001,-0.089,-0.031,-0.281,0.403,-0.001,1.733
1.572,1.571,-0.002,-0.089,-0.008,-0.3,0.403,-0.004,1.738
1.572,1.571,-0.002,-0.089,0.002,-0.31,0.403,-0.004,1.743
1.572,1.571,-0.002,-0.09,-0.008,-0.298,0.403,-0.005,1.748
1.572,1.571,-0.002,-0.09,0.002,-0.307,0.403,-0.005,1.753
1.571,1.571,-0.001,-0.09,0.014,-0.324,0.403,-0.003,1.758
1.571,1.571,-0.001,-0.09,0.004,-0.316,0.403,-0.001,1.763
1.571,1.571,0,-0.09,0.006,-0.32,0.403,0,1.768
1.57,1.571,0.002,-0.09,0.021,-0.339,0.403,0.004,1.773
1.57,1.571,0.002,-0.09,0.003,-0.324,0.403,0.005,1.778
1.569,1.571,0.003,-0.089,0.014,-0.338,0.403,0.008,1.783
1.568,1.571,0.004,-0.089,0.012,-0.34,0.403,0.01,1.788
1.568,1.571,0.005,-0.089,0.005,-0.335,0.403,0.012,1.793
1.568,1.571,0.005,-0.089,-0.001,-0.33,0.403,0.012,1.798
1.568,1.571,0.006,-0.088,0.007,-0.34,0.403,0.013,1.803
1.568,1.571,0.006,-0.088,-0.001,-0.332,0.403,0.013,1.808
1.568,1.571,0.006,-0.088,0,-0.334,0.403,0.013,1.813
1.568,1.571,0.006,-0.088,0,-0.333,0.403,0.013,1.818
1.568,1.571,0.006,-0.087,0,-0.334,0.403,0.013,1.823
1.568,1.571,0.006,-0.087,0,-0.334,0.403,0.013,1.828
1.568,1.571,0.005,-0.087,-0.007,-0.325,0.403,0.012,1.833
1.568,1.571,0.006,-0.087,0.009,-0.343,0.403,0.013,1.838
1.568,1.571,0.006,-0.086,-0.002,-0.333,0.403,0.013,1.843
1.568,1.571,0.005,-0.086,-0.007,-0.326,0.403,0.012,1.848
1.568,1.571,0.006,-0.086,0.009,-0.344,0.403,0.013,1.853
1.568,1.571,0.006,-0.086,-0.002,-0.334,0.403,0.013,1.858
1.568,1.571,0.006,-0.085,0,-0.336,0.403,0.013,1.863
1.568,1.571,0.006,-0.085,0,-0.336,0.403,0.013,1.868
1.568,1.571,0.006,-0.085,0,-0.336,0.403,0.013,1.873
1.568,1.571,0.005,-0.085,-0.007,-0.327,0.403,0.012,1.878
1.568,1.571,0.006,-0.085,0.009,-0.345,0.403,0.013,1.883
1.568,1.571,0.005,-0.084,-0.009,-0.326,0.403,0.012,1.888
1.568,1.571,0.006,-0.084,0.009,-0.346,0.403,0.013,1.893
1.568,1.571,0.006,-0.084,-0.002,-0.336,0.403,0.013,1.898
1.568,1.571,0.005,-0.084,-0.007,-0.329,0.403,0.012,1.903
1.568,1.571,0.006,-0.083,0.009,-0.347,0.403,0.013,1.908
1.568,1.571,0.005,-0.083,-0.009,-0.327,0.403,0.012,1.913
1.568,1.571,0.006,-0.083,0.009,-0.347,0.403,0.013,1.918
1.568,1.571,0.005,-0.083,-0.009,-0.328,0.403,0.012,1.923
1.568,1.571,0.005,-0.082,0.002,-0.339,0.403,0.012,1.928
1.568,1.571,0.006,-0.082,0.007,-0.346,0.403,0.013,1.933
1.568,1.571,0.005,-0.082,-0.009,-0.329,0.403,0.012,1.938
1.568,1.571,0.006,-0.082,0.009,-0.349,0.403,0.013,1.943
1.568,1.571,0.005,-0.081,-0.009,-0.329,0.403,0.012,1.948
1.568,1.571,0.006,-0.081,0.009,-0.349,0.403,0.013,1.953
1.568,1.571,0.005,-0.081,-0.009,-0.329,0.403,0.012,1.958
1.568,1.571,0.005,-0.081,0.002,-0.34,0.403,0.012,1.963
1.568,1.571,0.005,-0.081,0,-0.339,0.403,0.012,1.968
1.568,1.571,0.005,-0.08,0,-0.339,0.403,0.012,1.973
1.568,1.571,0.006,-0.08,0.007,-0.348,0.403,0.013,1.978
1.568,1.571,0.005,-0.08,-0.009,-0.331,0.403,0.012,1.983
1.568,1.571,0.006,-0.08,0.009,-0.351,0.403,0.013,1.988
1.568,1.571,0.005,-0.079,-0.009,-0.331,0.403,0.012,1.993
1.568,1.571,0.005,-0.079,0.002,-0.342,0.403,0.012,1.998
1.568,1.571,0.005,-0.079,0,-0.34,0.403,0.012,2.003
1.568,1.571,0.005,-0.079,0,-0.341,0.403,0.012,2.008
1.568,1.571,0.006,-0.078,0.007,-0.35,0.403,0.013,2.013
1.568,1.571,0.005,-0.078,-0.009,-0.332,0.403,0.012,2.018
1.568,1.571,0.005,-0.078,0.002,-0.343,0.403,0.012,2.023
1.568,1.571,0.005,-0.078,0,-0.341,0.403,0.012,2.028
1.568,1.571,0.005,-0.077,0,-0.342,0.403,0.012,2.033
1.568,1.571,0.006,-0.077,0.007,-0.351,0.403,0.013,2.038
1.568,1.571,0.006,-0.077,-0.001,-0.343,0.403,0.013,2.043
1.568,1.571,0.006,-0.077,0,-0.345,0.403,0.013,2.048
1.568,1.571,0.005,-0.077,-0.007,-0.336,0.403,0.012,2.053
1.568,1.571,0.005,-0.076,0.001,-0.345,0.403,0.012,2.058
1.568,1.571,0.005,-0.076,0,-0.343,0.403,0.012,2.063
1.568,1.571,0.005,-0.076,0,-0.344,0.403,0.012,2.068
1.568,1.571,0.005,-0.076,0,-0.344,0.403,0.012,2.073
1.568,1.571,0.005,-0.075,0,-0.344,0.403,0.012,2.078
1.568,1.571,0.006,-0.075,0.007,-0.353,0.403,0.013,2.083
1.568,1.571,0.005,-0.075,-0.009,-0.336,0.403,0.012,2.088
1.568,1.571,0.005,-0.075,0.002,-0.346,0.403,0.012,2.093
1.568,1.571,0.006,-0.074,0.007,-0.354,0.403,0.013,2.098
1.568,1.571,0.005,-0.074,-0.009,-0.337,0.403,0.012,2.104
1.568,1.571,0.005,-0.074,0.002,-0.347,0.403,0.012,2.109
1.568,1.571,0.005,-0.074,0,-0.345,0.403,0.012,2.114
1.568,1.571,0.005,-0.074,0,-0.346,0.403,0.012,2.119
1.568,1.571,0.006,-0.073,0.007,-0.355,0.403,0.013,2.124
1.568,1.571,0.005,-0.073,-0.009,-0.338,0.403,0.012,2.129
1.568,1.571,0.005,-0.073,0.002,-0.348,0.403,0.012,2.134
1.568,1.571,0.005,-0.073,0,-0.346,0.403,0.012,2.139
1.568,1.571,0.005,-0.072,0,-0.347,0.403,0.012,2.144
1.568,1.571,0.005,-0.072,0,-0.347,0.403,0.012,2.149
1.568,1.571,0.005,-0.072,0,-0.347,0.403,0.012,2.154
1.568,1.571,0.005,-0.072,0,-0.348,0.403,0.012,2.159
1.568,1.571,0.005,-0.071,0,-0.348,0.403,0.012,2.164
1.568,1.571,0.005,-0.071,0,-0.348,0.403,0.012,2.169
1.568,1.571,0.005,-0.071,0,-0.348,0.403,0.012,2.174
1.568,1.571,0.005,-0.071,0,-0.349,0.403,0.012,2.179
1.568,1.571,0.005,-0.071,0,-0.349,0.403,0.012,2.184
1.568,1.571,0.005,-0.07,0,-0.349,0.403,0.012,2.189
1.568,1.571,0.005,-0.07,0,-0.349,0.403,0.012,2.194
1.568,1.571,0.005,-0.07,0,-0.349,0.403,0.012,2.199
1.568,1.571,0.005,-0.07,0,-0.35,0.403,0.012,2.204
1.568,1.571,0.005,-0.069,0,-0.35,0.403,0.012,2.209
1.568,1.571,0.005,-0.069,0,-0.35,0.403,0.012,2.214
1.568,1.571,0.005,-0.069,0,-0.35,0.403,0.012,2.219
1.568,1.571,0.005,-0.069,0,-0.351,0.403,0.012,2.224
1.568,1.571,0.005,-0.069,0,-0.351,0.403,0.012,2.229
1.568,1.571,0.004,-0.068,-0.007,-0.342,0.403,0.01,2.234
1.569,1.571,0.004,-0.068,-0.006,-0.342,0.403,0.009,2.239
1.569,1.571,0.003,-0.068,-0.013,-0.331,0.403,0.006,2.244
1.57,1.571,0.001,-0.068,-0.026,-0.31,0.403,0.001,2.249
1.57,1.571,0.001,-0.068,0.005,-0.342,0.403,0.001,2.254
1.571,1.571,0,-0.068,-0.008,-0.326,0.403,0,2.259
1.571,1.571,-0.001,-0.068,-0.006,-0.327,0.403,-0.001,2.264
1.571,1.571,-0.001,-0.068,-0.006,-0.325,0.403,-0.003,2.269
1.571,1.571,-0.001,-0.068,0.001,-0.332,0.403,-0.003,2.274
1.572,1.571,-0.002,-0.068,-0.008,-0.322,0.403,-0.004,2.279
1.572,1.571,-0.002,-0.068,-0.006,-0.321,0.403,-0.005,2.284
1.572,1.571,-0.002,-0.068,0.001,-0.328,0.403,-0.005,2.289
1.572,1.571,-0.002,-0.068,0,-0.327,0.403,-0.005,2.294
1.572,1.571,-0.002,-0.069,0,-0.327,0.403,-0.005,2.299
1.572,1.571,-0.002,-0.069,0,-0.327,0.403,-0.005,2.304
1.572,1.571,-0.002,-0.069,0,-0.327,0.403,-0.005,2.309
1.572,1.571,-0.003,-0.069,-0.007,-0.317,0.403,-0.006,2.314
1.572,1.571,-0.003,-0.069,0.001,-0.326,0.403,-0.006,2.319
1.573,1.571,-0.003,-0.069,-0.008,-0.315,0.403,-0.008,2.324
1.573,1.571,-0.003,-0.069,0.002,-0.324,0.403,-0.008,2.329
1.572,1.571,-0.003,-0.069,0.007,-0.331,0.403,-0.006,2.334
1.573,1.571,-0.003,-0.07,-0.009,-0.313,0.403,-0.008,2.339
1.573,1.571,-0.003,-0.07,0.002,-0.324,0.403,-0.008,2.344
1.572,1.571,-0.003,-0.07,0.007,-0.331,0.403,-0.006,2.349
1.572,1.571,-0.003,-0.07,-0.001,-0.322,0.403,-0.006,2.354
1.572,1.571,-0.003,-0.07,0,-0.324,0.403,-0.006,2.359
1.572,1.571,-0.003,-0.07,0,-0.323,0.403,-0.006,2.364
1.573,1.571,-0.003,-0.07,-0.007,-0.314,0.403,-0.008,2.369
1.573,1.571,-0.003,-0.071,0.001,-0.323,0.403,-0.008,2.374
1.573,1.571,-0.003,-0.071,0,-0.321,0.403,-0.008,2.379
1.572,1.571,-0.003,-0.071,0.007,-0.33,0.403,-0.006,2.384
1.572,1.571,-0.003,-0.071,-0.001,-0.321,0.403,-0.006,2.389
1.573,1.571,-0.003,-0.071,-0.007,-0.314,0.403,-0.008,2.394
1.572,1.571,-0.003,-0.071,0.009,-0.331,0.403,-0.006,2.399
1.572,1.571,-0.003,-0.071,-0.002,-0.321,0.403,-0.006,2.404
1.572,1.571,-0.003,-0.071,0,-0.322,0.403,-0.006,2.409
1.573,1.571,-0.003,-0.072,-0.007,-0.313,0.403,-0.008,2.414
1.573,1.571,-0.003,-0.072,0.001,-0.321,0.403,-0.008,2.419
1.572,1.571,-0.003,-0.072,0.007,-0.329,0.403,-0.006,2.424
1.572,1.571,-0.003,-0.072,-0.001,-0.32,0.403,-0.006,2.429
1.572,1.571,-0.003,-0.072,0,-0.322,0.403,-0.006,2.434
1.572,1.571,-0.003,-0.072,0,-0.321,0.403,-0.006,2.439
1.572,1.571,-0.003,-0.072,0,-0.321,0.403,-0.006,2.444
1.573,1.571,-0.003,-0.073,-0.007,-0.312,0.403,-0.008,2.449
1.572,1.571,-0.003,-0.073,0.009,-0.33,0.403,-0.006,2.454
1.572,1.571,-0.003,-0.073,-0.002,-0.319,0.403,-0.006,2.459
1.573,1.571,-0.003,-0.073,-0.007,-0.312,0.403,-0.008,2.464
1.572,1.571,-0.003,-0.073,0.009,-0.329,0.403,-0.006,2.469
1.572,1.571,-0.003,-0.073,-0.002,-0.319,0.403,-0.006,2.474
1.572,1.571,-0.003,-0.073,0,-0.321,0.403,-0.006,2.479
1.572,1.571,-0.003,-0.073,0,-0.32,0.403,-0.006,2.484
1.572,1.571,-0.003,-0.074,0,-0.32,0.403,-0.006,2.489
1.572,1.571,-0.003,-0.074,0,-0.32,0.403,-0.006,2.494
1.572,1.571,-0.003,-0.074,0,-0.32,0.403,-0.006,2.499
1.572,1.571,-0.003,-0.074,0,-0.32,0.403,-0.006,2.504
1.572,1.571,-0.003,-0.074,0,-0.32,0.403,-0.006,2.509
1.572,1.571,-0.003,-0.074,0,-0.319,0.403,-0.006,2.514
1.572,1.571,-0.003,-0.074,0,-0.319,0.403,-0.006,2.519
1.572,1.571,-0.003,-0.074,0,-0.319,0.403,-0.006,2.524
1.572,1.571,-0.003,-0.075,0,-0.319,0.403,-0.006,2.529
1.572,1.571,-0.003,-0.075,0,-0.319,0.403,-0.006,2.534
1.572,1.571,-0.003,-0.075,0,-0.319,0.403,-0.006,2.539
1.572,1.571,-0.003,-0.075,0,-0.319,0.403,-0.006,2.544
1.572,1.571,-0.003,-0.075,0,-0.319,0.403,-0.006,2.549
1.572,1.571,-0.003,-0.075,0,-0.318,0.403,-0.006,2.554
1.572,1.571,-0.003,-0.075,0,-0.318,0.403,-0.006,2.559
1.572,1.571,-0.003,-0.075,0,-0.318,0.403,-0.006,2.564
1.572,1.571,-0.003,-0.076,0,-0.318,0.403,-0.006,2.569
1.572,1.571,-0.003,-0.076,0,-0.318,0.403,-0.006,2.574
1.572,1.571,-0.003,-0.076,0,-0.318,0.403,-0.006,2.579
1.572,1.571,-0.003,-0.076,0,-0.318,0.403,-0.006,2.584
1.572,1.571,-0.003,-0.076,0,-0.318,0.403,-0.006,2.589
1.572,1.571,-0.003,-0.076,0,-0.317,0.403,-0.006,2.594
1.572,1.571,-0.002,-0.076,0.007,-0.326,0.403,-0.005,2.599
1.572,1.571,-0.002,-0.076,0.006,-0.327,0.403,-0.004,2.604
1.571,1.571,-0.001,-0.076,0.006,-0.329,0.403,-0.003,2.609
1.571,1.571,0,-0.076,0.013,-0.34,0.403,0,2.614
1.57,1.571,0.001,-0.076,0.005,-0.333,0.403,0.001,2.619
1.57,1.571,0.001,-0.076,0.006,-0.336,0.403,0.003,2.624
1.57,1.571,0.002,-0.076,0.006,-0.338,0.403,0.004,2.629
1.57,1.571,0.002,-0.076,-0.001,-0.331,0.403,0.004,2.634
1.57,1.571,0.002,-0.076,0,-0.332,0.403,0.004,2.639
1.57,1.571,0.002,-0.076,0,-0.332,0.403,0.004,2.644
1.57,1.571,0.001,-0.076,-0.007,-0.323,0.403,0.003,2.649
1.57,1.571,0.001,-0.076,0.001,-0.332,0.403,0.003,2.654
1.57,1.571,0.002,-0.076,0.007,-0.339,0.403,0.004,2.659
1.57,1.571,0.002,-0.076,-0.001,-0.331,0.403,0.004,2.664
1.57,1.571,0.002,-0.076,0,-0.333,0.403,0.004,2.669
1.57,1.571,0.002,-0.076,0,-0.333,0.403,0.004,2.674
1.57,1.571,0.002,-0.076,0,-0.333,0.403,0.004,2.679
1.57,1.571,0.002,-0.076,0,-0.333,0.403,0.004,2.684
1.57,1.571,0.002,-0.075,0,-0.333,0.403,0.004,2.69
1.57,1.571,0.001,-0.075,-0.007,-0.324,0.403,0.003,2.695
1.57,1.571,0.002,-0.075,0.009,-0.342,0.403,0.004,2.7
1.57,1.571,0.002,-0.075,-0.002,-0.331,0.403,0.004,2.705
1.57,1.571,0.002,-0.075,0,-0.334,0.403,0.004,2.71
1.57,1.571,0.002,-0.075,0,-0.333,0.403,0.004,2.715
1.57,1.571,0.001,-0.075,-0.007,-0.324,0.403,0.003,2.72
1.57,1.571,0.002,-0.075,0.009,-0.342,0.403,0.004,2.725
1.57,1.571,0.002,-0.075,-0.002,-0.332,0.403,0.004,2.73
1.57,1.571,0.002,-0.075,0,-0.334,0.403,0.004,2.735
1.57,1.571,0.002,-0.075,0,-0.334,0.403,0.004,2.74
1.57,1.571,0.002,-0.075,0,-0.334,0.403,0.004,2.745
1.57,1.571,0.002,-0.075,0,-0.334,0.403,0.004,2.75
1.57,1.571,0.001,-0.075,-0.007,-0.325,0.403,0.003,2.755
1.57,1.571,0.002,-0.074,0.009,-0.343,0.403,0.004,2.76
1.57,1.571,0.002,-0.074,-0.002,-0.332,0.403,0.004,2.765
1.57,1.571,0.001,-0.074,-0.007,-0.325,0.403,0.003,2.77
1.57,1.571,0.002,-0.074,0.009,-0.343,0.403,0.004,2.775
1.57,1.571,0.002,-0.074,-0.002,-0.332,0.403,0.004,2.78
1.57,1.571,0.002,-0.074,0,-0.335,0.403,0.004,2.785
1.57,1.571,0.002,-0.074,0,-0.334,0.403,0.004,2.79
1.57,1.571,0.002,-0.074,0,-0.334,0.403,0.004,2.795
1.57,1.571,0.002,-0.074,0,-0.334,0.403,0.004,2.8
1.57,1.571,0.002,-0.074,0,-0.335,0.403,0.004,2.805
1.57,1.571,0.001,-0.074,-0.007,-0.325,0.403,0.003,2.81
1.57,1.571,0.001,-0.074,0.001,-0.334,0.403,0.003,2.815
1.57,1.571,0.002,-0.074,0.007,-0.342,0.403,0.004,2.82
1.57,1.571,0.002,-0.074,-0.001,-0.333,0.403,0.004,2.825
1.57,1.571,0.002,-0.073,0,-0.335,0.403,0.004,2.83
1.57,1.571,0.002,-0.073,0,-0.335,0.403,0.004,2.835
1.57,1.571,0.002,-0.073,0,-0.335,0.403,0.004,2.84
1.57,1.571,0.002,-0.073,0,-0.335,0.403,0.004,2.845
1.57,1.571,0.002,-0.073,0,-0.335,0.403,0.004,2.85
1.57,1.571,0.002,-0.073,0,-0.335,0.403,0.004,2.855
1.57,1.571,0.002,-0.073,0,-0.335,0.403,0.004,2.86
1.57,1.571,0.002,-0.073,0,-0.335,0.403,0.004,2.865
1.57,1.571,0.002,-0.073,0,-0.335,0.403,0.004,2.87
1.57,1.571,0.002,-0.073,0,-0.336,0.403,0.004,2.875
1.57,1.571,0.002,-0.073,0,-0.336,0.403,0.004,2.88
1.57,1.571,0.002,-0.073,0,-0.336,0.403,0.004,2.885
1.57,1.571,0.002,-0.073,0,-0.336,0.403,0.004,2.89
1.57,1.571,0.002,-0.073,0,-0.336,0.403,0.004,2.895
1.57,1.571,0.002,-0.072,0,-0.336,0.403,0.004,2.9
1.57,1.571,0.001,-0.072,-0.007,-0.327,0.403,0.003,2.905
1.57,1.571,0.001,-0.072,0.001,-0.336,0.403,0.003,2.91
1.57,1.571,0.002,-0.072,0.007,-0.343,0.403,0.004,2.915
1.57,1.571,0.002,-0.072,-0.001,-0.335,0.403,0.004,2.92
1.57,1.571,0.002,-0.072,0,-0.337,0.403,0.004,2.925
1.57,1.571,0.002,-0.072,0,-0.336,0.403,0.004,2.93
1.57,1.571,0.002,-0.072,0,-0.336,0.403,0.004,2.935
1.57,1.571,0.002,-0.072,0,-0.336,0.403,0.004,2.94
1.57,1.571,0.002,-0.072,0,-0.337,0.403,0.004,2.945
1.57,1.571,0.002,-0.072,0,-0.337,0.403,0.004,2.95
1.57,1.571,0.001,-0.072,-0.007,-0.328,0.403,0.003,2.955
1.57,1.571,0.001,-0.072,0.001,-0.336,0.403,0.003,2.96
1.57,1.571,0.002,-0.072,0.007,-0.344,0.403,0.004,2.965
1.57,1.571,0.001,-0.072,-0.009,-0.326,0.403,0.003,2.97
1.57,1.571,0.001,-0.071,0.002,-0.337,0.403,0.003,2.975
1.57,1.571,0.002,-0.071,0.007,-0.344,0.403,0.004,2.98
1.57,1.571,0.002,-0.071,-0.001,-0.336,0.403,0.004,2.985
1.57,1.571,0.002,-0.071,0,-0.337,0.403,0.004,2.99
1.57,1.571,0.002,-0.071,0,-0.337,0.403,0.004,2.995
1.57,1.571,0.002,-0.071,0,-0.337,0.403,0.004,3
1.57,1.571,0.002,-0.071,0,-0.337,0.403,0.004,3.005
1.57,1.571,0.002,-0.071,0,-0.337,0.403,0.004,3.01
1.57,1.571,0.002,-0.071,0,-0.337,0.403,0.004,3.015
1.57,1.571,0.002,-0.071,0,-0.338,0.403,0.004,3.02
1.57,1.571,0.001,-0.071,-0.007,-0.328,0.403,0.003,3.025
1.57,1.571,0.002,-0.071,0.009,-0.346,0.403,0.004,3.03
1.57,1.571,0.002,-0.071,-0.002,-0.336,0.403,0.004,3.035
1.57,1.571,0.002,-0.071,0,-0.338,0.403,0.004,3.04
1.57,1.571,0.002,-0.07,0,-0.338,0.403,0.004,3.045
1.57,1.571,0.001,-0.07,-0.007,-0.329,0.403,0.003,3.05
1.57,1.571,0.001,-0.07,0.001,-0.338,0.403,0.003,3.055
1.57,1.571,0.002,-0.07,0.007,-0.345,0.403,0.004,3.06
1.57,1.571,0.002,-0.07,-0.001,-0.337,0.403,0.004,3.065
1.57,1.571,0.002,-0.07,0,-0.339,0.403,0.004,3.07
1.57,1.571,0.002,-0.07,0,-0.338,0.403,0.004,3.075
1.57,1.571,0.002,-0.07,0,-0.338,0.403,0.004,3.08
1.57,1.571,0.002,-0.07,0,-0.338,0.403,0.004,3.085
1.57,1.571,0.002,-0.07,0,-0.339,0.403,0.004,3.09
1.57,1.571,0.002,-0.07,0,-0.339,0.403,0.004,3.095
1.57,1.571,0.001,-0.07,-0.007,-0.33,0.403,0.003,3.1
1.57,1.571,0.002,-0.07,0.009,-0.347,0.403,0.004,3.105
1.57,1.571,0.002,-0.07,-0.002,-0.337,0.403,0.004,3.11
1.57,1.571,0.001,-0.069,-0.007,-0.33,0.403,0.003,3.115
1.57,1.571,0.002,-0.069,0.009,-0.348,0.403,0.004,3.12
1.57,1.571,0.002,-0.069,-0.002,-0.337,0.403,0.004,3.125
1.57,1.571,0.001,-0.069,-0.007,-0.33,0.403,0.003,3.13
1.57,1.571,0.001,-0.069,0.001,-0.339,0.403,0.003,3.135
1.57,1.571,0.002,-0.069,0.007,-0.346,0.403,0.004,3.14
1.57,1.571,0.002,-0.069,-0.001,-0.338,0.403,0.004,3.145
1.57,1.571,0.001,-0.069,-0.007,-0.33,0.403,0.003,3.15
1.57,1.571,0.001,-0.069,0.001,-0.339,0.403,0.003,3.155
1.57,1.571,0.002,-0.069,0.007,-0.346,0.403,0.004,3.16
1.57,1.571,0.002,-0.069,-0.001,-0.338,0.403,0.004,3.165
1.57,1.571,0.001,-0.069,-0.007,-0.331,0.403,0.003,3.17
1.57,1.571,0.002,-0.069,0.009,-0.348,0.403,0.004,3.175
1.57,1.571,0.002,-0.069,-0.002,-0.338,0.403,0.004,3.18
1.57,1.571,0.002,-0.069,0,-0.34,0.403,0.004,3.185
1.57,1.571,0.002,-0.068,0,-0.34,0.403,0.004,3.19
1.57,1.571,0.002,-0.068,0,-0.34,0.403,0.004,3.195
1.57,1.571,0.002,-0.068,0,-0.34,0.403,0.004,3.2
1.57,1.571,0.002,-0.068,0,-0.34,0.403,0.004,3.205
1.57,1.571,0.002,-0.068,0,-0.34,0.403,0.004,3.21
1.57,1.571,0.002,-0.068,0,-0.34,0.403,0.004,3.215
1.57,1.571,0.002,-0.068,0,-0.34,0.403,0.004,3.22
1.57,1.571,0.001,-0.068,-0.007,-0.331,0.403,0.003,3.225
1.57,1.571,0.001,-0.068,0.001,-0.34,0.403,0.003,3.23
1.57,1.571,0.001,-0.068,0,-0.338,0.403,0.003,3.235
1.57,1.571,0.002,-0.068,0.007,-0.348,0.403,0.004,3.24
1.57,1.571,0.001,-0.068,-0.009,-0.33,0.403,0.003,3.245
1.57,1.571,0.001,-0.068,0.002,-0.341,0.403,0.003,3.25
1.57,1.571,0.002,-0.068,0.007,-0.348,0.403,0.004,3.255
1.57,1.571,0.001,-0.068,-0.009,-0.33,0.403,0.003,3.26
1.57,1.571,0.002,-0.067,0.009,-0.35,0.403,0.004,3.265
1.57,1.571,0.001,-0.067,-0.009,-0.33,0.403,0.003,3.27
1.571,1.571,0,-0.067,-0.013,-0.323,0.403,0,3.275
1.571,1.571,0,-0.067,0.003,-0.338,0.403,0,3.28
1.571,1.571,-0.001,-0.067,-0.015,-0.317,0.403,-0.003,3.285
1.572,1.571,-0.002,-0.068,-0.012,-0.316,0.403,-0.005,3.29
1.572,1.571,-0.003,-0.068,-0.005,-0.321,0.403,-0.006,3.296
1.573,1.571,-0.003,-0.068,-0.006,-0.318,0.403,-0.008,3.301
1.573,1.571,-0.004,-0.068,-0.013,-0.307,0.403,-0.01,3.306
1.573,1.571,-0.004,-0.068,0.003,-0.322,0.403,-0.01,3.311
1.574,1.571,-0.006,-0.069,-0.015,-0.301,0.403,-0.013,3.316
1.574,1.571,-0.006,-0.069,-0.004,-0.309,0.403,-0.014,3.321
1.574,1.571,-0.006,-0.069,0.001,-0.314,0.403,-0.014,3.326
1.575,1.571,-0.007,-0.069,-0.015,-0.295,0.403,-0.017,3.331
1.575,1.571,-0.007,-0.07,0.003,-0.312,0.403,-0.017,3.336
1.575,1.571,-0.008,-0.07,-0.008,-0.299,0.403,-0.018,3.341
1.575,1.571,-0.008,-0.07,-0.006,-0.299,0.403,-0.019,3.346
1.576,1.571,-0.009,-0.071,-0.006,-0.296,0.403,-0.021,3.351
1.576,1.571,-0.009,-0.071,0.001,-0.303,0.403,-0.021,3.356
1.576,1.571,-0.009,-0.072,-0.008,-0.292,0.403,-0.022,3.361
1.576,1.571,-0.009,-0.072,0.002,-0.301,0.403,-0.022,3.366
1.576,1.571,-0.009,-0.073,0,-0.299,0.403,-0.022,3.371
1.576,1.571,-0.01,-0.073,-0.007,-0.289,0.403,-0.023,3.376
1.576,1.571,-0.01,-0.073,0.001,-0.298,0.403,-0.023,3.381
1.577,1.571,-0.01,-0.074,-0.008,-0.286,0.403,-0.024,3.386
1.577,1.571,-0.01,-0.074,0.002,-0.295,0.403,-0.024,3.391
1.577,1.571,-0.01,-0.075,0,-0.293,0.403,-0.024,3.396
1.577,1.571,-0.01,-0.075,0,-0.293,0.403,-0.024,3.401
1.576,1.571,-0.01,-0.076,0.007,-0.301,0.403,-0.023,3.406
1.577,1.571,-0.01,-0.076,-0.009,-0.283,0.403,-0.024,3.411
1.577,1.571,-0.01,-0.077,0.002,-0.293,0.403,-0.024,3.416
1.576,1.571,-0.01,-0.077,0.007,-0.299,0.403,-0.023,3.421
1.576,1.571,-0.01,-0.078,-0.001,-0.291,0.403,-0.023,3.426
1.576,1.571,-0.009,-0.078,0.008,-0.301,0.403,-0.022,3.431
1.576,1.571,-0.009,-0.078,0.006,-0.301,0.403,-0.021,3.436
1.575,1.571,-0.008,-0.079,0.006,-0.302,0.403,-0.019,3.441
1.575,1.571,-0.008,-0.079,0.006,-0.304,0.403,-0.018,3.446
1.574,1.571,-0.007,-0.08,0.013,-0.315,0.403,-0.015,3.451
1.574,1.571,-0.007,-0.08,-0.003,-0.298,0.403,-0.015,3.456
1.574,1.571,-0.006,-0.08,0.015,-0.319,0.403,-0.013,3.461
1.574,1.571,-0.005,-0.08,0.004,-0.31,0.403,-0.012,3.466
1.574,1.571,-0.005,-0.081,-0.001,-0.305,0.403,-0.012,3.471
1.573,1.571,-0.004,-0.081,0.015,-0.324,0.403,-0.009,3.476
1.573,1.571,-0.003,-0.081,0.004,-0.315,0.403,-0.008,3.481
1.573,1.571,-0.003,-0.081,-0.001,-0.31,0.403,-0.008,3.486
1.572,1.571,-0.002,-0.081,0.015,-0.329,0.403,-0.005,3.491
1.572,1.571,-0.002,-0.081,0.004,-0.32,0.403,-0.004,3.496
1.572,1.571,-0.002,-0.081,-0.001,-0.315,0.403,-0.004,3.501
1.572,1.571,-0.002,-0.081,0,-0.316,0.403,-0.004,3.506
1.571,1.571,-0.001,-0.081,0.007,-0.325,0.403,-0.003,3.511
1.571,1.571,-0.001,-0.081,-0.001,-0.316,0.403,-0.003,3.516
1.571,1.571,-0.001,-0.081,0,-0.318,0.403,-0.003,3.521
1.571,1.571,-0.001,-0.082,0,-0.318,0.403,-0.003,3.526
1.571,1.571,-0.001,-0.082,0,-0.318,0.403,-0.003,3.531
1.571,1.571,-0.001,-0.082,0,-0.318,0.403,-0.003,3.536
1.571,1.571,-0.001,-0.082,0,-0.317,0.403,-0.003,3.541
1.571,1.571,-0.001,-0.082,0,-0.317,0.403,-0.003,3.546
1.571,1.571,-0.001,-0.082,0,-0.317,0.403,-0.003,3.551
1.571,1.571,-0.001,-0.082,0,-0.317,0.403,-0.003,3.556
1.571,1.571,-0.001,-0.082,0.007,-0.326,0.403,-0.001,3.561
1.568,1.571,0.004,-0.082,0.064,-0.4,0.403,0.01,3.566
1.566,1.571,0.009,-0.081,0.045,-0.396,0.403,0.021,3.571
1.564,1.571,0.012,-0.081,0.027,-0.388,0.403,0.027,3.576
1.56,1.571,0.019,-0.08,0.089,-0.475,0.403,0.044,3.581
1.557,1.571,0.024,-0.079,0.055,-0.46,0.403,0.057,3.586
1.555,1.571,0.028,-0.077,0.04,-0.459,0.403,0.066,3.591
1.549,1.571,0.039,-0.076,0.13,-0.586,0.403,0.09,3.596
1.544,1.571,0.049,-0.074,0.105,-0.596,0.403,0.113,3.601
1.54,1.571,0.055,-0.071,0.066,-0.582,0.403,0.129,3.606
1.534,1.571,0.067,-0.068,0.14,-0.697,0.403,0.156,3.611
1.528,1.571,0.077,-0.064,0.111,-0.706,0.402,0.18,3.616
1.524,1.571,0.085,-0.061,0.08,-0.705,0.402,0.198,3.621
1.517,1.571,0.097,-0.056,0.144,-0.798,0.402,0.21,3.626
1.513,1.571,0.105,-0.051,0.073,-0.739,0.402,0.21,3.631
1.508,1.571,0.113,-0.046,0.087,-0.766,0.402,0.21,3.636
1.501,1.571,0.125,-0.041,0.143,-0.839,0.402,0.21,3.641
1.497,1.571,0.132,-0.035,0.066,-0.775,0.402,0.21,3.646
1.493,1.571,0.14,-0.028,0.089,-0.812,0.402,0.21,3.651
1.487,1.571,0.15,-0.021,0.121,-0.861,0.401,0.21,3.656
1.485,1.571,0.154,-0.014,0.027,-0.778,0.401,0.21,3.661
1.482,1.571,0.161,-0.007,0.082,-0.847,0.401,0.21,3.666
1.477,1.571,0.168,0.001,0.086,-0.866,0.401,0.21,3.671
1.476,1.571,0.17,0.008,0.005,-0.794,0.401,0.21,3.676
1.473,1.571,0.177,0.016,0.087,-0.89,0.401,0.21,3.681
1.47,1.571,0.181,0.025,0.041,-0.857,0.401,0.21,3.686
1.47,1.571,0.182,0.033,-0.001,-0.824,0.401,0.21,3.691
1.467,1.571,0.186,0.041,0.058,-0.897,0.401,0.21,3.696
1.466,1.571,0.188,0.05,0.017,-0.866,0.401,0.21,3.701
1.466,1.571,0.189,0.058,0.004,-0.862,0.401,0.21,3.706
1.465,1.571,0.191,0.067,0.028,-0.897,0.401,0.21,3.711
1.464,1.571,0.192,0.076,0.002,-0.88,0.401,0.21,3.716
1.464,1.571,0.192,0.084,0,-0.886,0.401,0.21,3.721
1.464,1.571,0.192,0.093,0.007,-0.903,0.401,0.21,3.726
1.464,1.571,0.192,0.102,-0.009,-0.895,0.401,0.21,3.731
1.465,1.571,0.191,0.111,-0.006,-0.907,0.401,0.21,3.736
1.465,1.571,0.191,0.119,-0.006,-0.914,0.401,0.21,3.741
1.466,1.571,0.189,0.128,-0.021,-0.907,0.401,0.21,3.746
1.467,1.571,0.187,0.136,-0.018,-0.916,0.401,0.21,3.751
1.468,1.571,0.185,0.145,-0.026,-0.915,0.401,0.21,3.756
1.469,1.571,0.183,0.153,-0.024,-0.923,0.401,0.21,3.761
1.47,1.571,0.181,0.161,-0.024,-0.928,0.401,0.21,3.766
1.472,1.571,0.178,0.169,-0.032,-0.926,0.401,0.21,3.771
1.474,1.571,0.175,0.177,-0.03,-0.933,0.401,0.21,3.776
1.475,1.571,0.172,0.185,-0.038,-0.93,0.401,0.21,3.781
1.477,1.571,0.168,0.193,-0.036,-0.936,0.401,0.21,3.786
1.479,1.571,0.165,0.2,-0.036,-0.94,0.401,0.21,3.791
1.481,1.571,0.161,0.208,-0.044,-0.936,0.401,0.21,3.796
1.483,1.571,0.157,0.215,-0.042,-0.941,0.401,0.21,3.801
1.486,1.571,0.153,0.222,-0.05,-0.936,0.401,0.21,3.806
1.489,1.571,0.148,0.228,-0.056,-0.932,0.401,0.21,3.811
1.491,1.571,0.143,0.235,-0.054,-0.935,0.402,0.21,3.816
1.494,1.571,0.138,0.241,-0.062,-0.928,0.402,0.21,3.821
1.497,1.571,0.132,0.247,-0.06,-0.93,0.402,0.21,3.826
1.501,1.571,0.126,0.253,-0.068,-0.923,0.402,0.21,3.831
1.505,1.571,0.119,0.258,-0.074,-0.916,0.402,0.21,3.836
1.508,1.571,0.113,0.264,-0.065,-0.923,0.402,0.21,3.841
1.512,1.571,0.107,0.268,-0.074,-0.913,0.402,0.21,3.846
1.516,1.571,0.099,0.273,-0.08,-0.905,0.402,0.21,3.851
1.519,1.571,0.093,0.277,-0.064,-0.919,0.402,0.21,3.856
1.523,1.571,0.086,0.281,-0.082,-0.889,0.402,0.201,3.861
1.527,1.571,0.079,0.285,-0.078,-0.872,0.402,0.184,3.866
1.531,1.571,0.072,0.288,-0.072,-0.86,0.402,0.169,3.871
1.535,1.571,0.065,0.291,-0.088,-0.821,0.403,0.151,3.876
1.539,1.571,0.058,0.293,-0.07,-0.819,0.403,0.135,3.881
1.543,1.571,0.051,0.296,-0.081,-0.787,0.403,0.119,3.886
1.547,1.571,0.043,0.298,-0.086,-0.758,0.403,0.101,3.891
1.551,1.571,0.036,0.299,-0.07,-0.753,0.403,0.085,3.897
1.555,1.571,0.029,0.301,-0.088,-0.711,0.403,0.067,3.902
1.559,1.571,0.022,0.302,-0.07,-0.708,0.403,0.052,3.907
1.562,1.571,0.016,0.302,-0.066,-0.692,0.403,0.037,3.912
1.566,1.571,0.009,0.303,-0.074,-0.663,0.403,0.022,3.917
1.569,1.571,0.004,0.303,-0.058,-0.661,0.403,0.009,3.922
1.572,1.571,-0.002,0.303,-0.069,-0.63,0.403,-0.005,3.927
1.575,1.571,-0.008,0.303,-0.059,-0.62,0.403,-0.018,3.932
1.577,1.571,-0.012,0.302,-0.039,-0.627,0.403,-0.027,3.937
1.58,1.571,-0.017,0.301,-0.058,-0.591,0.403,-0.039,3.942
1.582,1.571,-0.02,0.3,-0.039,-0.596,0.403,-0.048,3.947
1.584,1.571,-0.023,0.299,-0.029,-0.596,0.403,-0.054,3.952
1.586,1.571,-0.027,0.298,-0.038,-0.575,0.403,-0.062,3.957
1.586,1.571,-0.028,0.297,-0.014,-0.591,0.403,-0.066,3.962
1.587,1.571,-0.029,0.296,-0.012,-0.589,0.403,-0.068,3.967
1.588,1.571,-0.031,0.294,-0.02,-0.574,0.403,-0.072,3.972
1.588,1.571,-0.031,0.293,0.004,-0.596,0.403,-0.072,3.977
1.588,1.571,-0.031,0.291,-0.001,-0.59,0.403,-0.072,3.982
1.588,1.571,-0.031,0.29,0,-0.59,0.403,-0.072,3.987
1.587,1.571,-0.03,0.289,0.015,-0.606,0.403,-0.07,3.992
1.587,1.571,-0.029,0.287,0.012,-0.606,0.403,-0.067,3.997
1.586,1.571,-0.028,0.286,0.012,-0.609,0.403,-0.064,4.002
1.585,1.571,-0.026,0.285,0.019,-0.62,0.403,-0.061,4.007
1.584,1.571,-0.024,0.284,0.025,-0.633,0.403,-0.055,4.012
1.583,1.571,-0.022,0.283,0.017,-0.629,0.403,-0.052,4.017
1.582,1.571,-0.019,0.282,0.033,-0.653,0.403,-0.045,4.022
1.581,1.571,-0.018,0.281,0.015,-0.64,0.403,-0.041,4.027
1.579,1.571,-0.015,0.28,0.026,-0.658,0.403,-0.036,4.032
1.578,1.571,-0.013,0.28,0.031,-0.671,0.403,-0.03,4.037
1.577,1.571,-0.011,0.279,0.016,-0.661,0.403,-0.026,4.042
1.576,1.571,-0.009,0.279,0.026,-0.678,0.403,-0.021,4.047
1.574,1.571,-0.006,0.279,0.031,-0.692,0.403,-0.014,4.052
1.573,1.571,-0.004,0.278,0.016,-0.682,0.403,-0.01,4.057
1.572,1.571,-0.003,0.278,0.019,-0.691,0.403,-0.006,4.062
1.571,1.571,-0.001,0.278,0.025,-0.705,0.403,-0.001,4.067
1.571,1.571,0,0.278,0.002,-0.683,0.403,0,4.072
1.57,1.571,0.002,0.278,0.021,-0.708,0.403,0.004,4.077
1.569,1.571,0.003,0.278,0.018,-0.71,0.403,0.008,4.082
1.568,1.571,0.004,0.279,0.011,-0.707,0.403,0.01,4.087
1.568,1.571,0.005,0.279,0.005,-0.703,0.403,0.012,4.092
1.568,1.571,0.006,0.279,0.006,-0.707,0.403,0.013,4.097
1.567,1.571,0.006,0.279,0.006,-0.708,0.403,0.014,4.102
1.567,1.571,0.006,0.28,-0.001,-0.702,0.403,0.014,4.107
1.567,1.571,0.007,0.28,0.008,-0.712,0.403,0.015,4.112
1.567,1.571,0.007,0.28,-0.002,-0.704,0.403,0.015,4.117
1.567,1.571,0.007,0.281,0,-0.706,0.403,0.015,4.122
1.567,1.571,0.007,0.281,0,-0.706,0.403,0.015,4.127
1.567,1.571,0.007,0.281,0,-0.706,0.403,0.015,4.132
1.567,1.571,0.006,0.281,-0.007,-0.697,0.403,0.014,4.137
1.567,1.571,0.007,0.282,0.009,-0.715,0.403,0.015,4.142
1.567,1.571,0.006,0.282,-0.009,-0.696,0.403,0.014,4.147
1.567,1.571,0.006,0.282,0.002,-0.707,0.403,0.014,4.152
1.567,1.571,0.006,0.283,0,-0.705,0.403,0.014,4.157
1.567,1.571,0.006,0.283,0,-0.706,0.403,0.014,4.162
1.567,1.571,0.006,0.283,0,-0.706,0.403,0.014,4.167
1.567,1.571,0.006,0.283,0,-0.706,0.403,0.014,4.172
1.567,1.571,0.006,0.284,0,-0.707,0.403,0.014,4.177
1.567,1.571,0.007,0.284,0.007,-0.716,0.403,0.015,4.182
1.568,1.571,0.006,0.284,-0.016,-0.689,0.403,0.013,4.187
1.568,1.571,0.006,0.284,0.003,-0.709,0.403,0.013,4.192
1.568,1.571,0.006,0.285,-0.001,-0.705,0.403,0.013,4.197
1.568,1.571,0.006,0.285,0,-0.706,0.403,0.013,4.202
1.568,1.571,0.006,0.285,0,-0.706,0.403,0.013,4.207
1.568,1.571,0.006,0.286,0,-0.707,0.403,0.013,4.212
1.568,1.571,0.006,0.286,0,-0.707,0.403,0.013,4.217
1.568,1.571,0.005,0.286,-0.007,-0.698,0.403,0.012,4.222
1.568,1.571,0.006,0.286,0.009,-0.716,0.403,0.013,4.227
1.567,1.571,0.006,0.287,0.006,-0.715,0.403,0.014,4.232
1.568,1.571,0.006,0.287,-0.008,-0.7,0.403,0.013,4.237
1.568,1.571,0.006,0.287,0.002,-0.71,0.403,0.013,4.242
1.567,1.571,0.006,0.287,0.007,-0.717,0.403,0.014,4.247
1.568,1.571,0.006,0.288,-0.009,-0.7,0.403,0.013,4.252
1.567,1.571,0.006,0.288,0.009,-0.72,0.403,0.014,4.257
1.567,1.571,0.006,0.288,-0.002,-0.709,0.403,0.014,4.262
1.568,1.571,0.006,0.288,-0.007,-0.703,0.403,0.013,4.267
1.567,1.571,0.006,0.289,0.009,-0.72,0.403,0.014,4.272
1.567,1.571,0.006,0.289,-0.002,-0.71,0.403,0.014,4.277
1.568,1.571,0.006,0.289,-0.007,-0.703,0.403,0.013,4.282
1.567,1.571,0.006,0.289,0.009,-0.721,0.403,0.014,4.287
1.567,1.571,0.006,0.29,-0.002,-0.711,0.403,0.014,4.292
1.568,1.571,0.006,0.29,-0.007,-0.704,0.403,0.013,4.297
1.568,1.571,0.006,0.29,0.001,-0.713,0.403,0.013,4.302
1.567,1.571,0.006,0.29,0.007,-0.721,0.403,0.014,4.307
1.568,1.571,0.006,0.291,-0.009,-0.703,0.403,0.013,4.312
1.568,1.571,0.006,0.291,0.002,-0.714,0.403,0.013,4.317
1.568,1.571,0.006,0.291,0,-0.712,0.403,0.013,4.322
1.568,1.571,0.006,0.291,0,-0.713,0.403,0.013,4.327
1.568,1.571,0.006,0.292,0,-0.713,0.403,0.013,4.332
1.568,1.571,0.006,0.292,0,-0.713,0.403,0.013,4.337
1.568,1.571,0.006,0.292,0,-0.713,0.403,0.013,4.342
1.568,1.571,0.006,0.292,0,-0.714,0.403,0.013,4.347
1.568,1.571,0.006,0.293,0,-0.714,0.403,0.013,4.352
1.567,1.571,0.006,0.293,0.007,-0.723,0.403,0.014,4.357
1.568,1.571,0.006,0.293,-0.009,-0.706,0.403,0.013,4.362
1.568,1.571,0.006,0.294,0.002,-0.716,0.403,0.013,4.367
1.568,1.571,0.006,0.294,0,-0.715,0.403,0.013,4.372
1.568,1.571,0.006,0.294,0,-0.715,0.403,0.013,4.377
1.568,1.571,0.005,0.294,-0.007,-0.706,0.403,0.012,4.382
1.567,1.571,0.006,0.295,0.016,-0.734,0.403,0.014,4.387
1.568,1.571,0.006,0.295,-0.01,-0.705,0.403,0.013,4.392
1.568,1.571,0.006,0.295,0.002,-0.718,0.403,0.013,4.397
1.567,1.571,0.007,0.295,0.021,-0.744,0.403,0.017,4.402
1.568,1.571,0.006,0.296,-0.026,-0.691,0.403,0.013,4.407
1.568,1.571,0.005,0.296,-0.002,-0.713,0.403,0.012,4.412
1.567,1.571,0.007,0.296,0.03,-0.752,0.403,0.017,4.417
1.568,1.571,0.006,0.296,-0.028,-0.69,0.403,0.013,4.422
1.567,1.571,0.006,0.297,0.013,-0.733,0.403,0.014,4.427
1.568,1.571,0.006,0.297,-0.01,-0.708,0.403,0.013,4.432
1.568,1.571,0.006,0.297,0.002,-0.72,0.403,0.013,4.437
1.568,1.571,0.005,0.297,-0.008,-0.709,0.403,0.012,4.442
1.568,1.571,0.006,0.298,0.009,-0.728,0.403,0.013,4.447
1.568,1.571,0.006,0.298,-0.002,-0.717,0.403,0.013,4.452
1.568,1.571,0.005,0.298,-0.007,-0.711,0.403,0.012,4.457
1.568,1.571,0.006,0.298,0.009,-0.728,0.403,0.013,4.462
1.568,1.571,0.006,0.299,-0.002,-0.718,0.403,0.013,4.467
1.568,1.571,0.006,0.299,0,-0.72,0.403,0.013,4.472
1.567,1.571,0.006,0.299,0.007,-0.729,0.403,0.014,4.477
1.568,1.571,0.005,0.299,-0.016,-0.703,0.403,0.012,4.482
1.568,1.571,0.006,0.3,0.01,-0.731,0.403,0.013,4.487
1.568,1.571,0.005,0.3,-0.009,-0.71,0.403,0.012,4.492
1.568,1.571,0.006,0.3,0.009,-0.731,0.403,0.013,4.498
1.568,1.571,0.006,0.3,-0.002,-0.72,0.403,0.013,4.503
1.568,1.571,0.006,0.301,0,-0.722,0.403,0.013,4.508
1.568,1.571,0.006,0.301,0,-0.722,0.403,0.013,4.513
1.568,1.571,0.006,0.301,0,-0.722,0.403,0.013,4.518
1.567,1.571,0.006,0.301,0.007,-0.732,0.403,0.014,4.523
1.568,1.571,0.005,0.302,-0.016,-0.705,0.403,0.012,4.528
1.568,1.571,0.004,0.302,-0.004,-0.715,0.403,0.01,4.533
1.568,1.571,0.006,0.302,0.015,-0.739,0.403,0.013,4.538
1.568,1.571,0.005,0.302,-0.01,-0.711,0.403,0.012,4.543
1.568,1.571,0.005,0.303,0.002,-0.724,0.403,0.012,4.548
1.568,1.571,0.006,0.303,0.007,-0.731,0.403,0.013,4.553
1.568,1.571,0.005,0.303,-0.009,-0.714,0.403,0.012,4.558
1.567,1.571,0.006,0.303,0.016,-0.743,0.403,0.014,4.563
1.568,1.571,0.005,0.304,-0.018,-0.705,0.403,0.012,4.568
1.568,1.571,0.006,0.304,0.011,-0.736,0.403,0.013,4.573
1.567,1.571,0.006,0.304,0.005,-0.732,0.403,0.014,4.578
1.568,1.571,0.005,0.304,-0.016,-0.708,0.403,0.012,4.583
1.568,1.571,0.006,0.305,0.01,-0.736,0.403,0.013,4.588
1.568,1.571,0.006,0.305,-0.002,-0.724,0.403,0.013,4.593
1.567,1.571,0.006,0.305,0.008,-0.736,0.403,0.014,4.598
1.568,1.571,0.006,0.305,-0.009,-0.718,0.403,0.013,4.603
1.568,1.571,0.005,0.306,-0.006,-0.719,0.403,0.012,4.608
1.568,1.571,0.005,0.306,0.001,-0.726,0.403,0.012,4.613
1.568,1.571,0.005,0.306,0,-0.725,0.403,0.012,4.618
1.568,1.571,0.005,0.306,0,-0.726,0.403,0.012,4.623
1.568,1.571,0.006,0.306,0.007,-0.735,0.403,0.013,4.628
1.568,1.571,0.006,0.307,-0.001,-0.726,0.403,0.013,4.633
1.568,1.571,0.006,0.307,0,-0.728,0.403,0.013,4.638
1.567,1.571,0.006,0.307,0.007,-0.738,0.403,0.014,4.643
1.568,1.571,0.005,0.307,-0.016,-0.711,0.403,0.012,4.648
1.568,1.571,0.006,0.308,0.01,-0.739,0.403,0.013,4.653
1.568,1.571,0.005,0.308,-0.009,-0.718,0.403,0.012,4.658
1.567,1.571,0.006,0.308,0.016,-0.748,0.403,0.014,4.663
1.568,1.571,0.005,0.308,-0.018,-0.71,0.403,0.012,4.668
1.568,1.571,0.005,0.309,0.004,-0.732,0.403,0.012,4.673
1.568,1.571,0.006,0.309,0.007,-0.737,0.403,0.013,4.678
1.568,1.571,0.006,0.309,-0.001,-0.729,0.403,0.013,4.683
1.568,1.571,0.005,0.309,-0.007,-0.722,0.403,0.012,4.688
1.568,1.571,0.005,0.31,0.001,-0.73,0.403,0.012,4.693
1.568,1.571,0.006,0.31,0.007,-0.738,0.403,0.013,4.698
1.568,1.571,0.006,0.31,-0.001,-0.73,0.403,0.013,4.703
1.568,1.571,0.005,0.31,-0.007,-0.723,0.403,0.012,4.708
1.568,1.571,0.006,0.311,0.009,-0.74,0.403,0.013,4.713
1.568,1.571,0.005,0.311,-0.009,-0.721,0.403,0.012,4.718
1.567,1.571,0.006,0.311,0.016,-0.751,0.403,0.014,4.723
1.568,1.571,0.006,0.311,-0.011,-0.722,0.403,0.013,4.728
1.568,1.571,0.005,0.312,-0.005,-0.726,0.403,0.012,4.733
1.568,1.571,0.006,0.312,0.008,-0.741,0.403,0.013,4.738
1.568,1.571,0.006,0.312,-0.002,-0.732,0.403,0.013,4.743
1.568,1.571,0.005,0.312,-0.007,-0.725,0.403,0.012,4.748
1.568,1.571,0.006,0.313,0.009,-0.742,0.403,0.013,4.753
1.568,1.571,0.005,0.313,-0.009,-0.723,0.403,0.012,4.758
1.568,1.571,0.006,0.313,0.009,-0.743,0.403,0.013,4.763
1.568,1.571,0.006,0.313,-0.002,-0.733,0.403,0.013,4.768
1.568,1.571,0.006,0.314,0,-0.735,0.403,0.013,4.773
1.568,1.571,0.005,0.314,-0.007,-0.726,0.403,0.012,4.778
1.568,1.571,0.005,0.314,0.001,-0.735,0.403,0.012,4.783
1.568,1.571,0.005,0.314,0,-0.733,0.403,0.012,4.788
1.568,1.571,0.005,0.314,0,-0.734,0.403,0.012,4.793
1.568,1.571,0.006,0.315,0.007,-0.743,0.403,0.013,4.798
1.568,1.571,0.006,0.315,-0.001,-0.735,0.403,0.013,4.803
1.568,1.571,0.005,0.315,-0.007,-0.728,0.403,0.012,4.808
1.568,1.571,0.005,0.315,0.001,-0.736,0.403,0.012,4.813
1.567,1.571,0.006,0.316,0.014,-0.753,0.403,0.014,4.818
1.568,1.571,0.005,0.316,-0.017,-0.718,0.403,0.012,4.823
1.568,1.571,0.006,0.316,0.011,-0.748,0.403,0.013,4.828
1.568,1.571,0.005,0.316,-0.009,-0.726,0.403,0.012,4.833
1.568,1.571,0.006,0.317,0.009,-0.747,0.403,0.013,4.838
1.568,1.571,0.006,0.317,-0.002,-0.736,0.403,0.013,4.843
1.568,1.571,0.006,0.317,0,-0.739,0.403,0.013,4.848
1.568,1.571,0.006,0.317,0,-0.739,0.403,0.013,4.853
1.568,1.571,0.006,0.318,0,-0.739,0.403,0.013,4.858
1.568,1.571,0.006,0.318,0,-0.739,0.403,0.013,4.863
1.567,1.571,0.006,0.318,0.007,-0.748,0.403,0.014,4.868
1.568,1.571,0.005,0.318,-0.016,-0.722,0.403,0.012,4.873
1.568,1.571,0.004,0.319,-0.004,-0.732,0.403,0.01,4.878
1.567,1.571,0.006,0.319,0.023,-0.765,0.403,0.014,4.883
1.568,1.571,0.006,0.319,-0.012,-0.728,0.403,0.013,4.888
1.568,1.571,0.005,0.319,-0.005,-0.734,0.403,0.012,4.893
1.568,1.571,0.005,0.32,0.001,-0.74,0.403,0.012,4.898
1.567,1.571,0.006,0.32,0.014,-0.757,0.403,0.014,4.903
1.568,1.571,0.005,0.32,-0.017,-0.722,0.403,0.012,4.908
1.568,1.571,0.006,0.32,0.011,-0.752,0.403,0.013,4.913
1.567,1.571,0.007,0.321,0.012,-0.758,0.403,0.015,4.918
1.568,1.571,0.005,0.321,-0.024,-0.716,0.403,0.012,4.923
1.567,1.571,0.007,0.321,0.027,-0.773,0.403,0.015,4.928
1.568,1.571,0.005,0.321,-0.027,-0.714,0.403,0.012,4.933
1.568,1.571,0.005,0.322,0.005,-0.746,0.403,0.012,4.938
1.568,1.571,0.005,0.322,-0.001,-0.74,0.403,0.012,4.943
1.568,1.571,0.006,0.322,0.008,-0.751,0.403,0.013,4.948
1.568,1.571,0.005,0.322,-0.009,-0.733,0.403,0.012,4.953
1.568,1.571,0.006,0.323,0.009,-0.753,0.403,0.013,4.958
1.568,1.571,0.005,0.323,-0.009,-0.733,0.403,0.012,4.963
1.568,1.571,0.006,0.323,0.009,-0.753,0.403,0.013,4.968
1.568,1.571,0.005,0.323,-0.009,-0.734,0.403,0.012,4.973
1.568,1.571,0.004,0.323,-0.005,-0.736,0.403,0.01,4.978
1.568,1.571,0.005,0.324,0.008,-0.751,0.403,0.012,4.983
1.568,1.571,0.006,0.324,0.006,-0.751,0.403,0.013,4.988
1.568,1.571,0.005,0.324,-0.008,-0.735,0.403,0.012,4.993
1.568,1.571,0.005,0.324,0.002,-0.745,0.403,0.012,4.998
1.568,1.571,0.006,0.325,0.007,-0.753,0.403,0.013,5.003
